################################################################################
# Neural network connection values (weights and biases).
################################################################################
# Col  Name       Description
################################################################################
# 1    connection Neural network connection value.
# 2    t          Connection type (a = weight, b = bias).
# 3    index      Index enumerating weights.
# 4    l_s        Starting point layer (end point layer for biases).
# 5    n_s        Starting point neuron in starting layer (end point neuron for biases).
# 6    l_e        End point layer.
# 7    n_e        End point neuron in end layer.
################################################################################
#                      1 2         3     4     5     6     7
#             connection t     index   l_s   n_s   l_e   n_e
############################################################
  1.1288371000645604E-01 a         1     0     1     1     1
  3.2733690856624081E-01 a         2     0     1     1     2
  1.6861409282004944E+00 a         3     0     1     1     3
  2.3166386318243729E-01 a         4     0     1     1     4
  3.8461127486119862E-01 a         5     0     1     1     5
  1.1585495799600157E-01 a         6     0     1     1     6
  1.6581397544500598E+00 a         7     0     1     1     7
  2.8850364933059114E-01 a         8     0     1     1     8
 -3.7040544869056374E-01 a         9     0     1     1     9
  6.9983638237219106E-02 a        10     0     1     1    10
 -2.1226051633464063E-01 a        11     0     1     1    11
 -1.0355891086697993E+00 a        12     0     1     1    12
 -1.4988671549462645E-01 a        13     0     1     1    13
  6.2192366145959743E-01 a        14     0     1     1    14
 -1.1490959813141599E-01 a        15     0     1     1    15
  1.5327336405588439E+00 a        16     0     1     1    16
 -1.0506876221190131E+00 a        17     0     1     1    17
 -1.1348417577382205E-01 a        18     0     1     1    18
 -2.3961245385671082E-01 a        19     0     1     1    19
 -1.7999636293659724E-01 a        20     0     1     1    20
 -1.7971559501024251E-02 a        21     0     2     1     1
  2.2422939800339770E-01 a        22     0     2     1     2
  4.0502243377563624E-01 a        23     0     2     1     3
 -2.8970699266549838E-01 a        24     0     2     1     4
 -3.6324746545649522E-01 a        25     0     2     1     5
  1.1542497193817890E-01 a        26     0     2     1     6
  1.9088144490997638E-01 a        27     0     2     1     7
  2.0670603141188290E-01 a        28     0     2     1     8
  1.5073611817971638E-01 a        29     0     2     1     9
 -3.4363994049959623E-01 a        30     0     2     1    10
 -2.0355181552487750E-02 a        31     0     2     1    11
 -3.7973297271088446E-02 a        32     0     2     1    12
 -8.2432753267236328E-02 a        33     0     2     1    13
 -7.2722543295216924E-01 a        34     0     2     1    14
 -5.5183745823584107E-01 a        35     0     2     1    15
  1.0384120917307740E-02 a        36     0     2     1    16
 -4.6482759050269495E-01 a        37     0     2     1    17
 -1.4182413762975947E+00 a        38     0     2     1    18
  3.9933798285724148E-01 a        39     0     2     1    19
 -4.5883326085812587E-01 a        40     0     2     1    20
 -4.4832756111141417E-02 a        41     0     3     1     1
 -3.1068976504067959E-02 a        42     0     3     1     2
  8.9316077866948198E-03 a        43     0     3     1     3
 -6.6016854061692345E-02 a        44     0     3     1     4
 -3.0309011471177519E-03 a        45     0     3     1     5
  2.5038880037461923E-03 a        46     0     3     1     6
  9.7116379011127803E-03 a        47     0     3     1     7
  3.3160013931980398E-02 a        48     0     3     1     8
 -6.5693933793113168E-02 a        49     0     3     1     9
 -5.1421316875975474E-02 a        50     0     3     1    10
 -6.1870289989109574E-02 a        51     0     3     1    11
  6.3036789468816606E-02 a        52     0     3     1    12
 -1.1652295130025683E-02 a        53     0     3     1    13
 -1.5394166307652581E-02 a        54     0     3     1    14
  7.0620378418596808E-02 a        55     0     3     1    15
  8.6803366597721712E-02 a        56     0     3     1    16
 -3.3497240701380292E-02 a        57     0     3     1    17
 -2.8398364719782951E-02 a        58     0     3     1    18
  7.8775914966168009E-02 a        59     0     3     1    19
 -6.0917871391577033E-02 a        60     0     3     1    20
  6.9061422081768464E-01 a        61     0     4     1     1
  9.7959040283580334E-01 a        62     0     4     1     2
  7.4864762493021972E-02 a        63     0     4     1     3
 -3.5322363856505334E+00 a        64     0     4     1     4
 -6.6942967859008840E-01 a        65     0     4     1     5
  7.2537314874543612E-01 a        66     0     4     1     6
  3.4303485414486512E+00 a        67     0     4     1     7
  1.4045620093752709E-01 a        68     0     4     1     8
  2.2940461182246268E+00 a        69     0     4     1     9
  1.9420823727981995E+00 a        70     0     4     1    10
 -4.3887546713302167E-01 a        71     0     4     1    11
 -1.0761613143629458E+00 a        72     0     4     1    12
  7.2753942507250213E-01 a        73     0     4     1    13
 -3.6316830062927568E+00 a        74     0     4     1    14
  2.5675888557773709E+00 a        75     0     4     1    15
 -7.6534872126837461E-02 a        76     0     4     1    16
 -2.7746493696531926E+00 a        77     0     4     1    17
 -5.7846633376607652E+00 a        78     0     4     1    18
  1.1547028346880216E-01 a        79     0     4     1    19
 -3.3833060408238618E+00 a        80     0     4     1    20
  1.3483443381537938E-02 a        81     0     5     1     1
 -2.2303857967870780E-01 a        82     0     5     1     2
 -9.7771249961803364E-01 a        83     0     5     1     3
 -8.2107123915039237E-01 a        84     0     5     1     4
 -8.2305540295532706E-02 a        85     0     5     1     5
  1.6559708709972101E-01 a        86     0     5     1     6
 -3.0722505135769582E+00 a        87     0     5     1     7
 -1.9478951612519876E-01 a        88     0     5     1     8
  7.2334876421798477E-02 a        89     0     5     1     9
 -1.5037345313404853E+00 a        90     0     5     1    10
  1.3097453902866787E-01 a        91     0     5     1    11
  5.9956871201132000E-01 a        92     0     5     1    12
  2.2397654745413867E-01 a        93     0     5     1    13
 -1.2058753634178940E-01 a        94     0     5     1    14
  1.1281030541840860E-01 a        95     0     5     1    15
 -1.2601679246764372E+00 a        96     0     5     1    16
  8.7117047913358170E-02 a        97     0     5     1    17
  1.2332691098071609E-01 a        98     0     5     1    18
  4.5596096964603733E-01 a        99     0     5     1    19
  3.1590795946880218E-02 a       100     0     5     1    20
  5.7172909151525309E-01 a       101     0     6     1     1
  1.3614812465373505E+00 a       102     0     6     1     2
  2.4315395856031383E+00 a       103     0     6     1     3
 -1.0008572330104203E+01 a       104     0     6     1     4
 -2.5821629380430817E+00 a       105     0     6     1     5
 -7.3272066244235534E-01 a       106     0     6     1     6
  1.2971647450177381E+01 a       107     0     6     1     7
  4.7560112026172247E-01 a       108     0     6     1     8
  4.3321842650510805E+00 a       109     0     6     1     9
  3.7237210568280426E+00 a       110     0     6     1    10
  3.6457503257166146E-01 a       111     0     6     1    11
 -9.7816202855996570E-01 a       112     0     6     1    12
  1.0867779279602645E+00 a       113     0     6     1    13
 -4.3037130069068938E+00 a       114     0     6     1    14
  1.0771945842511080E+01 a       115     0     6     1    15
 -1.4861015523147887E+00 a       116     0     6     1    16
 -8.8972459126439389E+00 a       117     0     6     1    17
 -7.1462050919380040E+00 a       118     0     6     1    18
  1.6774824537406394E+00 a       119     0     6     1    19
 -6.0434242164648717E+00 a       120     0     6     1    20
  3.0377172930928664E-01 a       121     0     7     1     1
  5.2800721308052034E-01 a       122     0     7     1     2
 -7.9174618640414118E-01 a       123     0     7     1     3
 -2.9463541888065881E+00 a       124     0     7     1     4
 -2.3640161175634566E+00 a       125     0     7     1     5
 -2.1025621125473251E+00 a       126     0     7     1     6
  5.2520542550827782E+00 a       127     0     7     1     7
  1.4621063056396542E+00 a       128     0     7     1     8
  1.9546579252489553E+00 a       129     0     7     1     9
 -4.8485652166707069E+00 a       130     0     7     1    10
 -3.3332681020812555E-01 a       131     0     7     1    11
  1.9505062832480271E+00 a       132     0     7     1    12
  7.0305844722000732E-01 a       133     0     7     1    13
 -5.9755310699172854E+00 a       134     0     7     1    14
 -6.2656430980480871E-01 a       135     0     7     1    15
  5.3167320048959821E-01 a       136     0     7     1    16
 -6.3961804117797945E+00 a       137     0     7     1    17
 -4.8921175512242794E+00 a       138     0     7     1    18
  2.6659624065298995E+00 a       139     0     7     1    19
 -3.7380177454485439E+00 a       140     0     7     1    20
 -9.2399616069476664E-01 a       141     0     8     1     1
 -2.7580235133121462E+00 a       142     0     8     1     2
 -9.5791994814457357E+00 a       143     0     8     1     3
 -2.0574374837787692E+00 a       144     0     8     1     4
 -3.0637070394796813E+00 a       145     0     8     1     5
 -7.2413984627844852E-01 a       146     0     8     1     6
 -1.0546675659939497E+01 a       147     0     8     1     7
 -1.9232198819083834E+00 a       148     0     8     1     8
  2.1493885759962605E+00 a       149     0     8     1     9
  2.5448000925862768E+00 a       150     0     8     1    10
  2.1167022709541041E+00 a       151     0     8     1    11
  6.0754147678426884E+00 a       152     0     8     1    12
  2.3723494430787566E+00 a       153     0     8     1    13
 -2.7761537780668561E+00 a       154     0     8     1    14
 -6.1841303704352435E-01 a       155     0     8     1    15
 -8.9541751319254175E+00 a       156     0     8     1    16
  1.1100401481743036E+01 a       157     0     8     1    17
  3.3503255435794044E-01 a       158     0     8     1    18
  1.4456086352396518E+00 a       159     0     8     1    19
  9.3251014531334497E-01 a       160     0     8     1    20
  1.4522985507106503E+00 a       161     0     9     1     1
  1.1921510159540409E+00 a       162     0     9     1     2
 -9.2432694085608336E-01 a       163     0     9     1     3
 -3.8118962553473570E+00 a       164     0     9     1     4
 -3.4392410413273211E+00 a       165     0     9     1     5
 -2.8861046062652100E+00 a       166     0     9     1     6
  8.3982342916840995E+00 a       167     0     9     1     7
  8.0927566454676558E-01 a       168     0     9     1     8
  4.1011753085492932E+00 a       169     0     9     1     9
 -6.8310511946803869E+00 a       170     0     9     1    10
  1.4810868203417027E+00 a       171     0     9     1    11
  2.9201120056337753E+00 a       172     0     9     1    12
  1.2071966418585083E+00 a       173     0     9     1    13
 -1.0454854227332298E+01 a       174     0     9     1    14
 -1.9048686618209045E+00 a       175     0     9     1    15
  4.3773377841960466E+00 a       176     0     9     1    16
 -9.2532037847504114E+00 a       177     0     9     1    17
 -7.1541739181125337E+00 a       178     0     9     1    18
  2.9520685214832101E+00 a       179     0     9     1    19
 -2.3891140215930058E+00 a       180     0     9     1    20
 -2.2180681508835642E-01 a       181     0    10     1     1
 -1.0014613755463799E+00 a       182     0    10     1     2
 -2.2368993025680335E+00 a       183     0    10     1     3
 -7.9108581521255095E-01 a       184     0    10     1     4
 -8.1692708226733479E-01 a       185     0    10     1     5
 -3.0756953470587056E-01 a       186     0    10     1     6
 -3.1673961861938094E+00 a       187     0    10     1     7
 -6.1311350656347530E-01 a       188     0    10     1     8
  4.6821819021007355E-01 a       189     0    10     1     9
  7.0201087633551063E-01 a       190     0    10     1    10
  7.1235035908108946E-01 a       191     0    10     1    11
  1.3685713262544046E+00 a       192     0    10     1    12
  7.9239347057614395E-01 a       193     0    10     1    13
 -3.2743888245022507E-01 a       194     0    10     1    14
 -2.9139755596324940E-01 a       195     0    10     1    15
 -2.2016052088450628E+00 a       196     0    10     1    16
  3.7881520035900453E+00 a       197     0    10     1    17
  7.5647007959389750E-02 a       198     0    10     1    18
  4.0162417869934547E-01 a       199     0    10     1    19
  3.7395458885820504E-01 a       200     0    10     1    20
  1.4179757752796038E+00 a       201     0    11     1     1
  3.2444853565747160E+00 a       202     0    11     1     2
  3.2351778541821674E+00 a       203     0    11     1     3
 -4.5504237260323519E+00 a       204     0    11     1     4
 -3.7831814595545623E+00 a       205     0    11     1     5
 -8.0479836516639369E-01 a       206     0    11     1     6
  5.0718779141946246E+00 a       207     0    11     1     7
  1.5912850226669588E+00 a       208     0    11     1     8
  3.3651718579125527E+00 a       209     0    11     1     9
 -5.9598714326348201E+00 a       210     0    11     1    10
  1.6377614341456708E+00 a       211     0    11     1    11
  1.3726129584244628E+00 a       212     0    11     1    12
  5.7541215003012458E-01 a       213     0    11     1    13
 -1.1133250072524723E+01 a       214     0    11     1    14
 -2.9984945251906927E+00 a       215     0    11     1    15
  4.3371523590837526E+00 a       216     0    11     1    16
 -7.3229444166178048E+00 a       217     0    11     1    17
 -1.3465137532431754E+01 a       218     0    11     1    18
  3.0279585802251767E+00 a       219     0    11     1    19
 -3.7247265000693175E+00 a       220     0    11     1    20
 -2.6174085761073065E-02 a       221     0    12     1     1
 -2.6736680388195211E-01 a       222     0    12     1     2
 -5.0180082737952880E-01 a       223     0    12     1     3
 -1.4694180154402600E-01 a       224     0    12     1     4
 -1.1172027567093851E-01 a       225     0    12     1     5
 -1.1957610668334812E-01 a       226     0    12     1     6
 -7.2116831349298394E-01 a       227     0    12     1     7
 -1.4477552874629748E-01 a       228     0    12     1     8
  5.8055199389474919E-02 a       229     0    12     1     9
  1.9760388468288298E-01 a       230     0    12     1    10
  1.8111571504720014E-01 a       231     0    12     1    11
  3.9134873957391320E-01 a       232     0    12     1    12
  1.7347918782944721E-01 a       233     0    12     1    13
  1.2843286214947963E-01 a       234     0    12     1    14
 -7.7714010028617803E-02 a       235     0    12     1    15
 -4.9743304695172957E-01 a       236     0    12     1    16
  5.8713138969412260E-01 a       237     0    12     1    17
 -4.6845603032224452E-02 a       238     0    12     1    18
  9.4140358853757850E-02 a       239     0    12     1    19
  1.5606257751046404E-01 a       240     0    12     1    20
  5.3966993097915761E-01 a       241     0    13     1     1
  2.1161437573594255E+00 a       242     0    13     1     2
  3.0125885143616045E+00 a       243     0    13     1     3
 -2.3894658098441997E+00 a       244     0    13     1     4
 -2.0637932673702140E+00 a       245     0    13     1     5
 -3.5251362768071434E-02 a       246     0    13     1     6
  1.4796834901804461E+00 a       247     0    13     1     7
  8.9830759227612000E-01 a       248     0    13     1     8
  1.4566928698630794E+00 a       249     0    13     1     9
 -2.7262218957731861E+00 a       250     0    13     1    10
  8.7412378152491765E-01 a       251     0    13     1    11
 -4.0232065987209187E-02 a       252     0    13     1    12
 -2.0146744285278456E-01 a       253     0    13     1    13
 -5.6783394219075651E+00 a       254     0    13     1    14
 -2.2725834485843319E+00 a       255     0    13     1    15
  1.3405087751730391E+00 a       256     0    13     1    16
 -3.2474825323707250E+00 a       257     0    13     1    17
 -8.6852098391894206E+00 a       258     0    13     1    18
  1.8966481320623416E+00 a       259     0    13     1    19
 -2.4244019966148649E+00 a       260     0    13     1    20
  4.6609070373605947E-02 a       261     0    14     1     1
 -1.1298466522035273E-02 a       262     0    14     1     2
 -4.4147559459876262E-01 a       263     0    14     1     3
 -2.4700479659579391E-01 a       264     0    14     1     4
 -5.6621799497297265E-01 a       265     0    14     1     5
  2.4195090909099010E-01 a       266     0    14     1     6
  1.4294097426713492E+00 a       267     0    14     1     7
 -3.6505580611601904E-02 a       268     0    14     1     8
  4.4142184677124940E-02 a       269     0    14     1     9
  1.8250086054957959E-01 a       270     0    14     1    10
  4.9009727526183725E-02 a       271     0    14     1    11
  1.3442844996620409E-01 a       272     0    14     1    12
 -2.9934954387433347E-03 a       273     0    14     1    13
 -1.2794725077062841E+00 a       274     0    14     1    14
  4.3566840332954609E-01 a       275     0    14     1    15
  1.3811116206943597E+00 a       276     0    14     1    16
  2.7775922796634156E-01 a       277     0    14     1    17
 -1.6623480333338378E-01 a       278     0    14     1    18
 -1.2916611569215347E-01 a       279     0    14     1    19
 -1.9893787853216649E-01 a       280     0    14     1    20
 -4.1589028998042057E+00 a       281     0    15     1     1
  8.1602798358878044E+00 a       282     0    15     1     2
  3.1603289429823839E+01 a       283     0    15     1     3
 -1.4880702536444197E+01 a       284     0    15     1     4
  6.0144027867048289E+00 a       285     0    15     1     5
  9.9352172077106378E+00 a       286     0    15     1     6
  3.8464082899656475E+01 a       287     0    15     1     7
  1.1611461875318318E+01 a       288     0    15     1     8
 -6.3242103011566648E+00 a       289     0    15     1     9
 -5.5769791279163385E+01 a       290     0    15     1    10
 -1.0369687348877816E+01 a       291     0    15     1    11
 -2.1599792402525463E+01 a       292     0    15     1    12
 -7.4276480910848097E-01 a       293     0    15     1    13
  3.0952630337587784E+01 a       294     0    15     1    14
 -3.3251201627291941E+01 a       295     0    15     1    15
  3.4841614696660528E+01 a       296     0    15     1    16
 -2.3206766366817799E+01 a       297     0    15     1    17
  1.0769324868710557E+01 a       298     0    15     1    18
 -5.1982544857978672E+00 a       299     0    15     1    19
  9.7639674997061352E+00 a       300     0    15     1    20
 -3.7370362342731861E-01 a       301     0    16     1     1
  8.2495323846867556E+00 a       302     0    16     1     2
  3.1398065341267274E+00 a       303     0    16     1     3
  1.0286303987696812E+00 a       304     0    16     1     4
 -7.4825985617786250E-01 a       305     0    16     1     5
  8.4086777945851154E-01 a       306     0    16     1     6
 -5.2375597523370141E+00 a       307     0    16     1     7
  7.8884213241807688E-01 a       308     0    16     1     8
  3.4806825237355443E-01 a       309     0    16     1     9
 -8.4463513403175949E-01 a       310     0    16     1    10
 -1.9779042154766906E+00 a       311     0    16     1    11
 -1.7348723008139875E+00 a       312     0    16     1    12
  2.2649007450463765E+00 a       313     0    16     1    13
 -2.7862517402079994E+00 a       314     0    16     1    14
 -4.4105152349939019E+00 a       315     0    16     1    15
  5.1522348089086387E+00 a       316     0    16     1    16
 -1.0326939006477307E+00 a       317     0    16     1    17
 -8.1016904980169961E+00 a       318     0    16     1    18
 -1.9027254551912973E+00 a       319     0    16     1    19
  2.0642659852304828E+00 a       320     0    16     1    20
  4.4939117322822708E-01 a       321     0    17     1     1
 -1.1385138382815880E+00 a       322     0    17     1     2
 -6.4776150993861725E-01 a       323     0    17     1     3
  3.3960468000152448E-02 a       324     0    17     1     4
  1.2250203225849459E+00 a       325     0    17     1     5
 -1.1418272761950961E-01 a       326     0    17     1     6
  2.9353072114788770E+00 a       327     0    17     1     7
 -8.9850830034362960E-03 a       328     0    17     1     8
 -6.2668770404018759E-01 a       329     0    17     1     9
  2.9250337281235526E+00 a       330     0    17     1    10
 -8.0073642185173466E-01 a       331     0    17     1    11
 -2.2328545637962911E+00 a       332     0    17     1    12
 -8.7507475918447664E-01 a       333     0    17     1    13
 -7.2080846113767222E-02 a       334     0    17     1    14
  3.2957848243593529E-01 a       335     0    17     1    15
  9.2711697895410239E-01 a       336     0    17     1    16
 -7.0832265005704942E-01 a       337     0    17     1    17
  3.4199387166529960E-01 a       338     0    17     1    18
 -1.1384836903861582E+00 a       339     0    17     1    19
  1.9391889523968520E+00 a       340     0    17     1    20
  3.1442327031332246E-01 a       341     0    18     1     1
  2.0258511000901802E+01 a       342     0    18     1     2
  1.2087543343389751E+01 a       343     0    18     1     3
  4.2944185199058014E+00 a       344     0    18     1     4
 -2.3860612122370775E+00 a       345     0    18     1     5
  5.3673459860615162E+00 a       346     0    18     1     6
 -1.9018178690125644E+01 a       347     0    18     1     7
  2.8592528927652543E+00 a       348     0    18     1     8
  1.1127584600561424E+00 a       349     0    18     1     9
 -9.7893489248734227E+00 a       350     0    18     1    10
 -7.2313877989926256E+00 a       351     0    18     1    11
 -4.3968762253119715E+00 a       352     0    18     1    12
  8.0217708442664239E+00 a       353     0    18     1    13
 -1.6100955590600655E+01 a       354     0    18     1    14
 -1.0037858289855217E+01 a       355     0    18     1    15
  1.5700721232003563E+01 a       356     0    18     1    16
  2.4570152494428671E-01 a       357     0    18     1    17
 -3.6670281266958014E+01 a       358     0    18     1    18
 -5.5535199517638549E+00 a       359     0    18     1    19
 -4.4138380878600216E+00 a       360     0    18     1    20
  5.8052947900207552E-01 a       361     0    19     1     1
 -1.0144209518370824E+00 a       362     0    19     1     2
 -3.2483515843024463E-01 a       363     0    19     1     3
  1.5415236874461380E+00 a       364     0    19     1     4
  1.1670567971553809E+00 a       365     0    19     1     5
 -2.4244172280698656E-01 a       366     0    19     1     6
  7.1691691700098490E+00 a       367     0    19     1     7
  2.0042903269683482E-01 a       368     0    19     1     8
 -8.6398462529654974E-01 a       369     0    19     1     9
  3.4983529095934567E+00 a       370     0    19     1    10
 -1.3315848318783308E+00 a       371     0    19     1    11
 -3.4199252875686650E+00 a       372     0    19     1    12
 -1.0569841770010906E+00 a       373     0    19     1    13
  4.8045178803059779E-01 a       374     0    19     1    14
 -1.6308828509376365E+00 a       375     0    19     1    15
  3.5547893146339566E+00 a       376     0    19     1    16
 -1.0002062636170275E+00 a       377     0    19     1    17
 -5.7998325169971943E-02 a       378     0    19     1    18
 -2.2933645866468098E+00 a       379     0    19     1    19
  2.6975888725576946E+00 a       380     0    19     1    20
  4.2431865708162402E+00 a       381     0    20     1     1
  1.7286637385375098E+01 a       382     0    20     1     2
  7.6297883364947490E+00 a       383     0    20     1     3
  4.7374430451313918E+00 a       384     0    20     1     4
 -1.1557285871633971E+00 a       385     0    20     1     5
  1.2290758441143653E+01 a       386     0    20     1     6
 -1.7924541517029489E+01 a       387     0    20     1     7
  2.5389797924478277E+00 a       388     0    20     1     8
  7.2994270775925756E+00 a       389     0    20     1     9
 -5.8384698303816132E+00 a       390     0    20     1    10
 -9.8662998453763393E+00 a       391     0    20     1    11
 -7.1981190870939988E+00 a       392     0    20     1    12
  1.1576147634000785E+01 a       393     0    20     1    13
 -3.3124414477970340E+01 a       394     0    20     1    14
 -5.2474275206682739E+00 a       395     0    20     1    15
  1.1364810639263782E+01 a       396     0    20     1    16
  3.5931222977567652E+00 a       397     0    20     1    17
 -6.0922312359229153E+01 a       398     0    20     1    18
 -8.3732120478560201E+00 a       399     0    20     1    19
 -2.0431939852992382E+01 a       400     0    20     1    20
 -7.1936830028053761E-02 a       401     0    21     1     1
  9.2398132078008566E-01 a       402     0    21     1     2
  2.5126148665764827E+00 a       403     0    21     1     3
 -3.9684799909318333E+00 a       404     0    21     1     4
 -2.4158767727677777E+00 a       405     0    21     1     5
  2.5164145142720038E+00 a       406     0    21     1     6
  3.2773361266058537E-01 a       407     0    21     1     7
  4.4956906413921232E+00 a       408     0    21     1     8
 -8.9317313634597317E-01 a       409     0    21     1     9
 -6.7700788829747331E+00 a       410     0    21     1    10
 -1.6432795423770492E+00 a       411     0    21     1    11
  2.1694203404158330E+00 a       412     0    21     1    12
 -6.9981679932134655E-01 a       413     0    21     1    13
 -7.7153289637294229E+00 a       414     0    21     1    14
 -6.0145811882241418E+00 a       415     0    21     1    15
  4.9685264308766541E+00 a       416     0    21     1    16
 -6.5577107143157152E+00 a       417     0    21     1    17
 -1.6396729866853200E+01 a       418     0    21     1    18
  4.4095503165559018E+00 a       419     0    21     1    19
 -7.8299146512941782E+00 a       420     0    21     1    20
 -1.5700524008174863E+00 a       421     0    22     1     1
 -7.3764098907462552E+00 a       422     0    22     1     2
 -1.7319872136937043E+01 a       423     0    22     1     3
 -7.0528962609839621E+00 a       424     0    22     1     4
 -6.8177292512789700E+00 a       425     0    22     1     5
 -1.1070740245209527E+00 a       426     0    22     1     6
 -2.4417436591991727E+01 a       427     0    22     1     7
 -4.3906108241584967E+00 a       428     0    22     1     8
  3.1920798561652095E+00 a       429     0    22     1     9
  5.9573238093842180E+00 a       430     0    22     1    10
  4.7708997548455150E+00 a       431     0    22     1    11
  9.9248275312578773E+00 a       432     0    22     1    12
  6.9617021526307115E+00 a       433     0    22     1    13
  1.8232612934071992E+00 a       434     0    22     1    14
 -5.2686908580054936E+00 a       435     0    22     1    15
 -1.8207967763487179E+01 a       436     0    22     1    16
  2.6086905549156892E+01 a       437     0    22     1    17
  3.7502733305798697E-01 a       438     0    22     1    18
  3.2583140064782614E+00 a       439     0    22     1    19
  3.7614804480690398E+00 a       440     0    22     1    20
 -2.2289374766692669E+00 a       441     0    23     1     1
 -3.2932271239956679E-01 a       442     0    23     1     2
  5.0941121439223149E+00 a       443     0    23     1     3
 -1.9782526302081695E+00 a       444     0    23     1     4
 -1.1266544248689616E+00 a       445     0    23     1     5
  6.2075480746749303E+00 a       446     0    23     1     6
 -6.0653512618373684E+00 a       447     0    23     1     7
  5.2912743985716988E+00 a       448     0    23     1     8
 -5.0175801830080076E+00 a       449     0    23     1     9
 -9.5368923683544360E-01 a       450     0    23     1    10
 -4.7069214315853261E+00 a       451     0    23     1    11
  1.9834361283191057E-01 a       452     0    23     1    12
 -2.3639867322065768E+00 a       453     0    23     1    13
 -5.7025657183710443E-01 a       454     0    23     1    14
 -4.8145526192560109E+00 a       455     0    23     1    15
  6.4663824309519735E-01 a       456     0    23     1    16
 -9.1481106049078209E-01 a       457     0    23     1    17
 -1.3723751817367564E+01 a       458     0    23     1    18
  3.5399054723178467E+00 a       459     0    23     1    19
 -8.2609937252568564E+00 a       460     0    23     1    20
 -1.9967061730133961E+00 a       461     0    24     1     1
 -2.2165391926334852E+00 a       462     0    24     1     2
  6.7618824285206092E-01 a       463     0    24     1     3
 -6.0312361819215621E-01 a       464     0    24     1     4
 -4.5685282079193434E-01 a       465     0    24     1     5
  3.5344249374792085E+00 a       466     0    24     1     6
 -2.5725922496166844E+00 a       467     0    24     1     7
  3.0440673365838440E+00 a       468     0    24     1     8
 -3.3800875568112798E+00 a       469     0    24     1     9
 -9.1579327545630626E-02 a       470     0    24     1    10
 -4.3567846905841829E+00 a       471     0    24     1    11
  1.1129743179955400E+00 a       472     0    24     1    12
 -1.2465258692097678E+00 a       473     0    24     1    13
  5.3171405136921224E-01 a       474     0    24     1    14
 -2.2185127157351738E+00 a       475     0    24     1    15
  5.1381329130296138E-01 a       476     0    24     1    16
 -1.4110157339335780E+00 a       477     0    24     1    17
 -4.5654751410549110E+00 a       478     0    24     1    18
  2.2807833447866868E+00 a       479     0    24     1    19
 -4.8859901808353436E+00 a       480     0    24     1    20
 -6.8833311522535245E-01 a       481     0    25     1     1
 -1.1408375068688463E+00 a       482     0    25     1     2
 -5.8765878399125504E-01 a       483     0    25     1     3
 -1.1899828005005632E-01 a       484     0    25     1     4
  8.5406158759579784E-02 a       485     0    25     1     5
  1.0395686230881436E+00 a       486     0    25     1     6
 -9.9528973283336500E-02 a       487     0    25     1     7
  7.7751523305206482E-01 a       488     0    25     1     8
 -1.0281809308978394E+00 a       489     0    25     1     9
  7.2039408395579763E-02 a       490     0    25     1    10
 -1.6793166944724500E+00 a       491     0    25     1    11
  6.6826509622275743E-01 a       492     0    25     1    12
 -8.4973780281366290E-02 a       493     0    25     1    13
  2.2125491292420052E-01 a       494     0    25     1    14
 -5.6944050651216986E-02 a       495     0    25     1    15
  8.0008761644230253E-01 a       496     0    25     1    16
 -7.3335777357760623E-01 a       497     0    25     1    17
  2.4684134404222788E-01 a       498     0    25     1    18
  4.5428267902450842E-01 a       499     0    25     1    19
 -1.2153604521751404E+00 a       500     0    25     1    20
 -5.4001053330307169E-01 a       501     0    26     1     1
 -5.3689868279839521E+00 a       502     0    26     1     2
 -4.4954562306923247E+00 a       503     0    26     1     3
  3.4743436374813832E+01 a       504     0    26     1     4
  1.5811900248318294E+01 a       505     0    26     1     5
 -2.1778556450674262E+01 a       506     0    26     1     6
 -2.6110948019120183E+01 a       507     0    26     1     7
 -3.7563729358290253E+01 a       508     0    26     1     8
 -1.4366183240412185E+00 a       509     0    26     1     9
  5.6167493252632475E+01 a       510     0    26     1    10
  8.5920748399533053E+00 a       511     0    26     1    11
 -1.7336523005023732E+01 a       512     0    26     1    12
  1.0654578235705495E+01 a       513     0    26     1    13
  6.5479620088389851E+01 a       514     0    26     1    14
  3.9288477046675901E+01 a       515     0    26     1    15
 -4.2300146587099938E+01 a       516     0    26     1    16
  6.0083032157359625E+01 a       517     0    26     1    17
  1.2634397400230240E+02 a       518     0    26     1    18
 -3.9841919683359997E+01 a       519     0    26     1    19
  5.6937779132071846E+01 a       520     0    26     1    20
  1.2119120228851928E+01 a       521     0    27     1     1
  1.4445027148706931E+01 a       522     0    27     1     2
  1.4042616561037605E+01 a       523     0    27     1     3
  5.7389687676483433E+01 a       524     0    27     1     4
  2.3326728792375086E+01 a       525     0    27     1     5
 -8.4428345674640326E+00 a       526     0    27     1     6
  4.6074080082927118E+01 a       527     0    27     1     7
  5.0730464571244749E+00 a       528     0    27     1     8
 -5.4656259047884592E-01 a       529     0    27     1     9
  5.2461752375443183E+01 a       530     0    27     1    10
  6.1215158362995137E-01 a       531     0    27     1    11
 -1.1249626772005506E+01 a       532     0    27     1    12
 -3.9226770107344755E+01 a       533     0    27     1    13
 -5.3766749346876651E+01 a       534     0    27     1    14
  7.9353098410868398E+01 a       535     0    27     1    15
  2.2656763615291297E+01 a       536     0    27     1    16
 -8.4194527018326525E+01 a       537     0    27     1    17
 -1.6774135221880684E+01 a       538     0    27     1    18
  5.7284583679725620E-01 a       539     0    27     1    19
 -2.8774662292263923E+01 a       540     0    27     1    20
 -8.2218923872542024E-03 a       541     0    28     1     1
 -8.3058856866651959E-03 a       542     0    28     1     2
  4.5763356969491575E-01 a       543     0    28     1     3
 -1.4265664650957686E+00 a       544     0    28     1     4
 -5.5420872830947232E-01 a       545     0    28     1     5
  6.8471536104091568E-01 a       546     0    28     1     6
  4.1160517460147961E-01 a       547     0    28     1     7
  1.0820370554482246E+00 a       548     0    28     1     8
 -1.7119518144702289E-01 a       549     0    28     1     9
 -2.0349390568430650E+00 a       550     0    28     1    10
 -2.1253076195969417E-01 a       551     0    28     1    11
  7.3152584211774929E-01 a       552     0    28     1    12
 -9.3396911544429403E-02 a       553     0    28     1    13
 -1.9088069727888677E+00 a       554     0    28     1    14
 -8.4632929259528156E-01 a       555     0    28     1    15
  9.3843256497821370E-01 a       556     0    28     1    16
 -5.5982294020122714E-01 a       557     0    28     1    17
 -4.2818796318177581E+00 a       558     0    28     1    18
  1.1427661387798234E+00 a       559     0    28     1    19
 -2.3861293671689361E+00 a       560     0    28     1    20
 -2.5653140044800082E-01 a       561     0    29     1     1
 -3.1499946976164972E-01 a       562     0    29     1     2
 -5.9947407611038805E-01 a       563     0    29     1     3
 -1.1317853815685401E+00 a       564     0    29     1     4
 -5.9192564732940633E-01 a       565     0    29     1     5
  3.2677936319654412E-02 a       566     0    29     1     6
 -1.2574821472611577E+00 a       567     0    29     1     7
 -4.8411384610099688E-02 a       568     0    29     1     8
  1.3240155049136940E-01 a       569     0    29     1     9
 -1.3061774380077043E+00 a       570     0    29     1    10
  1.2099953542906054E-01 a       571     0    29     1    11
  4.7912905557525026E-01 a       572     0    29     1    12
  9.1901895743194606E-01 a       573     0    29     1    13
  1.2583499774665201E+00 a       574     0    29     1    14
 -2.2556651767300857E+00 a       575     0    29     1    15
  1.6158823434250449E-01 a       576     0    29     1    16
  2.1668443481974329E+00 a       577     0    29     1    17
  4.2203300437212504E-01 a       578     0    29     1    18
 -4.7150876374687477E-02 a       579     0    29     1    19
  9.6620008353336639E-01 a       580     0    29     1    20
 -1.0543577374978882E-01 a       581     0    30     1     1
  1.3393309778710747E+00 a       582     0    30     1     2
 -3.4529373531339907E-01 a       583     0    30     1     3
 -2.0538021850084189E+00 a       584     0    30     1     4
 -1.0494842540048872E+00 a       585     0    30     1     5
  1.3555134004333615E+00 a       586     0    30     1     6
  2.9319419892873926E+00 a       587     0    30     1     7
  2.2329170220997208E+00 a       588     0    30     1     8
  2.7183237629255053E-01 a       589     0    30     1     9
 -2.7091328340587486E+00 a       590     0    30     1    10
 -5.6639081291188764E-01 a       591     0    30     1    11
  6.9095714197090319E-01 a       592     0    30     1    12
 -3.9385707695143979E-01 a       593     0    30     1    13
 -4.3630225581234523E+00 a       594     0    30     1    14
 -3.7479896217640682E+00 a       595     0    30     1    15
  2.6486259640793999E+00 a       596     0    30     1    16
 -5.0925592969410323E+00 a       597     0    30     1    17
 -7.4423628777460671E+00 a       598     0    30     1    18
  2.3146873766905567E+00 a       599     0    30     1    19
 -2.4279826986165181E+00 a       600     0    30     1    20
 -9.5131195641225408E-01 a       601     0    31     1     1
 -1.3366364482746598E+00 a       602     0    31     1     2
 -8.3089540499136194E-01 a       603     0    31     1     3
 -5.0287064013556266E+00 a       604     0    31     1     4
 -1.6202139068819994E+00 a       605     0    31     1     5
  7.9938905921451819E-01 a       606     0    31     1     6
 -3.0296892056542015E+00 a       607     0    31     1     7
 -2.5874315123639452E-01 a       608     0    31     1     8
 -1.8167596283325996E-01 a       609     0    31     1     9
 -3.7250743096799628E+00 a       610     0    31     1    10
  8.7236199990195121E-02 a       611     0    31     1    11
  5.9538724320653547E-01 a       612     0    31     1    12
  2.7524314660955276E+00 a       613     0    31     1    13
  4.1262964040690235E+00 a       614     0    31     1    14
 -5.4947417798710960E+00 a       615     0    31     1    15
 -2.9709828338577626E+00 a       616     0    31     1    16
  5.8813175187958464E+00 a       617     0    31     1    17
  1.4544857367803878E+00 a       618     0    31     1    18
  4.6791158732023309E-02 a       619     0    31     1    19
  1.7356560830134284E+00 a       620     0    31     1    20
  1.6132089426472640E-01 a       621     0    32     1     1
 -2.0256274609827229E-01 a       622     0    32     1     2
  1.5338033357110337E+00 a       623     0    32     1     3
 -3.2568578454086956E+00 a       624     0    32     1     4
 -1.8766328509213186E+00 a       625     0    32     1     5
  2.7034267860851950E+00 a       626     0    32     1     6
  1.1319836135412227E+00 a       627     0    32     1     7
  3.9586352260252933E+00 a       628     0    32     1     8
 -2.2464311443576096E-01 a       629     0    32     1     9
 -7.4945625198306614E+00 a       630     0    32     1    10
 -1.3828809899788019E+00 a       631     0    32     1    11
  2.0137936157282192E+00 a       632     0    32     1    12
 -7.5504231614052364E-01 a       633     0    32     1    13
 -7.6286508564241302E+00 a       634     0    32     1    14
 -2.8883729441524970E+00 a       635     0    32     1    15
  5.2867437908812640E+00 a       636     0    32     1    16
 -5.0893310971526553E+00 a       637     0    32     1    17
 -1.5087430198989447E+01 a       638     0    32     1    18
  4.2567912284801297E+00 a       639     0    32     1    19
 -7.5840293676201629E+00 a       640     0    32     1    20
 -1.8995479873459808E+00 a       641     0    33     1     1
 -2.3854638575860356E+00 a       642     0    33     1     2
 -2.7731481628804207E+00 a       643     0    33     1     3
 -8.6661459287693390E+00 a       644     0    33     1     4
 -4.2169853958783907E+00 a       645     0    33     1     5
  1.0537960435478708E+00 a       646     0    33     1     6
 -7.0484887549208191E+00 a       647     0    33     1     7
 -7.9087667780592497E-01 a       648     0    33     1     8
  6.0794504411890427E-01 a       649     0    33     1     9
 -8.8634317608470905E+00 a       650     0    33     1    10
  3.2144341568003132E-01 a       651     0    33     1    11
  2.1949647057194701E+00 a       652     0    33     1    12
  5.8623026885435925E+00 a       653     0    33     1    13
  9.1561354781348196E+00 a       654     0    33     1    14
 -1.3612179008618329E+01 a       655     0    33     1    15
 -3.4349745317680447E+00 a       656     0    33     1    16
  1.3447656726217883E+01 a       657     0    33     1    17
  2.4825667335981847E+00 a       658     0    33     1    18
  6.2245104941111788E-02 a       659     0    33     1    19
  4.7298686572527560E+00 a       660     0    33     1    20
  4.4519819433794228E-01 a       661     0    34     1     1
 -2.2730724852695555E+01 a       662     0    34     1     2
 -1.2395598846507982E+01 a       663     0    34     1     3
 -9.0451674903358015E+00 a       664     0    34     1     4
  6.2937273160532670E-01 a       665     0    34     1     5
 -1.1926780060117985E+00 a       666     0    34     1     6
  2.3410302407530747E+01 a       667     0    34     1     7
  2.3033830252766609E+00 a       668     0    34     1     8
 -9.3771374688345066E-01 a       669     0    34     1     9
  9.7620652659821638E-01 a       670     0    34     1    10
  5.8918846748969766E+00 a       671     0    34     1    11
  7.4084072167877615E+00 a       672     0    34     1    12
 -9.0174331178914375E+00 a       673     0    34     1    13
  4.1451164837471071E+00 a       674     0    34     1    14
  6.5305603687972527E+00 a       675     0    34     1    15
 -1.1362057843700580E+01 a       676     0    34     1    16
 -6.8716675104464553E+00 a       677     0    34     1    17
  1.5819056885786919E+01 a       678     0    34     1    18
  1.1451617555131101E+01 a       679     0    34     1    19
 -7.5551362131265369E+00 a       680     0    34     1    20
 -2.4833631126329685E+00 a       681     0    35     1     1
 -1.1369966779169898E+00 a       682     0    35     1     2
 -4.2330743619054321E+00 a       683     0    35     1     3
 -9.4859880977161328E+00 a       684     0    35     1     4
 -6.3552681340015864E+00 a       685     0    35     1     5
  1.2278188287111669E+00 a       686     0    35     1     6
 -1.8984740530183874E+01 a       687     0    35     1     7
 -1.6914032234806833E+00 a       688     0    35     1     8
  2.2064951671418562E+00 a       689     0    35     1     9
 -9.2039820380517607E+00 a       690     0    35     1    10
  2.7509168817962277E+00 a       691     0    35     1    11
  8.4933647215448929E+00 a       692     0    35     1    12
  7.2748797867768973E+00 a       693     0    35     1    13
  5.5570811003861253E+00 a       694     0    35     1    14
 -8.4079575111623228E+00 a       695     0    35     1    15
 -9.8475182803670336E+00 a       696     0    35     1    16
  1.6060950120181477E+01 a       697     0    35     1    17
  1.6007933617537622E+00 a       698     0    35     1    18
  3.6711860023088745E+00 a       699     0    35     1    19
 -4.5746829269226119E-01 a       700     0    35     1    20
 -3.8818040199914470E+00 a       701     0    36     1     1
 -1.9170385294379635E+01 a       702     0    36     1     2
 -8.8114232219184547E+00 a       703     0    36     1     3
 -1.2392379115891737E+01 a       704     0    36     1     4
 -1.1497800288927267E+00 a       705     0    36     1     5
 -9.3201461242676373E+00 a       706     0    36     1     6
  2.5813668383422982E+01 a       707     0    36     1     7
  3.7039245780432184E+00 a       708     0    36     1     8
 -7.5620452873066775E+00 a       709     0    36     1     9
 -2.1239085377167073E+00 a       710     0    36     1    10
  9.0604038464295229E+00 a       711     0    36     1    11
  1.0716593979076910E+01 a       712     0    36     1    12
 -1.4147510181669160E+01 a       713     0    36     1    13
  2.3003682510987435E+01 a       714     0    36     1    14
 -8.7706654909127424E-01 a       715     0    36     1    15
 -6.1921123214848697E+00 a       716     0    36     1    16
 -1.5279413502522909E+01 a       717     0    36     1    17
  4.2405867792570390E+01 a       718     0    36     1    18
  1.6217386979260237E+01 a       719     0    36     1    19
  9.7327737926931892E+00 a       720     0    36     1    20
 -1.3691812225944779E+00 a       721     0    37     1     1
 -3.1382908174791315E+00 a       722     0    37     1     2
 -6.7847391481804902E+00 a       723     0    37     1     3
 -6.8086815437953057E+00 a       724     0    37     1     4
 -4.1903902942140938E+00 a       725     0    37     1     5
  3.8392948919654502E-01 a       726     0    37     1     6
 -1.2918403754135831E+01 a       727     0    37     1     7
 -1.9669893138944030E+00 a       728     0    37     1     8
  1.5054229735976115E+00 a       729     0    37     1     9
 -1.3917304375886812E+00 a       730     0    37     1    10
  1.7197849466550637E+00 a       731     0    37     1    11
  4.5013546246415537E+00 a       732     0    37     1    12
  5.2918947451977045E+00 a       733     0    37     1    13
  4.0139568106012620E+00 a       734     0    37     1    14
 -7.2246978051830961E+00 a       735     0    37     1    15
 -8.8907644163300947E+00 a       736     0    37     1    16
  1.4111673174514479E+01 a       737     0    37     1    17
  1.1776325459125172E+00 a       738     0    37     1    18
  1.4418448323413220E+00 a       739     0    37     1    19
  2.7954024016530217E+00 a       740     0    37     1    20
 -7.0058905615180966E-01 a       741     0    38     1     1
  8.3345331673022327E-02 a       742     0    38     1     2
  2.9718383218317581E+00 a       743     0    38     1     3
 -6.8800221194643907E+00 a       744     0    38     1     4
 -3.5036262899681945E+00 a       745     0    38     1     5
  2.1368302164191100E+00 a       746     0    38     1     6
  4.8975393553400393E+00 a       747     0    38     1     7
  7.5910842556993767E+00 a       748     0    38     1     8
 -2.8199226108147695E+00 a       749     0    38     1     9
 -1.3119909126263163E+01 a       750     0    38     1    10
 -8.7405888699728340E-01 a       751     0    38     1    11
  4.9877585792808770E+00 a       752     0    38     1    12
 -2.3137208056020344E+00 a       753     0    38     1    13
 -9.3932845315435873E+00 a       754     0    38     1    14
 -8.4448860562139174E+00 a       755     0    38     1    15
  9.1053873693266638E+00 a       756     0    38     1    16
 -1.1633540370346683E+01 a       757     0    38     1    17
 -2.0157624665280530E+01 a       758     0    38     1    18
  8.7786099999931757E+00 a       759     0    38     1    19
 -1.0302349449044680E+01 a       760     0    38     1    20
 -1.9755947879208362E+00 a       761     0    39     1     1
 -6.1933012229570430E+00 a       762     0    39     1     2
 -1.3909050751883672E+01 a       763     0    39     1     3
 -8.9551600072507416E+00 a       764     0    39     1     4
 -7.3906004529984255E+00 a       765     0    39     1     5
  4.1547231105619600E-02 a       766     0    39     1     6
 -1.9422638897442940E+01 a       767     0    39     1     7
 -3.7221836139396158E+00 a       768     0    39     1     8
  2.8130097341994915E+00 a       769     0    39     1     9
  3.8601584610426336E+00 a       770     0    39     1    10
  3.5615774695890097E+00 a       771     0    39     1    11
  8.4417793476987999E+00 a       772     0    39     1    12
  8.2779414409088314E+00 a       773     0    39     1    13
  4.8800632451306747E+00 a       774     0    39     1    14
 -1.0343909310567346E+01 a       775     0    39     1    15
 -1.4524879990622958E+01 a       776     0    39     1    16
  2.5650394120625148E+01 a       777     0    39     1    17
  9.5759227684071346E-01 a       778     0    39     1    18
  2.1067342932974755E+00 a       779     0    39     1    19
  4.4977369957335949E+00 a       780     0    39     1    20
 -7.9519671275233417E-01 a       781     0    40     1     1
 -6.8307029179189460E-01 a       782     0    40     1     2
 -5.9102139031035039E-01 a       783     0    40     1     3
  7.0836595132453306E+00 a       784     0    40     1     4
  1.8681050269157098E-01 a       785     0    40     1     5
  2.9311458234812386E+00 a       786     0    40     1     6
 -1.3011992507433996E+01 a       787     0    40     1     7
  4.7768744509590482E+00 a       788     0    40     1     8
 -6.1669025508141866E+00 a       789     0    40     1     9
 -1.2676471235802326E+01 a       790     0    40     1    10
 -1.9365430135159543E+00 a       791     0    40     1    11
  3.9126221889995207E+00 a       792     0    40     1    12
 -2.2077281255594317E+00 a       793     0    40     1    13
 -3.8605859982653072E+00 a       794     0    40     1    14
 -1.8589763854030139E+01 a       795     0    40     1    15
  7.0862969344637730E+00 a       796     0    40     1    16
  2.4537313435656807E+00 a       797     0    40     1    17
 -9.2725841958409010E+00 a       798     0    40     1    18
  3.4283048771800648E+00 a       799     0    40     1    19
 -1.4941150995115113E+00 a       800     0    40     1    20
 -2.7857362824265355E+00 a       801     0    41     1     1
 -1.1016732478097000E+01 a       802     0    41     1     2
 -2.5689760330229443E+01 a       803     0    41     1     3
 -1.2495838367496496E+01 a       804     0    41     1     4
 -1.1448491980008216E+01 a       805     0    41     1     5
 -1.0125380456596740E+00 a       806     0    41     1     6
 -3.5833286786977077E+01 a       807     0    41     1     7
 -6.6780399995947253E+00 a       808     0    41     1     8
  5.2629407369300898E+00 a       809     0    41     1     9
  8.9299300531350543E+00 a       810     0    41     1    10
  7.1118573322918817E+00 a       811     0    41     1    11
  1.5130187604622332E+01 a       812     0    41     1    12
  1.2598410048631717E+01 a       813     0    41     1    13
  5.0137200805975919E+00 a       814     0    41     1    14
 -1.1781030231207678E+01 a       815     0    41     1    15
 -2.7699184494169909E+01 a       816     0    41     1    16
  4.2338631819687258E+01 a       817     0    41     1    17
  1.2001606234232871E+00 a       818     0    41     1    18
  4.6621329139771612E+00 a       819     0    41     1    19
  6.3969634613287170E+00 a       820     0    41     1    20
 -8.2737166795208450E-01 a       821     0    42     1     1
  6.9383593038720692E-01 a       822     0    42     1     2
  4.8711379373148951E+00 a       823     0    42     1     3
 -2.4057246284860474E+00 a       824     0    42     1     4
 -1.4230774710795919E+00 a       825     0    42     1     5
  5.3782579983839671E+00 a       826     0    42     1     6
 -4.3625095438328065E+00 a       827     0    42     1     7
  4.3004491058514391E+00 a       828     0    42     1     8
 -3.1861534082016743E+00 a       829     0    42     1     9
 -1.8422112875783909E+00 a       830     0    42     1    10
 -2.2634643182338343E+00 a       831     0    42     1    11
  3.1689291226037847E-01 a       832     0    42     1    12
 -1.8420957111791938E+00 a       833     0    42     1    13
 -2.9669971348669510E+00 a       834     0    42     1    14
 -5.0325819872295066E+00 a       835     0    42     1    15
  4.0585782533600607E+00 a       836     0    42     1    16
 -1.6479236016436540E+00 a       837     0    42     1    17
 -1.5213073773104393E+01 a       838     0    42     1    18
  2.9862756004754667E+00 a       839     0    42     1    19
 -6.0185845202134054E+00 a       840     0    42     1    20
  1.8723707258855307E-01 a       841     0    43     1     1
 -4.9735301127149412E-01 a       842     0    43     1     2
  7.1921969535504571E-01 a       843     0    43     1     3
 -5.5252414589076337E-01 a       844     0    43     1     4
  1.0111757422381967E-01 a       845     0    43     1     5
 -1.2711250586770356E-01 a       846     0    43     1     6
 -4.0055344265509130E-01 a       847     0    43     1     7
 -1.8743631108027661E-01 a       848     0    43     1     8
 -5.3154540879773071E-01 a       849     0    43     1     9
  5.9867323508310888E-01 a       850     0    43     1    10
  2.2836765579582860E-01 a       851     0    43     1    11
 -9.9272891414049735E-01 a       852     0    43     1    12
  4.3856015475723514E-01 a       853     0    43     1    13
  2.4991866716446025E+00 a       854     0    43     1    14
 -6.8670308227442878E-01 a       855     0    43     1    15
 -2.4064978397342318E-01 a       856     0    43     1    16
  7.0702123098143987E-01 a       857     0    43     1    17
 -6.1271366793546451E-02 a       858     0    43     1    18
  3.7755293152061956E-02 a       859     0    43     1    19
  5.6210105737246208E-01 a       860     0    43     1    20
 -6.2148313752828921E-01 a       861     0    44     1     1
  5.9970902730822295E-01 a       862     0    44     1     2
  1.4850606920918183E+00 a       863     0    44     1     3
  1.2395341603056684E-01 a       864     0    44     1     4
 -2.1986293100063699E+00 a       865     0    44     1     5
 -4.9300077714908697E-01 a       866     0    44     1     6
 -7.5526559453865286E-02 a       867     0    44     1     7
  1.6045993483553906E+00 a       868     0    44     1     8
  7.4264949346782583E-01 a       869     0    44     1     9
 -1.2240182318115568E-01 a       870     0    44     1    10
 -1.2442331766619754E+00 a       871     0    44     1    11
  1.0868032844545406E+00 a       872     0    44     1    12
  8.4203858392654118E-01 a       873     0    44     1    13
  3.6961282930583335E+00 a       874     0    44     1    14
 -3.7084900941835558E-01 a       875     0    44     1    15
 -1.4721459259420964E+00 a       876     0    44     1    16
 -1.2737655443996871E+00 a       877     0    44     1    17
 -6.6291074249716331E-01 a       878     0    44     1    18
  1.7474419768491023E+00 a       879     0    44     1    19
 -5.2626768479456409E-01 a       880     0    44     1    20
  3.4368004553773446E-01 a       881     0    45     1     1
 -4.9381390051327481E-02 a       882     0    45     1     2
 -7.3641801026047748E-01 a       883     0    45     1     3
 -1.0469025715114166E-01 a       884     0    45     1     4
  1.6259645041630695E+00 a       885     0    45     1     5
 -9.1934231381972153E-01 a       886     0    45     1     6
 -2.6497822081100000E+00 a       887     0    45     1     7
 -2.7302229797787098E-01 a       888     0    45     1     8
 -2.1705231495180914E+00 a       889     0    45     1     9
 -8.0188819159625035E-01 a       890     0    45     1    10
  1.4865905734178368E+00 a       891     0    45     1    11
 -4.0060335594419677E-01 a       892     0    45     1    12
 -8.9780007951756780E-01 a       893     0    45     1    13
 -1.6263020224058793E+00 a       894     0    45     1    14
 -8.5182000855230933E-01 a       895     0    45     1    15
  1.0440097851338237E+00 a       896     0    45     1    16
  2.5168339107980029E+00 a       897     0    45     1    17
 -7.4445066120053038E-01 a       898     0    45     1    18
 -8.4011395323545934E-01 a       899     0    45     1    19
 -9.4090063151300651E-01 a       900     0    45     1    20
  7.8215342140095701E-01 a       901     0    46     1     1
  1.0415373167023312E+00 a       902     0    46     1     2
 -4.5687733512572481E-01 a       903     0    46     1     3
  4.2006915685792784E-01 a       904     0    46     1     4
  1.3774375925949461E-01 a       905     0    46     1     5
  8.4530722454147622E-01 a       906     0    46     1     6
  8.2899924737415628E-02 a       907     0    46     1     7
  7.5813307370323202E-01 a       908     0    46     1     8
 -2.6578396040494551E-01 a       909     0    46     1     9
  9.0078941842242777E-01 a       910     0    46     1    10
  9.0598695474030722E-01 a       911     0    46     1    11
 -6.4025240026838937E-01 a       912     0    46     1    12
 -9.0974247443025930E-02 a       913     0    46     1    13
  9.7979744749830489E-01 a       914     0    46     1    14
  5.4419699208775441E-01 a       915     0    46     1    15
  3.7206784849930113E-01 a       916     0    46     1    16
 -2.0594465749263837E+00 a       917     0    46     1    17
 -5.4783885071536587E-01 a       918     0    46     1    18
  6.4328700872143463E-01 a       919     0    46     1    19
  6.1344217830305581E-01 a       920     0    46     1    20
  2.4032513932524853E+00 a       921     0    47     1     1
 -6.8664866202700947E-01 a       922     0    47     1     2
 -9.3308405595027555E+00 a       923     0    47     1     3
 -1.5776756396238376E+00 a       924     0    47     1     4
  5.9012131132583567E+00 a       925     0    47     1     5
 -1.0197975850923076E+00 a       926     0    47     1     6
 -6.4710322030205898E+00 a       927     0    47     1     7
 -3.3951626351415665E+00 a       928     0    47     1     8
 -5.1647338059218413E+00 a       929     0    47     1     9
 -1.2651828830320889E+01 a       930     0    47     1    10
  5.1845980609204503E+00 a       931     0    47     1    11
 -2.7995650906385117E+00 a       932     0    47     1    12
  6.4843874720331385E-01 a       933     0    47     1    13
  1.5872810428073656E+00 a       934     0    47     1    14
 -1.2276528562283935E-01 a       935     0    47     1    15
  5.1314117532098873E+00 a       936     0    47     1    16
  8.0378123889273638E+00 a       937     0    47     1    17
  5.5048018550107134E+00 a       938     0    47     1    18
 -3.1493661885390751E+00 a       939     0    47     1    19
 -3.0370725171891860E-01 a       940     0    47     1    20
 -5.7762853881035392E-01 a       941     0    48     1     1
  1.7102713816735267E+00 a       942     0    48     1     2
  5.6956361901496999E-01 a       943     0    48     1     3
  6.4616604640663162E+00 a       944     0    48     1     4
  2.1232097751642982E-03 a       945     0    48     1     5
  3.8226168859487193E+00 a       946     0    48     1     6
  5.8675725934331755E+00 a       947     0    48     1     7
 -7.8403010836846398E-01 a       948     0    48     1     8
  2.7279043411038089E+00 a       949     0    48     1     9
  5.6352792837710535E+00 a       950     0    48     1    10
 -3.7850042169501217E+00 a       951     0    48     1    11
  2.2263898730668369E-01 a       952     0    48     1    12
  6.9637808956574440E-02 a       953     0    48     1    13
 -7.2681332612010472E+00 a       954     0    48     1    14
 -3.9899916277979766E+00 a       955     0    48     1    15
 -1.5956790249057058E+00 a       956     0    48     1    16
 -7.1286439473449628E+00 a       957     0    48     1    17
 -5.5566552797405748E+00 a       958     0    48     1    18
 -9.3260253695455125E-02 a       959     0    48     1    19
 -3.2706929852058382E+00 a       960     0    48     1    20
 -3.2930428487824290E+00 a       961     0    49     1     1
 -9.5618425886519347E+00 a       962     0    49     1     2
 -6.1500519012705794E+00 a       963     0    49     1     3
  1.0678235970141086E+01 a       964     0    49     1     4
  2.3230620256220167E+00 a       965     0    49     1     5
  3.6239830806941478E+00 a       966     0    49     1     6
  3.1417194855459559E+01 a       967     0    49     1     7
  4.4570945548349341E+00 a       968     0    49     1     8
  1.2931048003727915E+01 a       969     0    49     1     9
  2.1231295351963695E+01 a       970     0    49     1    10
 -4.6066096901532019E+00 a       971     0    49     1    11
  1.6034693605945667E+00 a       972     0    49     1    12
 -8.6079321656592498E+00 a       973     0    49     1    13
 -1.0325027980083405E-01 a       974     0    49     1    14
  4.3098477062869831E+00 a       975     0    49     1    15
 -9.1292485658392319E+00 a       976     0    49     1    16
 -1.8943316458087391E+01 a       977     0    49     1    17
  9.9398414568447932E-02 a       978     0    49     1    18
  5.1075680367932552E+00 a       979     0    49     1    19
  8.8929793745415875E+00 a       980     0    49     1    20
  2.8147574514264506E+00 a       981     0    50     1     1
 -7.2480949065439146E+00 a       982     0    50     1     2
  1.7940708986754561E+01 a       983     0    50     1     3
 -2.9750556534426092E+01 a       984     0    50     1     4
 -5.7660924866083656E+00 a       985     0    50     1     5
 -9.1923701860831137E+00 a       986     0    50     1     6
 -1.7020791947792507E+01 a       987     0    50     1     7
 -4.4777690586802894E+00 a       988     0    50     1     8
 -4.1556533855257693E-01 a       989     0    50     1     9
  1.3492887673815119E+00 a       990     0    50     1    10
  3.1453421614344341E+00 a       991     0    50     1    11
  8.7216969974374319E+00 a       992     0    50     1    12
  7.6774513811900897E+00 a       993     0    50     1    13
  4.1539117112477690E+00 a       994     0    50     1    14
  1.1807249041949868E+01 a       995     0    50     1    15
  1.7523203407819413E+01 a       996     0    50     1    16
  1.9785902675831000E+01 a       997     0    50     1    17
  1.3804957637918584E+01 a       998     0    50     1    18
 -6.0575256786230645E+00 a       999     0    50     1    19
  3.7229337305548382E+00 a      1000     0    50     1    20
 -1.3900279052848707E+00 a      1001     0    51     1     1
 -2.4633995652256671E+00 a      1002     0    51     1     2
  5.6853749696735800E-01 a      1003     0    51     1     3
  1.5798763554954087E+00 a      1004     0    51     1     4
 -7.7202112422955715E-01 a      1005     0    51     1     5
 -1.1792994919830622E+00 a      1006     0    51     1     6
 -2.9399852532317877E-01 a      1007     0    51     1     7
  1.0351889290266993E+00 a      1008     0    51     1     8
 -8.3076280639087519E-01 a      1009     0    51     1     9
 -2.5980169444868788E+00 a      1010     0    51     1    10
  6.3858440329081367E-01 a      1011     0    51     1    11
 -4.1124178259424365E-01 a      1012     0    51     1    12
 -1.7528718317817076E+00 a      1013     0    51     1    13
  2.9703474797566565E+00 a      1014     0    51     1    14
 -1.2120577611401018E+00 a      1015     0    51     1    15
 -3.5827033358247968E+00 a      1016     0    51     1    16
  5.1811292930900733E-02 a      1017     0    51     1    17
  3.4330620419146429E+00 a      1018     0    51     1    18
  1.0113696491212132E+00 a      1019     0    51     1    19
 -4.6670509412725275E-01 a      1020     0    51     1    20
  1.4404473177087289E+00 a      1021     0    52     1     1
  6.3448951106347407E+00 a      1022     0    52     1     2
  4.4766988056038670E+00 a      1023     0    52     1     3
 -7.9894501524530517E+00 a      1024     0    52     1     4
 -2.4206274189200752E+00 a      1025     0    52     1     5
  9.9814120306329601E-01 a      1026     0    52     1     6
 -1.5067744045177715E+01 a      1027     0    52     1     7
 -5.2132259751383014E-01 a      1028     0    52     1     8
 -3.4009507607406686E+00 a      1029     0    52     1     9
 -1.3350188077734144E+01 a      1030     0    52     1    10
  2.0586831898346114E+00 a      1031     0    52     1    11
  1.2369975391873347E+00 a      1032     0    52     1    12
  4.4480871388932597E+00 a      1033     0    52     1    13
  6.5257995995985263E-01 a      1034     0    52     1    14
 -5.0103529055129785E+00 a      1035     0    52     1    15
  5.8305739710276905E+00 a      1036     0    52     1    16
  4.8910631686468857E+00 a      1037     0    52     1    17
  5.6196599571105454E-01 a      1038     0    52     1    18
 -3.7574845906055289E-02 a      1039     0    52     1    19
 -1.4435920534241429E+00 a      1040     0    52     1    20
  3.7421252908133323E-01 a      1041     0    53     1     1
  1.3619930654771862E+01 a      1042     0    53     1     2
 -9.4011289063223344E+00 a      1043     0    53     1     3
  1.8647736326754540E+01 a      1044     0    53     1     4
  3.9640001045451774E+00 a      1045     0    53     1     5
  4.2704193165540980E+00 a      1046     0    53     1     6
  1.1803203237023162E+01 a      1047     0    53     1     7
 -4.4694035906770085E-01 a      1048     0    53     1     8
 -3.3028004584368897E+00 a      1049     0    53     1     9
  2.6933495547185560E+00 a      1050     0    53     1    10
 -5.5355919065069612E+00 a      1051     0    53     1    11
 -7.7430240120771359E+00 a      1052     0    53     1    12
  1.1191477137373307E+00 a      1053     0    53     1    13
 -6.7460756787558509E+00 a      1054     0    53     1    14
 -8.4571882277000636E+00 a      1055     0    53     1    15
 -9.8841985748281438E+00 a      1056     0    53     1    16
 -6.1351797927209937E+00 a      1057     0    53     1    17
 -1.6473319696902681E+01 a      1058     0    53     1    18
 -2.0602228795963424E+00 a      1059     0    53     1    19
 -6.0977383837074477E+00 a      1060     0    53     1    20
  1.9778363815034013E-02 a      1061     0    54     1     1
  3.1487775577303212E-01 a      1062     0    54     1     2
 -3.4519438586266721E-01 a      1063     0    54     1     3
 -4.1972677982546408E-01 a      1064     0    54     1     4
  1.2129889694896616E-01 a      1065     0    54     1     5
 -2.5565909519655938E-01 a      1066     0    54     1     6
  2.8156649943529183E-01 a      1067     0    54     1     7
 -1.6357769314026552E-01 a      1068     0    54     1     8
  6.4604003657753040E-02 a      1069     0    54     1     9
 -3.7380663091812916E-01 a      1070     0    54     1    10
  1.7097346051601348E-01 a      1071     0    54     1    11
  7.2643454803144702E-01 a      1072     0    54     1    12
  2.5483608744127351E-01 a      1073     0    54     1    13
 -7.4382196580521337E-02 a      1074     0    54     1    14
  8.0543315791698211E-03 a      1075     0    54     1    15
  3.2360118123582648E-01 a      1076     0    54     1    16
 -2.2683781749087242E-01 a      1077     0    54     1    17
  9.1695454126872619E-02 a      1078     0    54     1    18
 -3.7013696433563192E-01 a      1079     0    54     1    19
 -1.0205952860996431E-01 a      1080     0    54     1    20
 -1.5846227430343391E+00 a      1081     0    55     1     1
 -9.9725235678120816E-01 a      1082     0    55     1     2
 -9.3764681706666908E-01 a      1083     0    55     1     3
  3.2788788676183995E+00 a      1084     0    55     1     4
 -6.8121484738487237E-01 a      1085     0    55     1     5
  6.7011631819545392E-02 a      1086     0    55     1     6
 -1.0757041529127680E+00 a      1087     0    55     1     7
  3.2709194824654592E-01 a      1088     0    55     1     8
  2.5717093205322472E-01 a      1089     0    55     1     9
  4.6604564617557709E-01 a      1090     0    55     1    10
 -2.2285126969165597E-01 a      1091     0    55     1    11
 -1.1095403738273832E+00 a      1092     0    55     1    12
 -1.6797678296517258E+00 a      1093     0    55     1    13
  2.3801686960215102E-01 a      1094     0    55     1    14
  6.0722027229049169E-01 a      1095     0    55     1    15
 -2.3331497116236166E+00 a      1096     0    55     1    16
  6.2581867732701690E-01 a      1097     0    55     1    17
 -1.1479444016773515E+00 a      1098     0    55     1    18
  6.0902615038818086E-01 a      1099     0    55     1    19
 -4.7378605074412017E-01 a      1100     0    55     1    20
  1.2402669505015820E+00 a      1101     0    56     1     1
 -1.5481078881086339E+00 a      1102     0    56     1     2
 -4.1212728623662853E-01 a      1103     0    56     1     3
 -2.8363535081893549E+00 a      1104     0    56     1     4
  5.4504200303002237E-01 a      1105     0    56     1     5
 -8.4279316351987199E-01 a      1106     0    56     1     6
 -1.4391905507531533E+00 a      1107     0    56     1     7
  6.4304006166041261E-01 a      1108     0    56     1     8
 -3.8010087686686606E-01 a      1109     0    56     1     9
 -6.6976680155000234E-01 a      1110     0    56     1    10
  1.6195886391414838E+00 a      1111     0    56     1    11
  1.1864620713531688E+00 a      1112     0    56     1    12
  1.1221238634539438E-01 a      1113     0    56     1    13
  8.3282595558309147E-01 a      1114     0    56     1    14
  3.1543845156861328E+00 a      1115     0    56     1    15
  1.0314859337301912E+00 a      1116     0    56     1    16
  2.8915651635748024E-01 a      1117     0    56     1    17
  2.8939394554283826E+00 a      1118     0    56     1    18
  1.3105934059179272E+00 a      1119     0    56     1    19
  1.6951993742175251E+00 a      1120     0    56     1    20
 -1.5180763909654500E+00 b      1121     1     1
  4.2345813972997887E-01 b      1122     1     2
  6.2130234170727927E-01 b      1123     1     3
 -9.5680929567554918E-01 b      1124     1     4
  2.7376383409626914E-01 b      1125     1     5
 -1.0753357624598407E+00 b      1126     1     6
 -2.4592917962983749E-01 b      1127     1     7
  1.6306170402309510E+00 b      1128     1     8
 -1.2138264018956946E+00 b      1129     1     9
 -5.1906089085023543E-01 b      1130     1    10
 -4.6194132595318771E-01 b      1131     1    11
 -2.1741843982723588E-01 b      1132     1    12
  1.9458501561191337E+00 b      1133     1    13
  5.0043868486240754E-02 b      1134     1    14
  7.0603964919685758E-01 b      1135     1    15
  4.2677167590856568E-01 b      1136     1    16
  5.5978922281052368E-01 b      1137     1    17
 -5.2240859399828787E-01 b      1138     1    18
  1.1165206013136235E+00 b      1139     1    19
 -2.2688787562034832E-01 b      1140     1    20
 -9.1278825629505178E-01 a      1141     1     1     2     1
 -1.6003251580050097E+00 a      1142     1     1     2     2
  1.0962568399294245E-01 a      1143     1     1     2     3
 -9.7199262250012453E-01 a      1144     1     1     2     4
 -3.8815918917429477E-02 a      1145     1     1     2     5
  2.1317869996164909E+00 a      1146     1     1     2     6
  5.3182029849182216E-02 a      1147     1     1     2     7
  1.0894696215624053E+00 a      1148     1     1     2     8
  5.1590495962515026E-01 a      1149     1     1     2     9
  8.6968596833777456E-01 a      1150     1     1     2    10
 -2.2324117210140726E-01 a      1151     1     2     2     1
 -9.6234385450135795E-02 a      1152     1     2     2     2
 -4.5500569228170490E-01 a      1153     1     2     2     3
 -1.9094204348463137E-03 a      1154     1     2     2     4
  8.8258496759696485E-03 a      1155     1     2     2     5
 -2.5835736196050712E-02 a      1156     1     2     2     6
  2.2174210157322699E-01 a      1157     1     2     2     7
 -9.3564218985352540E-02 a      1158     1     2     2     8
  1.5398173693663450E-01 a      1159     1     2     2     9
  6.7285007461499136E-01 a      1160     1     2     2    10
 -3.0382889519860307E-01 a      1161     1     3     2     1
  9.1101088037383815E-02 a      1162     1     3     2     2
  2.6367209458956087E-01 a      1163     1     3     2     3
 -1.7837663914338345E-01 a      1164     1     3     2     4
  3.5854928466433345E-01 a      1165     1     3     2     5
  1.0443099437692709E-01 a      1166     1     3     2     6
  2.9629486231445741E-02 a      1167     1     3     2     7
  2.5076868510833624E-02 a      1168     1     3     2     8
 -4.0343793673094062E-02 a      1169     1     3     2     9
  2.0570655460518856E-02 a      1170     1     3     2    10
  6.3399981310273579E-02 a      1171     1     4     2     1
  1.2961900745517460E-01 a      1172     1     4     2     2
 -5.5599868016645362E-03 a      1173     1     4     2     3
 -9.2611267150826612E-02 a      1174     1     4     2     4
 -2.3948061248606109E-01 a      1175     1     4     2     5
  5.6967945164537404E-02 a      1176     1     4     2     6
 -1.2581748962551664E-01 a      1177     1     4     2     7
  4.9196185356640776E-02 a      1178     1     4     2     8
 -1.2753951846788358E-01 a      1179     1     4     2     9
 -9.6195556551284522E-01 a      1180     1     4     2    10
 -1.4823799047361574E-01 a      1181     1     5     2     1
  2.1835641311801650E-02 a      1182     1     5     2     2
  1.2121461928140932E-02 a      1183     1     5     2     3
  1.4237914600253310E-01 a      1184     1     5     2     4
  2.8039801296866694E-02 a      1185     1     5     2     5
  4.6498020497467540E-01 a      1186     1     5     2     6
 -8.3067364635628207E-02 a      1187     1     5     2     7
 -4.3930938796916247E-01 a      1188     1     5     2     8
  3.4151512860432731E-01 a      1189     1     5     2     9
  5.3045768452296893E-01 a      1190     1     5     2    10
 -3.7407994014219965E-02 a      1191     1     6     2     1
  4.4672552147403471E-01 a      1192     1     6     2     2
  1.8018976966826208E-01 a      1193     1     6     2     3
  6.5871828889521222E-01 a      1194     1     6     2     4
 -4.4794274627633851E-01 a      1195     1     6     2     5
 -7.2524206120601675E-02 a      1196     1     6     2     6
 -8.5409485625184878E-01 a      1197     1     6     2     7
 -3.4023050856369130E-01 a      1198     1     6     2     8
 -1.7951302880966341E-01 a      1199     1     6     2     9
 -2.6513363174245946E-01 a      1200     1     6     2    10
 -4.7653778690062898E-01 a      1201     1     7     2     1
 -4.9091623064061923E-02 a      1202     1     7     2     2
 -5.4619957113198159E-01 a      1203     1     7     2     3
 -6.6092916936580970E-01 a      1204     1     7     2     4
 -1.0698407248668419E-01 a      1205     1     7     2     5
  5.4288197777600605E-02 a      1206     1     7     2     6
 -4.4297839260475680E-01 a      1207     1     7     2     7
  2.7111734033593998E-02 a      1208     1     7     2     8
  2.2309794001732289E-04 a      1209     1     7     2     9
  4.0942276830710733E-01 a      1210     1     7     2    10
 -1.8585924920174723E-01 a      1211     1     8     2     1
  1.2648361689613379E+00 a      1212     1     8     2     2
 -1.5343666319422883E-01 a      1213     1     8     2     3
  2.3503651625121405E-01 a      1214     1     8     2     4
 -4.6361497702709462E-02 a      1215     1     8     2     5
 -5.8117951866169459E-01 a      1216     1     8     2     6
  5.1020087618940979E-01 a      1217     1     8     2     7
 -1.3269533263673179E+00 a      1218     1     8     2     8
 -5.4397021045531091E-01 a      1219     1     8     2     9
 -1.5826697504218584E-02 a      1220     1     8     2    10
 -2.6676934887448719E-03 a      1221     1     9     2     1
  2.0062205690521773E-01 a      1222     1     9     2     2
  1.1892079365807777E+00 a      1223     1     9     2     3
 -6.0979799826072179E-01 a      1224     1     9     2     4
 -6.5811703418605927E-01 a      1225     1     9     2     5
 -1.2286905682091007E-01 a      1226     1     9     2     6
  4.7363252834522679E-01 a      1227     1     9     2     7
 -1.5073674294378001E-01 a      1228     1     9     2     8
 -2.5485678940412054E-01 a      1229     1     9     2     9
  1.4987726952239385E-03 a      1230     1     9     2    10
 -1.7170079759831061E-01 a      1231     1    10     2     1
  4.7873364196875268E-02 a      1232     1    10     2     2
  1.7651825304175742E-01 a      1233     1    10     2     3
 -1.6035940649810004E-01 a      1234     1    10     2     4
  7.6581468758127413E-01 a      1235     1    10     2     5
  1.2199218446147903E-02 a      1236     1    10     2     6
 -1.1994711140141251E-02 a      1237     1    10     2     7
  5.5606532731991995E-02 a      1238     1    10     2     8
 -1.9489825238833491E-01 a      1239     1    10     2     9
  1.0871410125723291E-01 a      1240     1    10     2    10
  8.0744833275203709E-01 a      1241     1    11     2     1
 -8.2887074633232055E-02 a      1242     1    11     2     2
  5.3835000620359542E-02 a      1243     1    11     2     3
  1.9506818680771212E-01 a      1244     1    11     2     4
  2.2028389560597034E-01 a      1245     1    11     2     5
 -1.0719009814380707E-01 a      1246     1    11     2     6
 -3.6036707922061750E-01 a      1247     1    11     2     7
  6.3914678841105954E-01 a      1248     1    11     2     8
  1.7655081456882185E-01 a      1249     1    11     2     9
 -4.4167255742496442E-02 a      1250     1    11     2    10
  2.9121478867325157E-01 a      1251     1    12     2     1
 -1.6212947283731103E-02 a      1252     1    12     2     2
  1.5634050039103806E-01 a      1253     1    12     2     3
 -1.9766477578006519E-01 a      1254     1    12     2     4
 -6.1846553024227757E-01 a      1255     1    12     2     5
  6.7417453295275057E-02 a      1256     1    12     2     6
 -1.1007759550151287E-01 a      1257     1    12     2     7
  2.8701362392208013E-01 a      1258     1    12     2     8
  1.3251544025131498E-01 a      1259     1    12     2     9
 -7.6750835744305995E-02 a      1260     1    12     2    10
  1.1592003945026055E+00 a      1261     1    13     2     1
 -1.1734601375462714E-01 a      1262     1    13     2     2
  3.2084195592902104E-01 a      1263     1    13     2     3
 -7.3057449780220129E-01 a      1264     1    13     2     4
 -6.3475747355699630E-01 a      1265     1    13     2     5
  4.1567765832711290E-01 a      1266     1    13     2     6
  2.9850378453005082E-02 a      1267     1    13     2     7
  3.3708293890898022E-01 a      1268     1    13     2     8
  1.6648689296401482E+00 a      1269     1    13     2     9
  1.3949623291497548E+00 a      1270     1    13     2    10
 -3.0873876470022693E-01 a      1271     1    14     2     1
  6.9202837347798640E-02 a      1272     1    14     2     2
 -3.3694871566303164E-01 a      1273     1    14     2     3
  5.3654324182611357E-01 a      1274     1    14     2     4
 -1.4147017218346528E-01 a      1275     1    14     2     5
 -1.3926983120581740E-01 a      1276     1    14     2     6
  9.0416582654483135E-01 a      1277     1    14     2     7
  1.0426977654706787E-01 a      1278     1    14     2     8
 -2.2338786883258493E-01 a      1279     1    14     2     9
  1.8433408307993823E-01 a      1280     1    14     2    10
 -4.8590343816269399E-01 a      1281     1    15     2     1
 -9.5919761025604011E-02 a      1282     1    15     2     2
  1.5604312871561657E-03 a      1283     1    15     2     3
  4.5734325151710037E-01 a      1284     1    15     2     4
  1.0696928070094143E-01 a      1285     1    15     2     5
  5.3326334254797606E-03 a      1286     1    15     2     6
 -3.6686958751082549E-01 a      1287     1    15     2     7
 -1.9082357389468252E-01 a      1288     1    15     2     8
 -4.9619167530034244E-02 a      1289     1    15     2     9
  2.2681262028392107E-01 a      1290     1    15     2    10
  1.1124213029986964E-01 a      1291     1    16     2     1
 -2.7420813004631638E-02 a      1292     1    16     2     2
 -1.6475916704256874E-01 a      1293     1    16     2     3
  2.2630784062726872E-01 a      1294     1    16     2     4
  3.0399689812445124E-01 a      1295     1    16     2     5
 -6.0161156608322525E-02 a      1296     1    16     2     6
  2.9812064577532571E-01 a      1297     1    16     2     7
 -1.1158706670285483E-01 a      1298     1    16     2     8
 -8.1537626074973155E-02 a      1299     1    16     2     9
  9.2107590771418293E-02 a      1300     1    16     2    10
  2.3996785675449830E-01 a      1301     1    17     2     1
 -5.5645827298281256E-02 a      1302     1    17     2     2
 -8.3825326349160345E-02 a      1303     1    17     2     3
 -5.6911744645484275E-01 a      1304     1    17     2     4
 -9.4933084059486611E-02 a      1305     1    17     2     5
 -6.5424811948616973E-05 a      1306     1    17     2     6
  2.8711816599218531E-01 a      1307     1    17     2     7
  5.2885253436425937E-02 a      1308     1    17     2     8
  1.5550682761809771E-02 a      1309     1    17     2     9
  2.8943339952380065E-01 a      1310     1    17     2    10
  2.4161801560198277E-02 a      1311     1    18     2     1
  1.5160176865305136E-01 a      1312     1    18     2     2
  1.6854275970023941E-01 a      1313     1    18     2     3
 -3.5141292841723476E-01 a      1314     1    18     2     4
 -3.3415350192750254E-01 a      1315     1    18     2     5
 -6.1256226974297171E-03 a      1316     1    18     2     6
  1.0303413481133895E-01 a      1317     1    18     2     7
 -1.8156176384905762E-01 a      1318     1    18     2     8
  5.8120014587721383E-02 a      1319     1    18     2     9
  1.2975503448314016E-01 a      1320     1    18     2    10
  6.2944928218352569E-01 a      1321     1    19     2     1
  6.2510052804783334E-01 a      1322     1    19     2     2
  2.7343400300639126E-01 a      1323     1    19     2     3
 -1.1288639373700231E+00 a      1324     1    19     2     4
  6.3404404634488742E-01 a      1325     1    19     2     5
 -8.4851071126944155E-01 a      1326     1    19     2     6
 -6.8483084713642683E-01 a      1327     1    19     2     7
  1.5143807861225830E-01 a      1328     1    19     2     8
 -6.8361667060404807E-02 a      1329     1    19     2     9
 -5.9745907648979368E-01 a      1330     1    19     2    10
 -3.8351510674490924E-01 a      1331     1    20     2     1
  1.9598370716425513E-02 a      1332     1    20     2     2
  6.5223086201644098E-01 a      1333     1    20     2     3
  2.0026814456739709E-04 a      1334     1    20     2     4
  1.2549472519334744E-02 a      1335     1    20     2     5
  7.2598213360977493E-02 a      1336     1    20     2     6
  4.0685709396351119E-02 a      1337     1    20     2     7
 -8.9668391818231094E-03 a      1338     1    20     2     8
 -4.3371698635051512E-02 a      1339     1    20     2     9
 -1.5636541552234495E-02 a      1340     1    20     2    10
 -7.9738336787205322E-01 b      1341     2     1
 -3.2962831693581935E+00 b      1342     2     2
  2.2515777946290911E+00 b      1343     2     3
 -6.7102393288575402E-01 b      1344     2     4
 -1.7519809470133001E+00 b      1345     2     5
  3.4994980896953023E+00 b      1346     2     6
 -1.8603173451830513E-01 b      1347     2     7
  5.0162905495206311E-01 b      1348     2     8
 -1.7913472116814648E+00 b      1349     2     9
 -2.8144673758226801E+00 b      1350     2    10
  6.7462135912728050E-01 a      1351     2     1     3     1
 -2.6799033143239792E+00 a      1352     2     2     3     1
 -1.1240397337660692E+00 a      1353     2     3     3     1
  4.4047054031305671E-01 a      1354     2     4     3     1
  3.9430830391733263E-01 a      1355     2     5     3     1
  2.7049754201219116E+00 a      1356     2     6     3     1
  2.6979112174274367E-01 a      1357     2     7     3     1
  1.5799594971118744E+00 a      1358     2     8     3     1
  2.4177357269862099E+00 a      1359     2     9     3     1
  9.4180527796020097E-01 a      1360     2    10     3     1
  1.7439677377672083E+00 b      1361     3     1
