################################################################################
# Neural network connection values (weights and biases).
################################################################################
# Col  Name       Description
################################################################################
# 1    connection Neural network connection value.
# 2    t          Connection type (a = weight, b = bias).
# 3    index      Index enumerating weights.
# 4    l_s        Starting point layer (end point layer for biases).
# 5    n_s        Starting point neuron in starting layer (end point neuron for biases).
# 6    l_e        End point layer.
# 7    n_e        End point neuron in end layer.
################################################################################
#                      1 2         3     4     5     6     7
#             connection t     index   l_s   n_s   l_e   n_e
############################################################
  6.9075505645068769E-01 a         1     0     1     1     1
 -2.8890945826040987E-02 a         2     0     1     1     2
  5.0059164005430723E-01 a         3     0     1     1     3
  3.9717120471144524E-01 a         4     0     1     1     4
 -1.4970144328762596E+00 a         5     0     1     1     5
  1.2943443570312434E+00 a         6     0     1     1     6
  2.5286455041562927E-01 a         7     0     1     1     7
  1.6625689219900144E+00 a         8     0     1     1     8
 -4.5971247592948156E-01 a         9     0     1     1     9
 -1.7190062330814399E-02 a        10     0     1     1    10
  1.4888862232864980E-01 a        11     0     1     1    11
  1.4317492004859621E-02 a        12     0     1     1    12
 -9.5449290965113398E-01 a        13     0     1     1    13
  1.4453879546370008E-01 a        14     0     1     1    14
  2.0921762594943929E+00 a        15     0     1     1    15
  2.2968438894634199E-01 a        16     0     1     1    16
  9.8155137509783041E-01 a        17     0     1     1    17
  3.4284631694009832E-01 a        18     0     1     1    18
 -2.8020100054824837E-01 a        19     0     1     1    19
  4.9390937481694042E-01 a        20     0     1     1    20
 -3.4420767916607448E-03 a        21     0     2     1     1
  3.3269455058019116E-03 a        22     0     2     1     2
  4.8753664747963185E-03 a        23     0     2     1     3
 -3.3068540673458829E-01 a        24     0     2     1     4
  2.0945319712178098E-01 a        25     0     2     1     5
 -3.8785174680985489E-02 a        26     0     2     1     6
  2.5670107395306788E-02 a        27     0     2     1     7
  1.8440132697606670E-01 a        28     0     2     1     8
  1.8098185886058674E-01 a        29     0     2     1     9
  3.7719490761751941E-02 a        30     0     2     1    10
  7.8843718667219054E-03 a        31     0     2     1    11
 -2.4592923727268881E-03 a        32     0     2     1    12
 -1.4696458785300329E-01 a        33     0     2     1    13
 -1.0240902962631949E-02 a        34     0     2     1    14
  9.4189191349352483E-02 a        35     0     2     1    15
  6.2816411637643829E-02 a        36     0     2     1    16
  1.0793845170628777E-01 a        37     0     2     1    17
  1.4354550862292318E-02 a        38     0     2     1    18
 -3.9954674752154071E-02 a        39     0     2     1    19
  5.6500066378925642E-02 a        40     0     2     1    20
  2.7124080652401739E-01 a        41     0     3     1     1
 -4.8528544230098655E-02 a        42     0     3     1     2
 -1.6538178939489701E+00 a        43     0     3     1     3
  1.8119037849646438E+00 a        44     0     3     1     4
 -3.1962106113964706E+00 a        45     0     3     1     5
  4.2013205334208098E-01 a        46     0     3     1     6
  2.3325818860558462E-01 a        47     0     3     1     7
  5.0482724593957169E+00 a        48     0     3     1     8
  7.4231851519425712E-02 a        49     0     3     1     9
 -9.5463944817037572E-02 a        50     0     3     1    10
 -1.8863091296325379E-01 a        51     0     3     1    11
 -5.6746719210177009E-02 a        52     0     3     1    12
 -2.9053324284916093E+00 a        53     0     3     1    13
  1.5085304173484759E-01 a        54     0     3     1    14
 -1.5018639257442359E-01 a        55     0     3     1    15
 -3.0292388071837456E-01 a        56     0     3     1    16
  2.3990954473557120E+00 a        57     0     3     1    17
 -3.0463995971525057E+00 a        58     0     3     1    18
 -1.3856010728611076E-01 a        59     0     3     1    19
 -8.8913577729316351E-01 a        60     0     3     1    20
  6.8176309238586097E-01 a        61     0     4     1     1
 -2.5224063397842095E-01 a        62     0     4     1     2
  2.6418837423847590E-02 a        63     0     4     1     3
 -2.2699373938392950E+00 a        64     0     4     1     4
 -2.8808807092219397E+00 a        65     0     4     1     5
  1.5108544120603087E+00 a        66     0     4     1     6
  3.4278207025918666E+00 a        67     0     4     1     7
  7.7136574707648204E+00 a        68     0     4     1     8
 -1.3057209721422971E+00 a        69     0     4     1     9
 -5.7785668758044340E-01 a        70     0     4     1    10
  4.3361048122412804E-01 a        71     0     4     1    11
  5.6701212526628608E-01 a        72     0     4     1    12
 -6.6098227472165783E-01 a        73     0     4     1    13
  1.2252988814611137E+00 a        74     0     4     1    14
  8.8256260074111603E-01 a        75     0     4     1    15
  3.8092140623244580E-01 a        76     0     4     1    16
  4.4380648357085732E+00 a        77     0     4     1    17
  1.4844651758080096E+00 a        78     0     4     1    18
 -1.4901923935231618E+00 a        79     0     4     1    19
  9.9826789335246557E-01 a        80     0     4     1    20
 -2.8634305251947867E-01 a        81     0     5     1     1
 -4.4140465596224315E-01 a        82     0     5     1     2
  9.1173514182358972E-01 a        83     0     5     1     3
  5.4383369342224597E-01 a        84     0     5     1     4
  6.4712309401448942E-01 a        85     0     5     1     5
  1.6309984323518367E+00 a        86     0     5     1     6
 -5.9248550337870209E-01 a        87     0     5     1     7
  2.2649145432071216E+00 a        88     0     5     1     8
  3.8557138389079643E-01 a        89     0     5     1     9
 -3.6859603188732087E-01 a        90     0     5     1    10
 -2.9130038589815416E-02 a        91     0     5     1    11
 -6.8959429684074855E-02 a        92     0     5     1    12
 -2.3371599030931650E-01 a        93     0     5     1    13
 -2.1487157580081237E-01 a        94     0     5     1    14
 -6.6936950631492587E-01 a        95     0     5     1    15
 -2.0588168440976440E-02 a        96     0     5     1    16
  5.2522044624358977E-01 a        97     0     5     1    17
 -2.2457443168751279E-01 a        98     0     5     1    18
 -1.9694269852386453E-01 a        99     0     5     1    19
  2.1708612098114347E-01 a       100     0     5     1    20
  2.5423921306952866E+00 a       101     0     6     1     1
 -1.3947759013753540E+00 a       102     0     6     1     2
  7.0399428754165569E+00 a       103     0     6     1     3
 -3.9383520839169668E+00 a       104     0     6     1     4
 -2.8447269981698131E+00 a       105     0     6     1     5
  4.8304302387326885E+00 a       106     0     6     1     6
  8.8834490200807856E+00 a       107     0     6     1     7
  1.3794378427304920E+01 a       108     0     6     1     8
 -4.9357241566413306E+00 a       109     0     6     1     9
 -1.2162934791126880E+00 a       110     0     6     1    10
  1.3116445782293071E+00 a       111     0     6     1    11
  9.6304390377124871E-01 a       112     0     6     1    12
  4.6899393916485108E+00 a       113     0     6     1    13
  2.0421087541825602E+00 a       114     0     6     1    14
  7.0859437445151672E+00 a       115     0     6     1    15
  1.3096325674237212E+00 a       116     0     6     1    16
  1.3526849654562596E+01 a       117     0     6     1    17
  8.4916673810082699E+00 a       118     0     6     1    18
 -2.7527150546096162E+00 a       119     0     6     1    19
  2.1189704815443888E+00 a       120     0     6     1    20
  1.3659762311016941E+00 a       121     0     7     1     1
  1.5110510444917377E-01 a       122     0     7     1     2
 -8.6799655260365185E+00 a       123     0     7     1     3
  1.4334460965617279E+01 a       124     0     7     1     4
 -1.5426058984082498E+01 a       125     0     7     1     5
  2.6663058904390513E+00 a       126     0     7     1     6
  4.0420985442247725E-01 a       127     0     7     1     7
  2.6255985008086292E+01 a       128     0     7     1     8
  1.6056821276403606E+00 a       129     0     7     1     9
  5.8789101155729384E-01 a       130     0     7     1    10
 -3.5769505512946659E-01 a       131     0     7     1    11
  1.9060813347796243E-01 a       132     0     7     1    12
 -7.5844231469712060E+00 a       133     0     7     1    13
  7.6713958147961059E-02 a       134     0     7     1    14
 -1.2848110431762971E-01 a       135     0     7     1    15
 -1.8827032189276599E-01 a       136     0     7     1    16
  1.4185746728832939E+01 a       137     0     7     1    17
 -1.1256207003132522E+01 a       138     0     7     1    18
  5.8760094709048782E-01 a       139     0     7     1    19
 -2.9005067555620641E+00 a       140     0     7     1    20
  2.8647844630925983E+00 a       141     0     8     1     1
  2.6800276089343761E-01 a       142     0     8     1     2
 -1.9281498403341757E+00 a       143     0     8     1     3
  4.5831734260795223E+00 a       144     0     8     1     4
 -7.8961059549550567E+00 a       145     0     8     1     5
  7.0734438815733638E+00 a       146     0     8     1     6
 -2.0339718232935886E+00 a       147     0     8     1     7
  8.9112940430220107E+00 a       148     0     8     1     8
 -9.2819069141188704E-01 a       149     0     8     1     9
  8.9303890074209372E-02 a       150     0     8     1    10
  4.4072886092639252E-01 a       151     0     8     1    11
 -8.5081736771360869E-02 a       152     0     8     1    12
 -9.4406807559150607E+00 a       153     0     8     1    13
  1.2975749169464863E+00 a       154     0     8     1    14
  3.9656638131496913E+00 a       155     0     8     1    15
  9.5635391860596197E-01 a       156     0     8     1    16
  6.2166628327961782E+00 a       157     0     8     1    17
 -4.6390762758180726E+00 a       158     0     8     1    18
  5.2742441947953210E-02 a       159     0     8     1    19
  3.8933824605795420E+00 a       160     0     8     1    20
  8.8037934701823306E-01 a       161     0     9     1     1
 -2.3797421268317442E-01 a       162     0     9     1     2
 -7.9937400945440436E+00 a       163     0     9     1     3
  2.1701221999918442E+01 a       164     0     9     1     4
 -1.7202936921326760E+01 a       165     0     9     1     5
  8.6218933071662409E+00 a       166     0     9     1     6
 -2.4310921153102925E+00 a       167     0     9     1     7
  3.1360685041077218E+01 a       168     0     9     1     8
  7.3028767678115913E-01 a       169     0     9     1     9
  5.7338183414222155E-01 a       170     0     9     1    10
 -2.8996736033236487E-01 a       171     0     9     1    11
 -6.3783185323409475E-01 a       172     0     9     1    12
 -9.1361954867672157E+00 a       173     0     9     1    13
  9.2710509229284185E-02 a       174     0     9     1    14
  1.5432905372214762E+00 a       175     0     9     1    15
  1.1542743391594743E+00 a       176     0     9     1    16
  2.5879942421997487E+01 a       177     0     9     1    17
 -1.0109062339217674E+01 a       178     0     9     1    18
  3.2506495020265092E-01 a       179     0     9     1    19
 -3.5568077733902905E+00 a       180     0     9     1    20
  1.4599001037709840E+00 a       181     0    10     1     1
  1.7393133299059563E-01 a       182     0    10     1     2
 -2.1275718433796933E+00 a       183     0    10     1     3
  2.8416651669307500E+00 a       184     0    10     1     4
 -4.8619735136522069E+00 a       185     0    10     1     5
  3.8039619681022367E+00 a       186     0    10     1     6
 -1.4643464615983637E+00 a       187     0    10     1     7
  4.1370312608182562E+00 a       188     0    10     1     8
 -9.8681966349636296E-01 a       189     0    10     1     9
  1.5309163182730107E-01 a       190     0    10     1    10
  2.3635919293909197E-01 a       191     0    10     1    11
 -8.8421952000879309E-02 a       192     0    10     1    12
 -5.2061645932115281E+00 a       193     0    10     1    13
  5.6214818653672027E-01 a       194     0    10     1    14
  6.7618876573014419E-01 a       195     0    10     1    15
  7.5013740032080922E-01 a       196     0    10     1    16
  2.6400189313226434E+00 a       197     0    10     1    17
 -2.4466454804784474E+00 a       198     0    10     1    18
  1.6676898926297717E-01 a       199     0    10     1    19
  1.9562934479238780E+00 a       200     0    10     1    20
  1.3877719119265362E+00 a       201     0    11     1     1
 -6.6185594630028999E-01 a       202     0    11     1     2
 -1.1682951062783957E+01 a       203     0    11     1     3
  2.2986438830151904E+01 a       204     0    11     1     4
 -2.7971443188560251E+01 a       205     0    11     1     5
  1.0432189008429216E+01 a       206     0    11     1     6
 -1.5661189061699967E+00 a       207     0    11     1     7
  4.3589102235330870E+01 a       208     0    11     1     8
  2.2777856212770356E-01 a       209     0    11     1     9
 -1.1266180161874154E-02 a       210     0    11     1    10
 -6.5383030556860944E-01 a       211     0    11     1    11
 -9.0816251854860375E-01 a       212     0    11     1    12
 -2.0228647818453371E+01 a       213     0    11     1    13
  7.0247187433189040E-01 a       214     0    11     1    14
  1.5509470845808817E+00 a       215     0    11     1    15
 -5.4385758209895119E-01 a       216     0    11     1    16
  2.9799206131941844E+01 a       217     0    11     1    17
 -2.2362044776298266E+01 a       218     0    11     1    18
 -9.1887525014827365E-01 a       219     0    11     1    19
 -6.2883989800867903E+00 a       220     0    11     1    20
  2.1573619564366850E-01 a       221     0    12     1     1
  4.7330426429135087E-03 a       222     0    12     1     2
 -3.8436841912382824E-01 a       223     0    12     1     3
  4.0843094629208332E-01 a       224     0    12     1     4
 -6.9628261228188293E-01 a       225     0    12     1     5
  4.8560453358279743E-01 a       226     0    12     1     6
 -1.5999972669792481E-01 a       227     0    12     1     7
  6.8097244743004393E-01 a       228     0    12     1     8
 -1.6939359345558339E-01 a       229     0    12     1     9
  4.5252909162579978E-02 a       230     0    12     1    10
 -7.4958105600796937E-02 a       231     0    12     1    11
 -2.8873793315231051E-02 a       232     0    12     1    12
 -8.3923025032747911E-01 a       233     0    12     1    13
  1.1546762446840940E-01 a       234     0    12     1    14
 -5.6121237999765469E-02 a       235     0    12     1    15
  1.7101305715937076E-01 a       236     0    12     1    16
  2.9969340266582234E-01 a       237     0    12     1    17
 -2.4018653456527514E-01 a       238     0    12     1    18
 -5.3674466426718290E-02 a       239     0    12     1    19
  2.4378719546775909E-01 a       240     0    12     1    20
  1.0945906349513119E+00 a       241     0    13     1     1
 -4.0758102889561310E-01 a       242     0    13     1     2
 -8.4608623986551166E+00 a       243     0    13     1     3
  1.2444616962136493E+01 a       244     0    13     1     4
 -1.9147990974191178E+01 a       245     0    13     1     5
  5.3330657388015359E+00 a       246     0    13     1     6
  2.3117427342244087E-01 a       247     0    13     1     7
  2.9173763776006844E+01 a       248     0    13     1     8
  3.9382296835094105E-01 a       249     0    13     1     9
 -3.6361600650951703E-01 a       250     0    13     1    10
 -6.0036375323912139E-01 a       251     0    13     1    11
 -3.8718042536742359E-01 a       252     0    13     1    12
 -1.5888000273345755E+01 a       253     0    13     1    13
  5.6703251788793074E-01 a       254     0    13     1    14
 -2.6035132314978887E-01 a       255     0    13     1    15
 -1.1248993977829036E+00 a       256     0    13     1    16
  1.7363887544545989E+01 a       257     0    13     1    17
 -1.7368340227634736E+01 a       258     0    13     1    18
 -8.8210872372570437E-01 a       259     0    13     1    19
 -4.1637940692429698E+00 a       260     0    13     1    20
 -3.4652037115438966E-01 a       261     0    14     1     1
 -7.5136851929188566E+00 a       262     0    14     1     2
 -7.3219854107652367E+01 a       263     0    14     1     3
 -8.8587312810522249E+01 a       264     0    14     1     4
 -3.6977762226081786E+01 a       265     0    14     1     5
 -7.9701373774726264E+01 a       266     0    14     1     6
  4.3284883735763415E+01 a       267     0    14     1     7
 -2.8854100575703075E+02 a       268     0    14     1     8
  3.6958048778013868E+01 a       269     0    14     1     9
 -5.3309374316157090E+00 a       270     0    14     1    10
 -3.2553408600820575E+00 a       271     0    14     1    11
 -9.7222310472328193E+00 a       272     0    14     1    12
  1.2224396473005510E+02 a       273     0    14     1    13
 -2.1719531099925802E+00 a       274     0    14     1    14
 -3.5637647009457005E+01 a       275     0    14     1    15
 -2.9167767742533535E+01 a       276     0    14     1    16
 -1.5689392936787561E+02 a       277     0    14     1    17
 -3.6086273701477033E+01 a       278     0    14     1    18
 -2.9496123846828732E+00 a       279     0    14     1    19
 -6.9859665036019663E+01 a       280     0    14     1    20
 -3.1917323190959973E-01 a       281     0    15     1     1
  4.2666842237184044E-01 a       282     0    15     1     2
 -3.0491230240781642E+00 a       283     0    15     1     3
 -5.6409035267740704E+00 a       284     0    15     1     4
 -2.1929696198046753E-01 a       285     0    15     1     5
  1.2863121686114691E+00 a       286     0    15     1     6
  2.1639593260782468E+00 a       287     0    15     1     7
  8.4244287778976865E+00 a       288     0    15     1     8
 -6.5493472433631981E+00 a       289     0    15     1     9
 -2.6767165707492158E+00 a       290     0    15     1    10
  1.2797701563409902E+00 a       291     0    15     1    11
  1.1872187509603609E+00 a       292     0    15     1    12
 -5.9853644207102166E+00 a       293     0    15     1    13
 -5.9689151272565577E-01 a       294     0    15     1    14
  1.0181998257121838E+00 a       295     0    15     1    15
 -1.7081583846211292E+00 a       296     0    15     1    16
  4.6988306436295995E+00 a       297     0    15     1    17
 -5.2931983301159247E-01 a       298     0    15     1    18
 -2.3099722087918155E+00 a       299     0    15     1    19
  5.6247882489777892E+00 a       300     0    15     1    20
 -2.9365039961088835E+00 a       301     0    16     1     1
 -1.1765929806205497E+00 a       302     0    16     1     2
  1.0386216602554805E+01 a       303     0    16     1     3
 -1.8264160987696426E-01 a       304     0    16     1     4
 -9.4767481172877854E-01 a       305     0    16     1     5
  4.8279112052829305E+00 a       306     0    16     1     6
 -3.9835130375283510E+00 a       307     0    16     1     7
 -2.6660103530636365E+00 a       308     0    16     1     8
 -2.7366613550840300E+00 a       309     0    16     1     9
 -7.4240122079683768E-01 a       310     0    16     1    10
  1.1438869848103124E-01 a       311     0    16     1    11
 -3.2277908350744106E-01 a       312     0    16     1    12
  1.5107276000542718E+01 a       313     0    16     1    13
 -6.0107131206960784E-01 a       314     0    16     1    14
  4.2194819357387453E-01 a       315     0    16     1    15
 -3.7949453910757314E-01 a       316     0    16     1    16
 -3.9445829047655043E+00 a       317     0    16     1    17
  6.6736166645240544E+00 a       318     0    16     1    18
 -6.7139827399384311E-01 a       319     0    16     1    19
  1.5802951225090331E+00 a       320     0    16     1    20
  1.0048861980894319E+00 a       321     0    17     1     1
  8.8139933219798072E-01 a       322     0    17     1     2
 -1.5036175449941062E+01 a       323     0    17     1     3
 -2.7381232064592790E+01 a       324     0    17     1     4
 -2.0297874539029667E+01 a       325     0    17     1     5
  1.1822710493807190E+01 a       326     0    17     1     6
  1.6708028393151668E+01 a       327     0    17     1     7
  3.0793814372909114E+01 a       328     0    17     1     8
 -1.5822748745834129E+01 a       329     0    17     1     9
 -8.6151927551112362E+00 a       330     0    17     1    10
  4.2401867905334010E+00 a       331     0    17     1    11
  3.5145239265916244E+00 a       332     0    17     1    12
 -2.0160669171341748E+01 a       333     0    17     1    13
  1.0920237328165108E+00 a       334     0    17     1    14
  3.1283786712773693E+00 a       335     0    17     1    15
 -5.7854701229661094E+00 a       336     0    17     1    16
  3.1272302021438283E+00 a       337     0    17     1    17
 -2.0339749422226721E+00 a       338     0    17     1    18
 -9.6532699755889535E+00 a       339     0    17     1    19
  1.3026341776487765E+01 a       340     0    17     1    20
 -9.3594544831821302E+00 a       341     0    18     1     1
 -4.7418273567648379E+00 a       342     0    18     1     2
  2.8562020659446588E+01 a       343     0    18     1     3
 -5.1839904957904945E+00 a       344     0    18     1     4
 -7.1599016241534474E-01 a       345     0    18     1     5
  1.9333298760662160E+01 a       346     0    18     1     6
 -8.8340509794021660E+00 a       347     0    18     1     7
  6.9066160220000832E+00 a       348     0    18     1     8
 -1.2719830624165545E+00 a       349     0    18     1     9
 -2.9513463776930124E+00 a       350     0    18     1    10
  7.2109409007954262E-01 a       351     0    18     1    11
 -1.3658140479270167E+00 a       352     0    18     1    12
  4.4090417526776911E+01 a       353     0    18     1    13
 -2.0525631766032886E+00 a       354     0    18     1    14
  1.8363908875458990E+00 a       355     0    18     1    15
 -8.9436422524862724E-01 a       356     0    18     1    16
 -6.2005255034619964E+00 a       357     0    18     1    17
  1.5172225385044072E+01 a       358     0    18     1    18
 -2.1090880871604583E+00 a       359     0    18     1    19
  7.0517928619559225E+00 a       360     0    18     1    20
  3.2983689056681373E+00 a       361     0    19     1     1
  1.4767591876510500E+00 a       362     0    19     1     2
 -2.1015044926761597E+01 a       363     0    19     1     3
 -3.1749608994301258E+01 a       364     0    19     1     4
 -5.0410830697614664E+01 a       365     0    19     1     5
  1.3554650508223387E+01 a       366     0    19     1     6
  2.0591151891478610E+01 a       367     0    19     1     7
  4.4973781471760724E+01 a       368     0    19     1     8
 -5.6895556484919370E+00 a       369     0    19     1     9
 -9.0678298135202287E+00 a       370     0    19     1    10
  4.3734559906612400E+00 a       371     0    19     1    11
  4.1804090583827458E+00 a       372     0    19     1    12
 -2.7718257710335305E+01 a       373     0    19     1    13
  5.5794546594243188E+00 a       374     0    19     1    14
  1.6631240543369081E+00 a       375     0    19     1    15
 -3.8510769126631779E+00 a       376     0    19     1    16
 -1.9266505829498168E+00 a       377     0    19     1    17
 -2.5537917998774775E+00 a       378     0    19     1    18
 -1.3846923351837340E+01 a       379     0    19     1    19
  1.0217093860309754E+01 a       380     0    19     1    20
 -1.0471856144054442E+01 a       381     0    20     1     1
 -6.8935060417919454E+00 a       382     0    20     1     2
  2.5263734448558051E+01 a       383     0    20     1     3
 -7.0240545905807732E+00 a       384     0    20     1     4
  5.6377690565809067E+00 a       385     0    20     1     5
  3.0464432447378947E+01 a       386     0    20     1     6
 -8.7949174410062856E+00 a       387     0    20     1     7
  2.9305383972642460E+01 a       388     0    20     1     8
  8.1710043123692255E+00 a       389     0    20     1     9
 -5.2983169736291682E+00 a       390     0    20     1    10
  1.1871999063434961E+00 a       391     0    20     1    11
 -2.3459862126890627E+00 a       392     0    20     1    12
  3.3920237589123538E+01 a       393     0    20     1    13
 -3.4905766550401287E+00 a       394     0    20     1    14
 -4.4779992227059831E+00 a       395     0    20     1    15
 -1.4201786900746496E+00 a       396     0    20     1    16
  2.3417099913371651E+00 a       397     0    20     1    17
  1.0687475003400621E+01 a       398     0    20     1    18
 -2.2986415233697981E+00 a       399     0    20     1    19
  8.6669070536096235E+00 a       400     0    20     1    20
  6.5914387888064390E+00 a       401     0    21     1     1
  1.8469713415075164E+00 a       402     0    21     1     2
 -1.3943943111290009E+01 a       403     0    21     1     3
 -5.3149392076816593E+00 a       404     0    21     1     4
 -1.7211933108399720E+01 a       405     0    21     1     5
  7.7717374892271627E+00 a       406     0    21     1     6
  7.0928544611775637E+00 a       407     0    21     1     7
  1.9464186657567254E+01 a       408     0    21     1     8
 -1.7067988253492852E-01 a       409     0    21     1     9
 -2.0978713636987094E+00 a       410     0    21     1    10
  7.8161355262566523E-01 a       411     0    21     1    11
  1.2435358226740685E+00 a       412     0    21     1    12
 -1.9873524408655566E+01 a       413     0    21     1    13
  8.4552521639357945E+00 a       414     0    21     1    14
 -1.4163883266847900E+01 a       415     0    21     1    15
  5.0086089687213544E+00 a       416     0    21     1    16
 -6.5692615123132452E+00 a       417     0    21     1    17
 -1.7702878884855934E+01 a       418     0    21     1    18
 -3.9382036788839296E+00 a       419     0    21     1    19
  4.9737184309380158E+00 a       420     0    21     1    20
  3.1592776346273803E+00 a       421     0    22     1     1
 -9.9567343199822089E-01 a       422     0    22     1     2
 -1.9279301123781384E+01 a       423     0    22     1     3
  1.9398867780901728E+01 a       424     0    22     1     4
 -3.5834493741910180E+01 a       425     0    22     1     5
  3.9942647168538192E+00 a       426     0    22     1     6
  2.6520631016184932E+00 a       427     0    22     1     7
  5.7476945217407170E+01 a       428     0    22     1     8
  2.4596636767273172E+00 a       429     0    22     1     9
  4.7704353715372855E-01 a       430     0    22     1    10
 -7.0197647908831096E-01 a       431     0    22     1    11
  9.7485208536905998E-01 a       432     0    22     1    12
 -3.3601085136514378E+01 a       433     0    22     1    13
  2.1191297963533087E+00 a       434     0    22     1    14
 -6.9332506575735986E-01 a       435     0    22     1    15
 -3.9272819526241056E+00 a       436     0    22     1    16
  2.4195024707123835E+01 a       437     0    22     1    17
 -3.6610564534377914E+01 a       438     0    22     1    18
 -6.3744265691869262E-01 a       439     0    22     1    19
 -1.2663148698924648E+01 a       440     0    22     1    20
  6.5478462290319213E+00 a       441     0    23     1     1
  2.0544066801601377E+00 a       442     0    23     1     2
 -1.0417329191940970E+01 a       443     0    23     1     3
 -3.8574606838411181E+00 a       444     0    23     1     4
 -1.5106384540624392E+01 a       445     0    23     1     5
  8.7868659492022569E+00 a       446     0    23     1     6
  6.6186284947174423E+00 a       447     0    23     1     7
  2.6751192359956352E+01 a       448     0    23     1     8
 -1.5937249160943749E+00 a       449     0    23     1     9
 -1.8886685729141630E+00 a       450     0    23     1    10
  8.4295091243238340E-01 a       451     0    23     1    11
  1.6566356003070706E+00 a       452     0    23     1    12
 -2.0549415971912662E+01 a       453     0    23     1    13
  8.6186939379237693E+00 a       454     0    23     1    14
 -1.2714540338630798E+01 a       455     0    23     1    15
  5.7728115439742984E+00 a       456     0    23     1    16
 -1.9974418483901331E+00 a       457     0    23     1    17
 -1.4475034594840674E+01 a       458     0    23     1    18
 -4.2177488598339279E+00 a       459     0    23     1    19
  6.1906838461669036E+00 a       460     0    23     1    20
  1.6597840464309956E+00 a       461     0    24     1     1
  1.1290196615527235E+00 a       462     0    24     1     2
 -2.8469425111275952E+00 a       463     0    24     1     3
 -5.6470484703934041E+00 a       464     0    24     1     4
 -1.5072320031274495E+00 a       465     0    24     1     5
  2.1137279203142495E-01 a       466     0    24     1     6
  5.3967943653147179E+00 a       467     0    24     1     7
  1.2803660346452203E+01 a       468     0    24     1     8
 -6.7177021786426028E-01 a       469     0    24     1     9
 -1.0630359006742010E+00 a       470     0    24     1    10
 -4.1800849185102636E-02 a       471     0    24     1    11
  1.1434487746771618E+00 a       472     0    24     1    12
 -5.8290550764339590E+00 a       473     0    24     1    13
  4.1895274433039695E+00 a       474     0    24     1    14
 -9.7360458147467916E+00 a       475     0    24     1    15
  3.0654598357910734E+00 a       476     0    24     1    16
 -4.3927502528980886E+00 a       477     0    24     1    17
 -4.0435512056107923E+00 a       478     0    24     1    18
 -2.8437595758701377E+00 a       479     0    24     1    19
  1.2752707523002678E+00 a       480     0    24     1    20
  2.3314892288225026E+00 a       481     0    25     1     1
 -4.3507033993858402E-01 a       482     0    25     1     2
 -1.4554392472287331E+01 a       483     0    25     1     3
  2.6707768209144261E-01 a       484     0    25     1     4
 -2.3555460652000853E+01 a       485     0    25     1     5
 -5.5280180530516114E+00 a       486     0    25     1     6
  6.0330317207306843E+00 a       487     0    25     1     7
  3.3724023585283504E+01 a       488     0    25     1     8
  2.4216839230878957E+00 a       489     0    25     1     9
 -7.3080731568981247E-02 a       490     0    25     1    10
 -7.7197252072461497E-01 a       491     0    25     1    11
  1.9087177879772799E+00 a       492     0    25     1    12
 -2.7552329123033076E+01 a       493     0    25     1    13
  2.1983669888896036E+00 a       494     0    25     1    14
 -2.7241148232963024E+00 a       495     0    25     1    15
 -5.8145800907631582E+00 a       496     0    25     1    16
  8.1348453473195970E-02 a       497     0    25     1    17
 -3.0513765890849079E+01 a       498     0    25     1    18
 -8.3312873440789414E-01 a       499     0    25     1    19
 -1.0057338979922831E+01 a       500     0    25     1    20
 -1.0784677055281280E-01 a       501     0    26     1     1
  1.5880479481259077E-01 a       502     0    26     1     2
  7.2504668277112205E-01 a       503     0    26     1     3
 -2.3530233076507252E+00 a       504     0    26     1     4
  1.7690463794091884E+00 a       505     0    26     1     5
 -1.0113510167406363E+00 a       506     0    26     1     6
  1.4805680539550992E+00 a       507     0    26     1     7
  2.2898332846674863E+00 a       508     0    26     1     8
  5.8188952900990298E-01 a       509     0    26     1     9
 -3.0848417177648518E-01 a       510     0    26     1    10
 -1.4942373424046043E-01 a       511     0    26     1    11
  2.4780936962803171E-01 a       512     0    26     1    12
  4.2159212758763703E-01 a       513     0    26     1    13
  7.7078361207081647E-01 a       514     0    26     1    14
 -1.6298090491702371E+00 a       515     0    26     1    15
  3.9625416347217873E-01 a       516     0    26     1    16
 -1.2282423314670299E+00 a       517     0    26     1    17
 -1.6304296291607068E-01 a       518     0    26     1    18
 -7.8023010342176502E-01 a       519     0    26     1    19
 -1.7931208612895380E-01 a       520     0    26     1    20
  1.3395914347482640E+00 a       521     0    27     1     1
  1.7392566396893785E-01 a       522     0    27     1     2
 -8.2038196935451104E+00 a       523     0    27     1     3
 -1.8681580302981422E+00 a       524     0    27     1     4
 -8.8122784904250242E+00 a       525     0    27     1     5
 -6.7862122481399272E+00 a       526     0    27     1     6
  4.1243031209738179E+00 a       527     0    27     1     7
  1.4793298690838508E+01 a       528     0    27     1     8
  2.1530050692742217E+00 a       529     0    27     1     9
  3.0547532959360707E-01 a       530     0    27     1    10
 -4.6379895478570676E-01 a       531     0    27     1    11
  1.7062420607690418E+00 a       532     0    27     1    12
 -1.2115662452451145E+01 a       533     0    27     1    13
  1.3990154695265802E+00 a       534     0    27     1    14
 -1.9302483043696601E+00 a       535     0    27     1    15
 -3.5060311813084883E+00 a       536     0    27     1    16
 -4.9101972581351898E+00 a       537     0    27     1    17
 -1.3094529862992591E+01 a       538     0    27     1    18
  2.8526064375759674E-01 a       539     0    27     1    19
 -6.0690591470135269E+00 a       540     0    27     1    20
  1.5223496037533693E-01 a       541     0    28     1     1
  1.7443720343490007E-01 a       542     0    28     1     2
 -7.3767681335785340E-01 a       543     0    28     1     3
 -1.7421717537829060E+00 a       544     0    28     1     4
  8.9251866573130489E-01 a       545     0    28     1     5
 -2.6503243765764481E+00 a       546     0    28     1     6
  7.7597321128685726E-01 a       547     0    28     1     7
 -1.0184661051743806E+00 a       548     0    28     1     8
  5.4663791280006979E-01 a       549     0    28     1     9
  2.2166545345211930E-01 a       550     0    28     1    10
 -5.6707728447791393E-02 a       551     0    28     1    11
  4.6563630069110040E-01 a       552     0    28     1    12
  2.3331009376950512E-01 a       553     0    28     1    13
  4.4941319595029244E-01 a       554     0    28     1    14
 -1.1935574245315665E-01 a       555     0    28     1    15
 -5.9024247929130114E-01 a       556     0    28     1    16
 -4.1532122324125114E+00 a       557     0    28     1    17
  1.0647834555864125E-01 a       558     0    28     1    18
  3.3764932971123202E-01 a       559     0    28     1    19
 -1.3957850174855186E+00 a       560     0    28     1    20
 -3.5752041237075368E+01 a       561     0    29     1     1
  3.3393144029681512E+00 a       562     0    29     1     2
  1.8156123524352617E+02 a       563     0    29     1     3
  1.7097010572450665E+02 a       564     0    29     1     4
  1.4557162330330544E+02 a       565     0    29     1     5
  6.9735141286316619E+01 a       566     0    29     1     6
 -1.0796134627158649E+02 a       567     0    29     1     7
  3.5471006755640525E+02 a       568     0    29     1     8
 -5.3269356724102416E+01 a       569     0    29     1     9
  2.0662171805503320E+01 a       570     0    29     1    10
  5.4857653952934649E-01 a       571     0    29     1    11
  7.6609810657134103E+00 a       572     0    29     1    12
 -8.9580123263662244E+01 a       573     0    29     1    13
 -3.8344618508992390E+01 a       574     0    29     1    14
  1.1715310685330860E+02 a       575     0    29     1    15
  2.2408808198306811E+01 a       576     0    29     1    16
  2.7020451263124363E+02 a       577     0    29     1    17
  1.4135667914070626E+02 a       578     0    29     1    18
  2.3414081275955471E+01 a       579     0    29     1    19
  8.8669358040513842E+01 a       580     0    29     1    20
 -1.7888454712320417E+01 a       581     0    30     1     1
  7.1283986710789948E+00 a       582     0    30     1     2
  1.1330997521973062E+02 a       583     0    30     1     3
 -1.1081860379058590E+02 a       584     0    30     1     4
  2.1398964471420817E+02 a       585     0    30     1     5
 -1.9542375358563660E+01 a       586     0    30     1     6
 -1.3005269088052405E+01 a       587     0    30     1     7
 -3.1845933034860684E+02 a       588     0    30     1     8
 -9.2767763778399974E+00 a       589     0    30     1     9
 -3.1815623971587232E+00 a       590     0    30     1    10
  2.1845707467423581E+00 a       591     0    30     1    11
 -4.8532220676045439E+00 a       592     0    30     1    12
  1.9060163711706957E+02 a       593     0    30     1    13
 -1.1294377833311488E+01 a       594     0    30     1    14
  1.0926225492142587E+01 a       595     0    30     1    15
  1.9257646079171540E+01 a       596     0    30     1    16
 -1.3772284618146955E+02 a       597     0    30     1    17
  2.1124711294272743E+02 a       598     0    30     1    18
  7.0798123893038190E+00 a       599     0    30     1    19
  7.1757510373138700E+01 a       600     0    30     1    20
  9.7530956571736283E-01 a       601     0    31     1     1
 -1.4516158758909048E-01 a       602     0    31     1     2
 -5.2928203605885038E+00 a       603     0    31     1     3
 -4.0604020223420747E+00 a       604     0    31     1     4
 -3.6551602090329198E+00 a       605     0    31     1     5
 -1.7740300382919845E+00 a       606     0    31     1     6
  3.3085509315868316E+00 a       607     0    31     1     7
 -8.9726568138433240E+00 a       608     0    31     1     8
  2.2772307941638044E+00 a       609     0    31     1     9
 -4.9220392953708997E-01 a       610     0    31     1    10
  7.0149324970121317E-03 a       611     0    31     1    11
 -1.5053439911676955E-01 a       612     0    31     1    12
  1.0249849683938694E+00 a       613     0    31     1    13
  9.5411093720042184E-01 a       614     0    31     1    14
 -3.6764863225889717E+00 a       615     0    31     1    15
 -5.8268360550378406E-01 a       616     0    31     1    16
 -8.0564363072327811E+00 a       617     0    31     1    17
 -3.3548805458625881E+00 a       618     0    31     1    18
 -6.8480377386987912E-01 a       619     0    31     1    19
 -3.0892861971659902E+00 a       620     0    31     1    20
  7.2488826288334751E-01 a       621     0    32     1     1
 -2.3799060439931466E-01 a       622     0    32     1     2
 -3.8814584354861861E+00 a       623     0    32     1     3
  2.9619497547328120E+00 a       624     0    32     1     4
 -6.3678520773769742E+00 a       625     0    32     1     5
  1.3421456150545032E+00 a       626     0    32     1     6
  4.6450997158274360E-01 a       627     0    32     1     7
  1.0014713374736880E+01 a       628     0    32     1     8
 -3.3972799243247737E-01 a       629     0    32     1     9
  6.6688370345086359E-02 a       630     0    32     1    10
 -1.9921952379569940E-01 a       631     0    32     1    11
  7.1461528989592293E-02 a       632     0    32     1    12
 -5.2383745626431093E+00 a       633     0    32     1    13
  3.7491278021338176E-01 a       634     0    32     1    14
 -5.6380986962370971E-01 a       635     0    32     1    15
 -5.4292176543640958E-01 a       636     0    32     1    16
  3.9616897875656645E+00 a       637     0    32     1    17
 -7.2937091764258026E+00 a       638     0    32     1    18
 -5.6929040291459230E-03 a       639     0    32     1    19
 -1.6730282289372240E+00 a       640     0    32     1    20
  2.1708271025220292E+00 a       641     0    33     1     1
 -2.2108384119169436E-01 a       642     0    33     1     2
 -1.1262661929197124E+01 a       643     0    33     1     3
 -1.1189264619041960E+01 a       644     0    33     1     4
 -8.4276868998791876E+00 a       645     0    33     1     5
 -5.7802089763612887E+00 a       646     0    33     1     6
  5.7257554185292188E+00 a       647     0    33     1     7
 -2.5106821189586224E+01 a       648     0    33     1     8
  1.7536125623275358E+00 a       649     0    33     1     9
 -1.3653355831273777E+00 a       650     0    33     1    10
 -3.1159659275144441E-02 a       651     0    33     1    11
 -4.1031756838623273E-01 a       652     0    33     1    12
  7.7852582059216200E+00 a       653     0    33     1    13
  2.6450277374520850E+00 a       654     0    33     1    14
 -6.3033941537125449E+00 a       655     0    33     1    15
 -1.4364929810813962E+00 a       656     0    33     1    16
 -1.6217155944173751E+01 a       657     0    33     1    17
 -9.9105669238111727E+00 a       658     0    33     1    18
 -1.6012990341923250E+00 a       659     0    33     1    19
 -5.5718438551280389E+00 a       660     0    33     1    20
  9.8548836611632940E-01 a       661     0    34     1     1
 -4.8514771528469169E-01 a       662     0    34     1     2
 -6.8475892942324466E+00 a       663     0    34     1     3
  8.7726171462038707E+00 a       664     0    34     1     4
 -1.4733047623078289E+01 a       665     0    34     1     5
  7.5154682787529492E-01 a       666     0    34     1     6
 -5.8327213371222220E-01 a       667     0    34     1     7
  1.8572286167199220E+01 a       668     0    34     1     8
  9.8277394417079433E-01 a       669     0    34     1     9
  1.0291482874657078E-01 a       670     0    34     1    10
 -1.7939377971768894E-01 a       671     0    34     1    11
  2.9674725773916427E-01 a       672     0    34     1    12
 -1.3461581410003479E+01 a       673     0    34     1    13
  4.7180775526197394E-01 a       674     0    34     1    14
 -4.5091347749495869E-01 a       675     0    34     1    15
 -1.4202460336695295E+00 a       676     0    34     1    16
  9.0482454942124448E+00 a       677     0    34     1    17
 -1.2396462120405447E+01 a       678     0    34     1    18
 -3.6134514375378529E-01 a       679     0    34     1    19
 -4.9839962049045061E+00 a       680     0    34     1    20
  4.3376122903418546E+00 a       681     0    35     1     1
 -4.4040221880630764E-01 a       682     0    35     1     2
 -2.0682495137191385E+01 a       683     0    35     1     3
 -2.0594915650587403E+01 a       684     0    35     1     4
 -1.8227823931739469E+01 a       685     0    35     1     5
 -5.4587631284864235E+00 a       686     0    35     1     6
  1.4232661643329978E+01 a       687     0    35     1     7
 -3.5445642750955621E+01 a       688     0    35     1     8
  5.6747992695184877E+00 a       689     0    35     1     9
 -2.3814070991851746E+00 a       690     0    35     1    10
  1.0378085893507391E-01 a       691     0    35     1    11
 -7.1727797920264857E-01 a       692     0    35     1    12
  8.5102405616960581E+00 a       693     0    35     1    13
  4.6269434214854295E+00 a       694     0    35     1    14
 -1.3743399750568981E+01 a       695     0    35     1    15
 -2.4790696939379506E+00 a       696     0    35     1    16
 -3.1282601789200712E+01 a       697     0    35     1    17
 -1.5740988686477918E+01 a       698     0    35     1    18
 -3.2950553193734735E+00 a       699     0    35     1    19
 -1.0281397526920866E+01 a       700     0    35     1    20
  1.8806657577333232E+00 a       701     0    36     1     1
 -9.3108328615435465E-01 a       702     0    36     1     2
 -1.2887920857478102E+01 a       703     0    36     1     3
  1.1576927388560065E+01 a       704     0    36     1     4
 -2.3435243910280292E+01 a       705     0    36     1     5
  3.2189372074229325E+00 a       706     0    36     1     6
  2.1614086672272421E+00 a       707     0    36     1     7
  3.7795109321830530E+01 a       708     0    36     1     8
  1.4894180538476369E+00 a       709     0    36     1     9
  2.5372094647081328E-01 a       710     0    36     1    10
 -1.7870714280675587E-01 a       711     0    36     1    11
  4.8272926119481968E-01 a       712     0    36     1    12
 -2.0117486382902076E+01 a       713     0    36     1    13
  1.1747265330088592E+00 a       714     0    36     1    14
 -7.2850049817360707E-01 a       715     0    36     1    15
 -2.3058979323856854E+00 a       716     0    36     1    16
  1.5822681559330919E+01 a       717     0    36     1    17
 -2.4415704421584646E+01 a       718     0    36     1    18
 -3.7184440245805828E-01 a       719     0    36     1    19
 -7.2756098731924910E+00 a       720     0    36     1    20
  5.4092927184009953E+00 a       721     0    37     1     1
 -1.0626406332724325E+00 a       722     0    37     1     2
 -9.1905297153765559E+00 a       723     0    37     1     3
  5.0930525714795829E+00 a       724     0    37     1     4
 -7.8412032480970497E+00 a       725     0    37     1     5
 -1.4800265962605584E+01 a       726     0    37     1     6
 -1.2181526725182008E+00 a       727     0    37     1     7
 -6.5196644288376561E+01 a       728     0    37     1     8
  2.4779038700351503E+01 a       729     0    37     1     9
  6.0105834508648410E+00 a       730     0    37     1    10
 -4.1389867879775135E+00 a       731     0    37     1    11
 -4.1865426025527546E+00 a       732     0    37     1    12
  2.5014973567081089E+01 a       733     0    37     1    13
  6.4840989793680244E+00 a       734     0    37     1    14
 -1.9021436615623582E+01 a       735     0    37     1    15
  5.3207641713886771E+00 a       736     0    37     1    16
 -3.8398152461007854E+01 a       737     0    37     1    17
 -1.8257301938726187E+01 a       738     0    37     1    18
  5.0904492764441507E+00 a       739     0    37     1    19
 -2.4258911979442026E+01 a       740     0    37     1    20
  1.2729342089887199E+01 a       741     0    38     1     1
  3.5089939491499944E+00 a       742     0    38     1     2
 -5.0836387246909375E+01 a       743     0    38     1     3
  2.2330953534596141E+01 a       744     0    38     1     4
 -3.3042530569339540E+01 a       745     0    38     1     5
 -1.4400739745093681E+01 a       746     0    38     1     6
  1.2421815706617140E+01 a       747     0    38     1     7
  5.0393728818484739E+01 a       748     0    38     1     8
  6.5620869712849714E+00 a       749     0    38     1     9
  3.2649109307893229E+00 a       750     0    38     1    10
 -1.0478345010330476E+00 a       751     0    38     1    11
  2.0887226587779133E+00 a       752     0    38     1    12
 -8.1185670807797891E+01 a       753     0    38     1    13
  3.5981354386012803E+00 a       754     0    38     1    14
 -4.3207376260621970E+00 a       755     0    38     1    15
 -2.4300236169461433E+00 a       756     0    38     1    16
  3.1743477746939771E+01 a       757     0    38     1    17
 -5.2047149556557102E+01 a       758     0    38     1    18
  1.4852694604369814E+00 a       759     0    38     1    19
 -1.8530629566831625E+01 a       760     0    38     1    20
  2.9478180760229082E+00 a       761     0    39     1     1
 -1.3401129011552415E+00 a       762     0    39     1     2
  2.2410617858257011E+00 a       763     0    39     1     3
  1.9472689366402157E+01 a       764     0    39     1     4
  3.4145234797820891E+01 a       765     0    39     1     5
 -1.7331694135345582E+01 a       766     0    39     1     6
 -1.0527773127257774E+01 a       767     0    39     1     7
 -7.1520540460372445E+01 a       768     0    39     1     8
  1.2610796706563219E+01 a       769     0    39     1     9
  7.8307653694858619E+00 a       770     0    39     1    10
 -4.6870061782975920E+00 a       771     0    39     1    11
 -4.9278041284317471E+00 a       772     0    39     1    12
  2.9968073076700868E+01 a       773     0    39     1    13
  1.4138857954356150E+00 a       774     0    39     1    14
 -1.9714547399205827E+01 a       775     0    39     1    15
  5.8256556466063714E+00 a       776     0    39     1    16
 -2.3474343411451340E+01 a       777     0    39     1    17
 -1.7656142747249810E+01 a       778     0    39     1    18
  1.1305547366148408E+01 a       779     0    39     1    19
 -1.7143870108749898E+01 a       780     0    39     1    20
  1.5921459059902622E+01 a       781     0    40     1     1
  6.1486647160015186E+00 a       782     0    40     1     2
 -5.3387994264497124E+01 a       783     0    40     1     3
  3.2698462978089331E+01 a       784     0    40     1     4
 -4.9859346742912429E+01 a       785     0    40     1     5
 -2.8145257137537360E+01 a       786     0    40     1     6
  1.2587220266343868E+01 a       787     0    40     1     7
  3.7575714222480151E+01 a       788     0    40     1     8
 -6.4854009340321603E+00 a       789     0    40     1     9
  6.2784579051743732E+00 a       790     0    40     1    10
 -1.8853288461876778E+00 a       791     0    40     1    11
  3.6236234208021316E+00 a       792     0    40     1    12
 -8.2053398615476880E+01 a       793     0    40     1    13
  6.0723417547474492E+00 a       794     0    40     1    14
  2.8036574771032456E+00 a       795     0    40     1    15
 -2.9743763748467136E+00 a       796     0    40     1    16
  2.7593205953567146E+01 a       797     0    40     1    17
 -5.7443509720710416E+01 a       798     0    40     1    18
  1.7853415713570269E+00 a       799     0    40     1    19
 -2.4769489620114342E+01 a       800     0    40     1    20
  5.4370443869606531E+00 a       801     0    41     1     1
  3.4211833283293286E-01 a       802     0    41     1     2
 -1.3670747561089565E+01 a       803     0    41     1     3
 -8.5696340806504736E+00 a       804     0    41     1     4
 -1.2699391432963488E+01 a       805     0    41     1     5
  1.8090839140998831E+00 a       806     0    41     1     6
  7.6450928874982313E+00 a       807     0    41     1     7
 -1.0016890483014770E+01 a       808     0    41     1     8
  2.2434450048976906E+00 a       809     0    41     1     9
 -1.6474238350494479E+00 a       810     0    41     1    10
  3.5170247376067681E-01 a       811     0    41     1    11
 -1.9814000137272278E-01 a       812     0    41     1    12
 -4.4691471433368006E+00 a       813     0    41     1    13
  5.8006837856491371E+00 a       814     0    41     1    14
 -1.1788851257075470E+01 a       815     0    41     1    15
  2.3936466621703678E+00 a       816     0    41     1    16
 -1.6342398743231559E+01 a       817     0    41     1    17
 -1.5794705488173182E+01 a       818     0    41     1    18
 -2.3632319042642322E+00 a       819     0    41     1    19
 -1.7593667300524192E+00 a       820     0    41     1    20
  5.3880318688701010E+00 a       821     0    42     1     1
 -8.0572132971861410E-01 a       822     0    42     1     2
 -2.9913490003747459E+01 a       823     0    42     1     3
  2.7664401863808642E+01 a       824     0    42     1     4
 -5.2848076416128457E+01 a       825     0    42     1     5
  2.7545524342432977E+00 a       826     0    42     1     6
  4.8532124240070962E+00 a       827     0    42     1     7
  7.5696943621603580E+01 a       828     0    42     1     8
  1.9200027954981902E+00 a       829     0    42     1     9
  1.5122848780559828E+00 a       830     0    42     1    10
 -8.4855345030546747E-01 a       831     0    42     1    11
  1.5470237261349260E+00 a       832     0    42     1    12
 -4.8981848590807488E+01 a       833     0    42     1    13
  3.1496175889638218E+00 a       834     0    42     1    14
  9.7263147876822109E-02 a       835     0    42     1    15
 -4.9922682287402163E+00 a       836     0    42     1    16
  3.3179403624883804E+01 a       837     0    42     1    17
 -5.2201604253485215E+01 a       838     0    42     1    18
 -5.0782578695053260E-01 a       839     0    42     1    19
 -1.8275282336740400E+01 a       840     0    42     1    20
  1.5914737476707002E+00 a       841     0    43     1     1
  2.2773072619093315E+00 a       842     0    43     1     2
 -1.6223522703592963E+01 a       843     0    43     1     3
 -6.2031718266957403E-01 a       844     0    43     1     4
 -8.3797514261620751E+00 a       845     0    43     1     5
 -1.8295586084604685E+00 a       846     0    43     1     6
 -4.5276168881508614E+00 a       847     0    43     1     7
 -1.0526101018598487E+01 a       848     0    43     1     8
  5.6135531870764535E+00 a       849     0    43     1     9
 -9.3443795747538333E-02 a       850     0    43     1    10
 -8.8372836379332054E-01 a       851     0    43     1    11
 -6.3290097753331853E-01 a       852     0    43     1    12
 -1.3383146981886631E+01 a       853     0    43     1    13
  2.4103117538341370E+00 a       854     0    43     1    14
 -1.5127423018954669E+01 a       855     0    43     1    15
  9.7694428266148003E-01 a       856     0    43     1    16
 -2.1833984652544025E+01 a       857     0    43     1    17
 -1.9440622139400453E+01 a       858     0    43     1    18
  5.3648552802482374E-01 a       859     0    43     1    19
 -8.3118019101452001E-01 a       860     0    43     1    20
  3.2663034407545202E+00 a       861     0    44     1     1
 -9.9752113377787011E-01 a       862     0    44     1     2
 -2.1071231574169008E+01 a       863     0    44     1     3
  2.0590233481294351E+01 a       864     0    44     1     4
 -3.9039072393267915E+01 a       865     0    44     1     5
  4.3774804259705169E+00 a       866     0    44     1     6
  2.9981688181496065E+00 a       867     0    44     1     7
  6.0735899491994168E+01 a       868     0    44     1     8
  2.5253444346346434E+00 a       869     0    44     1     9
  6.8849896276896461E-01 a       870     0    44     1    10
 -5.1542636008983533E-01 a       871     0    44     1    11
  1.1063018562468039E+00 a       872     0    44     1    12
 -3.5504951427871134E+01 a       873     0    44     1    13
  2.2680104233583198E+00 a       874     0    44     1    14
 -2.8103529465699834E-01 a       875     0    44     1    15
 -4.0363674093065374E+00 a       876     0    44     1    16
  2.5546216542491383E+01 a       877     0    44     1    17
 -3.8179233864084772E+01 a       878     0    44     1    18
 -5.9909358544537983E-01 a       879     0    44     1    19
 -1.3174053964019469E+01 a       880     0    44     1    20
  2.0343300202234529E+00 a       881     0    45     1     1
 -9.9015987786307802E-01 a       882     0    45     1     2
 -1.3895854811041911E+01 a       883     0    45     1     3
  6.1256555136555679E+00 a       884     0    45     1     4
 -2.6394012888189813E+01 a       885     0    45     1     5
  7.5241680344901940E-01 a       886     0    45     1     6
  3.6113019010522369E+00 a       887     0    45     1     7
  3.8698372385880369E+01 a       888     0    45     1     8
  1.4103744473295392E+00 a       889     0    45     1     9
 -9.1586214423743179E-02 a       890     0    45     1    10
 -5.8875937914073206E-01 a       891     0    45     1    11
  1.0461311521944321E+00 a       892     0    45     1    12
 -3.0783791964766124E+01 a       893     0    45     1    13
  2.2921848916050136E+00 a       894     0    45     1    14
 -5.4397916190029250E-01 a       895     0    45     1    15
 -4.8501153128060803E+00 a       896     0    45     1    16
  1.0270611653679444E+01 a       897     0    45     1    17
 -3.1310260432918501E+01 a       898     0    45     1    18
 -1.3004018957386920E+00 a       899     0    45     1    19
 -1.1021365387001756E+01 a       900     0    45     1    20
 -3.2109978942103928E-01 a       901     0    46     1     1
 -2.8496846959776978E-01 a       902     0    46     1     2
 -6.2729463929492313E-01 a       903     0    46     1     3
  8.1481205454631433E-01 a       904     0    46     1     4
 -6.5633612474040282E-01 a       905     0    46     1     5
 -2.6236676280704345E+00 a       906     0    46     1     6
  2.7273564914618248E-01 a       907     0    46     1     7
 -8.6271606328879069E-01 a       908     0    46     1     8
 -5.9900466262352270E-01 a       909     0    46     1     9
 -3.8121676920710701E-01 a       910     0    46     1    10
  3.0662444270839234E-03 a       911     0    46     1    11
 -4.9181543639124653E-01 a       912     0    46     1    12
  1.8995914120839270E+00 a       913     0    46     1    13
 -2.8033204392101840E-02 a       914     0    46     1    14
 -3.9892338259855459E-01 a       915     0    46     1    15
  2.7574594653379036E-01 a       916     0    46     1    16
 -1.0355252360353742E+00 a       917     0    46     1    17
  5.7514289955841891E-01 a       918     0    46     1    18
  1.3124465783460507E-01 a       919     0    46     1    19
 -5.3933975046961369E-01 a       920     0    46     1    20
  1.1443697735355346E-01 a       921     0    47     1     1
 -1.5982921819568310E-01 a       922     0    47     1     2
  1.3532033788866455E+00 a       923     0    47     1     3
  1.0718094196924446E+00 a       924     0    47     1     4
  1.2648827777184046E+00 a       925     0    47     1     5
  9.2113501264375852E-01 a       926     0    47     1     6
  5.9733647638266618E-01 a       927     0    47     1     7
  3.5673051898546726E+00 a       928     0    47     1     8
  1.2234395777705731E+00 a       929     0    47     1     9
  8.3126625329655368E-01 a       930     0    47     1    10
  7.8884297692214023E-01 a       931     0    47     1    11
  9.1922557599483401E-01 a       932     0    47     1    12
 -1.8933673432689540E+00 a       933     0    47     1    13
 -4.3128158424886837E-01 a       934     0    47     1    14
  1.3726848142496353E+00 a       935     0    47     1    15
  7.2330344020094617E-01 a       936     0    47     1    16
  1.9443866458112599E-01 a       937     0    47     1    17
 -1.0174017044153028E+00 a       938     0    47     1    18
  8.5667485076569816E-01 a       939     0    47     1    19
  1.0899143381265102E+00 a       940     0    47     1    20
  3.7384200811555565E-02 a       941     0    48     1     1
 -1.1805568219472336E-01 a       942     0    48     1     2
  2.0206256171867473E-01 a       943     0    48     1     3
 -2.4517184432834521E-01 a       944     0    48     1     4
 -1.8525039829981194E-01 a       945     0    48     1     5
 -3.8374313251183451E-01 a       946     0    48     1     6
 -1.8798175669659939E-01 a       947     0    48     1     7
  2.4722562235023268E-01 a       948     0    48     1     8
  1.2731995698389600E-01 a       949     0    48     1     9
 -1.8606168051513244E-02 a       950     0    48     1    10
 -3.7951750541142359E-02 a       951     0    48     1    11
 -1.0278418192191906E-02 a       952     0    48     1    12
  5.9254729601358225E-01 a       953     0    48     1    13
  2.9594469618228458E-01 a       954     0    48     1    14
  2.9421027366777741E-01 a       955     0    48     1    15
  2.5078821359030690E-01 a       956     0    48     1    16
  5.3678648755512995E-02 a       957     0    48     1    17
  2.7124622911703750E-01 a       958     0    48     1    18
  4.9684135230775812E-02 a       959     0    48     1    19
 -3.0398277997803996E-01 a       960     0    48     1    20
 -8.5655539765939592E-01 a       961     0    49     1     1
 -6.9141844200754521E-01 a       962     0    49     1     2
 -3.2831193730991730E+00 a       963     0    49     1     3
  3.2114876811254405E+00 a       964     0    49     1     4
 -5.4568092394951497E+00 a       965     0    49     1     5
 -1.1030738668852980E+00 a       966     0    49     1     6
 -1.7030091111284000E+00 a       967     0    49     1     7
 -3.0185581256487199E+00 a       968     0    49     1     8
  2.5484145129300813E+00 a       969     0    49     1     9
  1.3284553435252169E+00 a       970     0    49     1    10
  8.8709954308746430E-01 a       971     0    49     1    11
  3.3136812692472717E-01 a       972     0    49     1    12
 -1.4858374962236816E+00 a       973     0    49     1    13
 -1.2702111527992153E+00 a       974     0    49     1    14
 -2.0355270889917305E+00 a       975     0    49     1    15
 -1.2453049068576401E-01 a       976     0    49     1    16
  3.3216210199501650E+00 a       977     0    49     1    17
 -7.9935885189820999E-01 a       978     0    49     1    18
  5.2860347491526549E-01 a       979     0    49     1    19
  2.1562992550401239E+00 a       980     0    49     1    20
  2.2270789844595873E+00 a       981     0    50     1     1
  9.7008570874009781E-01 a       982     0    50     1     2
  2.1376461634812012E+00 a       983     0    50     1     3
  2.9729033288337914E+00 a       984     0    50     1     4
  5.4020313180665083E+00 a       985     0    50     1     5
  2.7915325359685905E+00 a       986     0    50     1     6
  4.9177727344257125E+00 a       987     0    50     1     7
  1.7370223660957432E+01 a       988     0    50     1     8
  1.6827142492240448E+00 a       989     0    50     1     9
 -3.6294199211689242E+00 a       990     0    50     1    10
  1.6912764048280176E+00 a       991     0    50     1    11
  1.1339993638357631E+00 a       992     0    50     1    12
 -6.7075784674810528E+00 a       993     0    50     1    13
 -1.7775974037576256E+00 a       994     0    50     1    14
  4.0658439684534056E+00 a       995     0    50     1    15
 -3.4922339284811593E-01 a       996     0    50     1    16
 -2.4516639589988021E+00 a       997     0    50     1    17
  4.3948208879207087E+00 a       998     0    50     1    18
 -1.7176350807960925E+00 a       999     0    50     1    19
 -2.3582514252890063E+00 a      1000     0    50     1    20
  5.9448216766060191E-01 a      1001     0    51     1     1
 -1.1426055492530776E+00 a      1002     0    51     1     2
  4.2771164941924250E-01 a      1003     0    51     1     3
 -1.2661989558943079E+00 a      1004     0    51     1     4
 -8.0140973317538489E-01 a      1005     0    51     1     5
  3.7255624223019792E+00 a      1006     0    51     1     6
 -6.7177846327585766E-01 a      1007     0    51     1     7
 -6.7263124076278080E+00 a      1008     0    51     1     8
  1.0652710042502294E+00 a      1009     0    51     1     9
  9.2521380907680462E-01 a      1010     0    51     1    10
 -1.6511649193719609E+00 a      1011     0    51     1    11
 -2.3384547174675521E+00 a      1012     0    51     1    12
  2.9265775358426055E-01 a      1013     0    51     1    13
  5.5540287779353303E-01 a      1014     0    51     1    14
  1.0294450218119626E+00 a      1015     0    51     1    15
  1.6492443766099281E+00 a      1016     0    51     1    16
  9.1535027774653044E-01 a      1017     0    51     1    17
 -1.8084148867021219E+00 a      1018     0    51     1    18
  4.5887334607707814E-01 a      1019     0    51     1    19
  1.1220982881854631E+00 a      1020     0    51     1    20
  2.2657652972682256E+00 a      1021     0    52     1     1
  7.7987629211500342E-01 a      1022     0    52     1     2
  7.7216819323405899E+00 a      1023     0    52     1     3
 -1.4139606100528801E+00 a      1024     0    52     1     4
  1.0528979295432142E+01 a      1025     0    52     1     5
  1.8365480572026826E+01 a      1026     0    52     1     6
  6.6010466605901930E-01 a      1027     0    52     1     7
  3.2048826378756141E+00 a      1028     0    52     1     8
 -4.7405940497076831E+00 a      1029     0    52     1     9
 -1.1278646603618649E+00 a      1030     0    52     1    10
 -3.2572964622739158E+00 a      1031     0    52     1    11
 -5.8498330830894374E-01 a      1032     0    52     1    12
 -8.3525758550486540E+00 a      1033     0    52     1    13
  3.9548397639265410E-02 a      1034     0    52     1    14
  3.4659861036554833E+00 a      1035     0    52     1    15
 -1.4059885664122407E+00 a      1036     0    52     1    16
 -1.7884029913727177E+00 a      1037     0    52     1    17
  1.5104264311704305E+00 a      1038     0    52     1    18
  4.7039127512933210E-01 a      1039     0    52     1    19
 -1.1938145413948897E+00 a      1040     0    52     1    20
 -5.8762295099523758E+00 a      1041     0    53     1     1
 -3.3667347418616966E-01 a      1042     0    53     1     2
 -1.2848392927341374E+01 a      1043     0    53     1     3
 -7.5783716795212035E+00 a      1044     0    53     1     4
 -1.3239312560822908E+01 a      1045     0    53     1     5
 -4.9827760202420270E+00 a      1046     0    53     1     6
 -1.0154016508648665E+01 a      1047     0    53     1     7
 -3.4127288302974833E+01 a      1048     0    53     1     8
 -2.9581930965044916E+00 a      1049     0    53     1     9
  9.0204451209997210E+00 a      1050     0    53     1    10
  3.1043251956745546E+00 a      1051     0    53     1    11
  3.0968259318567708E+00 a      1052     0    53     1    12
  1.9505652600347148E+01 a      1053     0    53     1    13
  5.7804495583111859E-01 a      1054     0    53     1    14
 -6.3228679827871206E+00 a      1055     0    53     1    15
 -5.4942384193696956E+00 a      1056     0    53     1    16
  1.2416423878548477E+01 a      1057     0    53     1    17
 -6.9569164922420459E+00 a      1058     0    53     1    18
  2.2692446489943116E-01 a      1059     0    53     1    19
  7.3420705853350876E+00 a      1060     0    53     1    20
 -3.6011289844040378E-01 a      1061     0    54     1     1
  8.7817761432040864E-01 a      1062     0    54     1     2
 -8.4461769275247012E-02 a      1063     0    54     1     3
  4.2109628714873830E+00 a      1064     0    54     1     4
  9.0893623501436593E-01 a      1065     0    54     1     5
 -3.4932435084918780E+00 a      1066     0    54     1     6
 -1.8775314691260905E-01 a      1067     0    54     1     7
 -1.7420092777818437E+00 a      1068     0    54     1     8
 -2.7998911377368465E+00 a      1069     0    54     1     9
 -3.3701906936964787E-01 a      1070     0    54     1    10
 -4.4541689713055288E-01 a      1071     0    54     1    11
 -5.9164749098209068E-02 a      1072     0    54     1    12
 -2.7005940432920421E+00 a      1073     0    54     1    13
 -1.6936732972832329E+00 a      1074     0    54     1    14
 -2.6183976450292619E+00 a      1075     0    54     1    15
 -2.0125514751789795E+00 a      1076     0    54     1    16
 -6.9510369091581914E-01 a      1077     0    54     1    17
  2.3963497136129965E+00 a      1078     0    54     1    18
 -2.9237202716570109E-02 a      1079     0    54     1    19
 -3.1265136935609228E-01 a      1080     0    54     1    20
 -2.8864983063934846E-01 a      1081     0    55     1     1
  1.3314076698086999E-01 a      1082     0    55     1     2
  9.9228739642892486E-02 a      1083     0    55     1     3
 -1.1187303081082223E-02 a      1084     0    55     1     4
  4.5696157154014139E-01 a      1085     0    55     1     5
 -5.4526814135219648E-01 a      1086     0    55     1     6
 -5.3294575834420133E-01 a      1087     0    55     1     7
  1.6515870554938980E-01 a      1088     0    55     1     8
 -2.6738293072858438E-01 a      1089     0    55     1     9
  1.2887007043422108E-01 a      1090     0    55     1    10
  3.1108934338097072E-01 a      1091     0    55     1    11
  4.0988938392577051E-01 a      1092     0    55     1    12
  3.8895121074273536E-01 a      1093     0    55     1    13
 -2.5470471385104254E-01 a      1094     0    55     1    14
 -7.7310771036688997E-01 a      1095     0    55     1    15
 -5.0143327143494336E-03 a      1096     0    55     1    16
 -8.3737368268876300E-01 a      1097     0    55     1    17
 -8.2317524168317044E-02 a      1098     0    55     1    18
  9.0902697978716515E-02 a      1099     0    55     1    19
 -5.3405445438912647E-01 a      1100     0    55     1    20
  3.3936144069123180E+00 a      1101     0    56     1     1
 -1.1004126071824163E+00 a      1102     0    56     1     2
  6.8713630846603904E+00 a      1103     0    56     1     3
 -5.4242221129684545E+00 a      1104     0    56     1     4
  2.9612496970333861E+00 a      1105     0    56     1     5
  3.0984986087966844E+00 a      1106     0    56     1     6
  4.4495749060485652E+00 a      1107     0    56     1     7
  1.1762452411972721E+01 a      1108     0    56     1     8
 -2.3248489611237604E+00 a      1109     0    56     1     9
 -9.5428534497411324E+00 a      1110     0    56     1    10
 -1.0445541951577841E+00 a      1111     0    56     1    11
 -2.9442474634046736E+00 a      1112     0    56     1    12
 -6.7553643571087845E+00 a      1113     0    56     1    13
  8.1207900072512451E-01 a      1114     0    56     1    14
 -3.5312362099007895E+00 a      1115     0    56     1    15
  8.9878226270662296E+00 a      1116     0    56     1    16
 -7.7190799079064751E+00 a      1117     0    56     1    17
  2.4152182893209320E+00 a      1118     0    56     1    18
 -2.0673299407053642E+00 a      1119     0    56     1    19
 -8.1654585872017353E+00 a      1120     0    56     1    20
 -4.5060613638646933E-02 a      1121     0    57     1     1
  4.8849846014555540E-02 a      1122     0    57     1     2
  1.0926745237935305E-01 a      1123     0    57     1     3
 -5.1438661435832189E-01 a      1124     0    57     1     4
  1.8450725344254154E-01 a      1125     0    57     1     5
 -1.5634939884258170E-01 a      1126     0    57     1     6
  2.4197251374657636E-01 a      1127     0    57     1     7
 -5.5072820259471758E-02 a      1128     0    57     1     8
 -2.8692361430954416E-01 a      1129     0    57     1     9
  4.7457600310635020E-02 a      1130     0    57     1    10
 -1.0822556395791595E-01 a      1131     0    57     1    11
 -1.1771541294964716E-01 a      1132     0    57     1    12
  6.3055931900179260E-02 a      1133     0    57     1    13
  5.9865634105418647E-02 a      1134     0    57     1    14
  5.1476093864408108E-02 a      1135     0    57     1    15
 -8.2963076469030228E-02 a      1136     0    57     1    16
 -2.1231974464558784E-01 a      1137     0    57     1    17
  1.7611528036795006E-02 a      1138     0    57     1    18
  1.2844014248813163E-01 a      1139     0    57     1    19
  2.9478744226532622E-01 a      1140     0    57     1    20
  1.2203768870741552E-01 a      1141     0    58     1     1
 -2.2833962287919049E-02 a      1142     0    58     1     2
 -7.5443558029532676E-02 a      1143     0    58     1     3
 -1.5787448848191421E-01 a      1144     0    58     1     4
 -1.5016833341232758E-01 a      1145     0    58     1     5
  1.7504001020213411E-01 a      1146     0    58     1     6
 -9.2873340761254322E-02 a      1147     0    58     1     7
  4.4847752672935094E-02 a      1148     0    58     1     8
  9.9262469454476851E-02 a      1149     0    58     1     9
 -8.3108755709718415E-02 a      1150     0    58     1    10
 -1.0764069065807846E-02 a      1151     0    58     1    11
 -3.5613169124250742E-02 a      1152     0    58     1    12
  1.6183992092499916E-01 a      1153     0    58     1    13
  5.4159574349418989E-02 a      1154     0    58     1    14
  3.3804368770088067E-01 a      1155     0    58     1    15
  1.6590660066965666E-02 a      1156     0    58     1    16
  1.7761817885133441E-01 a      1157     0    58     1    17
 -3.3760404004654970E-01 a      1158     0    58     1    18
  4.6647207918333461E-03 a      1159     0    58     1    19
  1.1225729556004059E-01 a      1160     0    58     1    20
 -4.1900706131147747E-01 a      1161     0    59     1     1
  3.7442665818196319E-01 a      1162     0    59     1     2
 -3.7590244690617238E+00 a      1163     0    59     1     3
 -1.6775798941189765E-01 a      1164     0    59     1     4
 -1.2652578053205823E+00 a      1165     0    59     1     5
 -8.5902067546828285E+00 a      1166     0    59     1     6
  6.9414857958052945E-01 a      1167     0    59     1     7
  6.4900099216558083E-01 a      1168     0    59     1     8
  2.1002004039075337E+00 a      1169     0    59     1     9
  8.9283422204962004E-01 a      1170     0    59     1    10
  3.2815106880560158E-01 a      1171     0    59     1    11
  4.0261868653012028E-01 a      1172     0    59     1    12
  1.9307803097096456E+00 a      1173     0    59     1    13
  2.5028598600419005E-01 a      1174     0    59     1    14
  1.1358951336819556E+00 a      1175     0    59     1    15
 -1.5210089137722366E-01 a      1176     0    59     1    16
  1.4292055365420802E+00 a      1177     0    59     1    17
 -9.4331192607561987E-01 a      1178     0    59     1    18
  9.6202215071947886E-02 a      1179     0    59     1    19
 -1.6812349285816204E+00 a      1180     0    59     1    20
 -5.4218236035713097E-01 a      1181     0    60     1     1
  4.0659543889918826E-01 a      1182     0    60     1     2
  3.5771768361635531E-01 a      1183     0    60     1     3
  1.6581245722207409E+00 a      1184     0    60     1     4
  1.5555258513684784E+00 a      1185     0    60     1     5
 -2.4067758963366215E+00 a      1186     0    60     1     6
  2.7872247732845973E-01 a      1187     0    60     1     7
  2.2301223833687249E+00 a      1188     0    60     1     8
  2.3370669217675775E+00 a      1189     0    60     1     9
  1.5775413540766363E+00 a      1190     0    60     1    10
  4.3710546178584092E-01 a      1191     0    60     1    11
  8.2394745754171961E-01 a      1192     0    60     1    12
 -4.0227392444451060E-02 a      1193     0    60     1    13
  2.0396091685515350E+00 a      1194     0    60     1    14
  6.4457979875192906E-01 a      1195     0    60     1    15
 -1.5936050098578303E+00 a      1196     0    60     1    16
 -8.2425376177116982E-01 a      1197     0    60     1    17
 -1.1757653310603335E+00 a      1198     0    60     1    18
  9.7434196180095611E-01 a      1199     0    60     1    19
  1.1849807530848522E+00 a      1200     0    60     1    20
  2.1330826335979047E-01 a      1201     0    61     1     1
 -5.3005805661364098E-02 a      1202     0    61     1     2
 -3.4789861698751923E-02 a      1203     0    61     1     3
 -6.7339732037598621E-01 a      1204     0    61     1     4
 -2.7479607055091354E-01 a      1205     0    61     1     5
 -6.5652115487987639E-01 a      1206     0    61     1     6
  3.3629023662223878E-01 a      1207     0    61     1     7
  8.3681512839176286E-01 a      1208     0    61     1     8
  9.4468089392148691E-01 a      1209     0    61     1     9
  1.3345075860429334E-01 a      1210     0    61     1    10
  3.4811167631564832E-02 a      1211     0    61     1    11
 -3.5571100978353504E-02 a      1212     0    61     1    12
  1.0268725131219965E+00 a      1213     0    61     1    13
  1.1239762502430677E-01 a      1214     0    61     1    14
  3.1686845073833531E-01 a      1215     0    61     1    15
  1.5542757221502074E-01 a      1216     0    61     1    16
 -6.1508981891109393E-01 a      1217     0    61     1    17
  2.9305340173324235E-01 a      1218     0    61     1    18
 -5.3796142163019124E-02 a      1219     0    61     1    19
  1.2680318642105129E-01 a      1220     0    61     1    20
  2.3851824754866600E-02 b      1221     1     1
 -1.3780846503567588E+00 b      1222     1     2
 -1.3851624182590891E+00 b      1223     1     3
 -1.5554390367385205E+00 b      1224     1     4
 -1.7337266295135993E+00 b      1225     1     5
 -5.3369848461971592E-01 b      1226     1     6
  9.5082858327289155E-01 b      1227     1     7
  2.6104908436804251E+00 b      1228     1     8
  1.3297519175166990E+00 b      1229     1     9
  6.3116848964678451E-02 b      1230     1    10
 -1.9941855874232923E+00 b      1231     1    11
  1.2049963764861292E-01 b      1232     1    12
  4.0800860289864588E-01 b      1233     1    13
 -1.2554797884826518E+00 b      1234     1    14
 -1.0942645764190375E+00 b      1235     1    15
  7.0308482162537611E-01 b      1236     1    16
 -9.8573978844672461E-01 b      1237     1    17
  1.3426455166178199E+00 b      1238     1    18
  1.6455063216373111E+00 b      1239     1    19
 -1.3588178245912570E+00 b      1240     1    20
  5.4218627023692023E-01 a      1241     1     1     2     1
 -4.1450995307957905E-01 a      1242     1     1     2     2
 -5.6858356647866748E-01 a      1243     1     1     2     3
 -2.9984439681526703E-01 a      1244     1     1     2     4
  3.6384812729162669E-01 a      1245     1     1     2     5
  2.3077325696328937E-01 a      1246     1     1     2     6
 -5.4246560986732717E-01 a      1247     1     1     2     7
  2.1963615622161645E-01 a      1248     1     1     2     8
 -3.5709348637511601E-01 a      1249     1     1     2     9
 -8.8426096419945432E-01 a      1250     1     1     2    10
  1.6412235342368779E+00 a      1251     1     2     2     1
  1.0822282019112903E+00 a      1252     1     2     2     2
 -5.4406438145598790E-01 a      1253     1     2     2     3
  2.2924162370189569E-01 a      1254     1     2     2     4
 -5.9621445222505731E-01 a      1255     1     2     2     5
  3.2610051098865087E+00 a      1256     1     2     2     6
  2.1178262707938228E-01 a      1257     1     2     2     7
 -1.7765421278919959E+00 a      1258     1     2     2     8
 -6.6774086333134330E-01 a      1259     1     2     2     9
  1.1156515040681731E+00 a      1260     1     2     2    10
  1.0446136405944286E+00 a      1261     1     3     2     1
  7.5653124353978599E-02 a      1262     1     3     2     2
 -4.1779949155095586E-01 a      1263     1     3     2     3
 -7.5455557492609474E-02 a      1264     1     3     2     4
  1.3140386880175820E-02 a      1265     1     3     2     5
 -3.4974312110830157E+00 a      1266     1     3     2     6
 -3.2101908871795287E-01 a      1267     1     3     2     7
  5.4233716196038069E-02 a      1268     1     3     2     8
  3.8874540012181949E-02 a      1269     1     3     2     9
 -2.8745573160752955E+00 a      1270     1     3     2    10
 -2.0481706558323437E-01 a      1271     1     4     2     1
  1.1847593710936508E-01 a      1272     1     4     2     2
  9.5659024055813072E-02 a      1273     1     4     2     3
  4.5442260911424219E-02 a      1274     1     4     2     4
 -1.8866123764926637E-01 a      1275     1     4     2     5
 -1.4671037980418975E+00 a      1276     1     4     2     6
  8.9237386668798560E-02 a      1277     1     4     2     7
 -2.6188470788534389E-02 a      1278     1     4     2     8
 -6.5623139171030465E-02 a      1279     1     4     2     9
 -1.3092080260914210E-01 a      1280     1     4     2    10
  5.0613886381117834E-01 a      1281     1     5     2     1
 -2.4257274548523795E-02 a      1282     1     5     2     2
  5.8319507037937826E-02 a      1283     1     5     2     3
 -8.9915180935438946E-02 a      1284     1     5     2     4
 -3.4747724344708165E-02 a      1285     1     5     2     5
 -3.0938318123966453E+00 a      1286     1     5     2     6
 -1.5038979411029219E-01 a      1287     1     5     2     7
  2.3360359960287399E-02 a      1288     1     5     2     8
 -6.6095452001312546E-02 a      1289     1     5     2     9
  2.7741182951073168E-01 a      1290     1     5     2    10
  4.3599512290486925E-01 a      1291     1     6     2     1
  4.2167425684494615E-02 a      1292     1     6     2     2
 -8.3829839254116234E-01 a      1293     1     6     2     3
 -4.5493164286712205E-02 a      1294     1     6     2     4
 -2.3130448183018293E-01 a      1295     1     6     2     5
 -2.4254140746813482E+00 a      1296     1     6     2     6
  8.7644967995496495E-02 a      1297     1     6     2     7
 -1.4774639567860716E-02 a      1298     1     6     2     8
  7.8614461879178057E-03 a      1299     1     6     2     9
  1.1293391606593944E-01 a      1300     1     6     2    10
 -4.5652088886081427E-01 a      1301     1     7     2     1
  6.3302144129822775E-03 a      1302     1     7     2     2
  3.7229017591188979E-01 a      1303     1     7     2     3
  5.4085426245352106E-02 a      1304     1     7     2     4
 -3.5110888962784376E-01 a      1305     1     7     2     5
 -1.4585445726618009E+00 a      1306     1     7     2     6
 -2.0687455360288232E-01 a      1307     1     7     2     7
 -2.8659912553059386E-02 a      1308     1     7     2     8
 -1.2345780468332215E-01 a      1309     1     7     2     9
 -3.0827444932396630E-01 a      1310     1     7     2    10
 -5.1392987106500576E-01 a      1311     1     8     2     1
  6.8200177179393945E-02 a      1312     1     8     2     2
 -4.3711197125095247E-01 a      1313     1     8     2     3
 -3.2938607151712138E-02 a      1314     1     8     2     4
 -1.1732246229542741E-01 a      1315     1     8     2     5
  3.2834412961850035E+00 a      1316     1     8     2     6
  2.8839980986308000E-01 a      1317     1     8     2     7
 -3.4385638156412685E-02 a      1318     1     8     2     8
  1.3452125989043892E-01 a      1319     1     8     2     9
 -6.3509598260602027E-02 a      1320     1     8     2    10
  3.4971123917995761E-01 a      1321     1     9     2     1
 -1.0672142370111289E-01 a      1322     1     9     2     2
 -2.2156469601459028E-01 a      1323     1     9     2     3
  1.1820018823366087E-02 a      1324     1     9     2     4
  4.6152286457795941E-02 a      1325     1     9     2     5
 -2.1573912930086308E+00 a      1326     1     9     2     6
 -1.4759521800790337E-01 a      1327     1     9     2     7
 -2.1375499524409975E-03 a      1328     1     9     2     8
 -4.5819495267360268E-02 a      1329     1     9     2     9
 -5.5596487654717124E-03 a      1330     1     9     2    10
 -2.8051044928087632E-02 a      1331     1    10     2     1
  3.1986499472210767E-01 a      1332     1    10     2     2
  7.4140991376019105E-01 a      1333     1    10     2     3
 -4.7538720394301393E-01 a      1334     1    10     2     4
  2.6541694894958640E-01 a      1335     1    10     2     5
 -2.5612671771310525E-01 a      1336     1    10     2     6
  5.3426949129220414E-01 a      1337     1    10     2     7
 -2.5975655739633408E-01 a      1338     1    10     2     8
  3.6421846031347620E-02 a      1339     1    10     2     9
  5.4340979368929176E-01 a      1340     1    10     2    10
 -1.1060496305769205E+00 a      1341     1    11     2     1
  1.1271364707942575E+00 a      1342     1    11     2     2
  1.5749339551305910E+00 a      1343     1    11     2     3
  1.3317010450906708E-01 a      1344     1    11     2     4
 -1.5000816150328022E-01 a      1345     1    11     2     5
  2.0322974748439071E-01 a      1346     1    11     2     6
 -3.0060149267124809E+00 a      1347     1    11     2     7
 -1.5214207624664411E+00 a      1348     1    11     2     8
 -1.3718514652969402E+00 a      1349     1    11     2     9
  4.7950872665170302E-01 a      1350     1    11     2    10
  1.8971186331812992E-01 a      1351     1    12     2     1
  1.2668818805285048E-01 a      1352     1    12     2     2
 -3.3691014182750872E-01 a      1353     1    12     2     3
 -9.3036666533987500E-01 a      1354     1    12     2     4
  1.9056169805833748E-01 a      1355     1    12     2     5
  4.7296257053531626E-01 a      1356     1    12     2     6
 -2.4692823226322791E-01 a      1357     1    12     2     7
 -3.1743802191765835E-01 a      1358     1    12     2     8
 -9.7322486854689305E-02 a      1359     1    12     2     9
  1.7401173365142278E-01 a      1360     1    12     2    10
 -2.4261659647484468E-01 a      1361     1    13     2     1
 -9.4192461013462542E-02 a      1362     1    13     2     2
  3.0316582898893446E-01 a      1363     1    13     2     3
  4.9969121769121730E-02 a      1364     1    13     2     4
  1.0620997381243709E-01 a      1365     1    13     2     5
  2.0967786383669846E+00 a      1366     1    13     2     6
 -1.8220395804655853E-02 a      1367     1    13     2     7
  1.6539737122759765E-03 a      1368     1    13     2     8
 -1.8112749732784250E-01 a      1369     1    13     2     9
 -9.0623881559907041E-02 a      1370     1    13     2    10
 -8.8945043163928317E-01 a      1371     1    14     2     1
  2.0571476288071505E-01 a      1372     1    14     2     2
 -7.3983590237496386E-02 a      1373     1    14     2     3
 -1.3993384679111848E-02 a      1374     1    14     2     4
  2.7254686351487589E-01 a      1375     1    14     2     5
 -3.5961492681687568E-01 a      1376     1    14     2     6
 -5.1088586845315864E-02 a      1377     1    14     2     7
 -1.9507894552530741E-01 a      1378     1    14     2     8
  1.0669460530970416E-01 a      1379     1    14     2     9
  1.3332682639510626E-01 a      1380     1    14     2    10
 -9.9332929774332557E-02 a      1381     1    15     2     1
 -7.4672341188297991E-02 a      1382     1    15     2     2
  2.3795002828450915E-02 a      1383     1    15     2     3
  4.0924159067397346E-02 a      1384     1    15     2     4
 -1.6237169153983047E-01 a      1385     1    15     2     5
 -1.7056068106370799E+00 a      1386     1    15     2     6
 -3.1965427985667901E-03 a      1387     1    15     2     7
 -3.7281741563541970E-02 a      1388     1    15     2     8
 -2.4366075908562956E-01 a      1389     1    15     2     9
  3.2090335511176189E-02 a      1390     1    15     2    10
 -6.4443036626063344E-01 a      1391     1    16     2     1
 -3.5102006075072112E-01 a      1392     1    16     2     2
 -5.7467136137759486E-02 a      1393     1    16     2     3
  7.4183154515400848E-03 a      1394     1    16     2     4
 -3.0855641996213334E-01 a      1395     1    16     2     5
 -6.1707966606381193E-01 a      1396     1    16     2     6
 -3.5005655664213181E-02 a      1397     1    16     2     7
  3.1757836483143181E-01 a      1398     1    16     2     8
 -1.9408993180352554E-01 a      1399     1    16     2     9
 -3.0014814507207796E-03 a      1400     1    16     2    10
 -1.4983665524425999E-01 a      1401     1    17     2     1
 -5.2878558020659182E-02 a      1402     1    17     2     2
  2.4562289690335334E-01 a      1403     1    17     2     3
 -2.1689209002858936E-02 a      1404     1    17     2     4
  9.2451487002879501E-02 a      1405     1    17     2     5
  2.7924262401387256E+00 a      1406     1    17     2     6
 -1.5549106012818031E-01 a      1407     1    17     2     7
  3.1140223150410967E-02 a      1408     1    17     2     8
  2.6678963083282128E-02 a      1409     1    17     2     9
  2.9592633729408714E-02 a      1410     1    17     2    10
  2.1469504939083547E-01 a      1411     1    18     2     1
  6.0168488776017937E-02 a      1412     1    18     2     2
 -3.0401495162373693E-01 a      1413     1    18     2     3
  4.2893684222472223E-02 a      1414     1    18     2     4
 -2.3054566305645799E-02 a      1415     1    18     2     5
  2.5338362123806566E+00 a      1416     1    18     2     6
 -1.3944971677871712E-01 a      1417     1    18     2     7
 -1.8393829459412425E-03 a      1418     1    18     2     8
  1.6693300442767145E-01 a      1419     1    18     2     9
  3.9483044245251266E-02 a      1420     1    18     2    10
  1.5150341654765465E-01 a      1421     1    19     2     1
  6.0034622814320049E-01 a      1422     1    19     2     2
 -5.7382926424505631E-01 a      1423     1    19     2     3
 -3.4300898166255267E-01 a      1424     1    19     2     4
 -6.2050271884270591E-01 a      1425     1    19     2     5
 -8.0824279291464018E-01 a      1426     1    19     2     6
  2.5319090134472350E-01 a      1427     1    19     2     7
 -2.4932006897097519E-01 a      1428     1    19     2     8
 -1.5342444839789913E+00 a      1429     1    19     2     9
 -8.7245540474558148E-01 a      1430     1    19     2    10
  3.9237234232445829E-02 a      1431     1    20     2     1
 -2.1293965638016366E-01 a      1432     1    20     2     2
 -2.3105467609486680E-01 a      1433     1    20     2     3
  2.2312284539414945E-01 a      1434     1    20     2     4
 -7.4585990155084297E-02 a      1435     1    20     2     5
  2.3835534957691222E+00 a      1436     1    20     2     6
  5.1817857729578649E-02 a      1437     1    20     2     7
  9.0385512266518531E-02 a      1438     1    20     2     8
 -3.0479113553403325E-01 a      1439     1    20     2     9
 -2.8038055405804993E-02 a      1440     1    20     2    10
  1.3569401773346226E+00 b      1441     2     1
  9.8234800018505675E-01 b      1442     2     2
  1.0956257399993208E+00 b      1443     2     3
  2.8241582723389098E+00 b      1444     2     4
 -1.8472198441599608E-01 b      1445     2     5
 -1.3001198790467594E+00 b      1446     2     6
 -3.8082207034175175E+00 b      1447     2     7
 -4.0143917571347636E+00 b      1448     2     8
  3.7518460253886576E-01 b      1449     2     9
 -2.2387564589263707E+00 b      1450     2    10
 -2.7173443286127191E-01 a      1451     2     1     3     1
  2.1929635649051287E+00 a      1452     2     2     3     1
 -2.9573445668182491E-01 a      1453     2     3     3     1
 -6.7872219596708208E+00 a      1454     2     4     3     1
  8.4799816867747746E-01 a      1455     2     5     3     1
 -1.5391311492905821E+00 a      1456     2     6     3     1
 -9.3647935085248224E-01 a      1457     2     7     3     1
 -4.4294932172631141E+00 a      1458     2     8     3     1
 -1.8090779992556536E+00 a      1459     2     9     3     1
 -9.9092219483443134E-01 a      1460     2    10     3     1
  3.4713345784497092E+00 b      1461     3     1
