     -2.7067012389
      0.2410455464
      5.2773798530
     -0.5464326204
      1.6434213736
     -5.6017940293
      0.7782490374
      0.2824326812
      2.1928401451
      1.0246233443
      0.5027111030
     -3.4647641873
      1.3353261533
      6.4548612523
      4.5450745297
     -1.6224144241
      3.7055330800
     -4.9344770826
     12.4078614660
     -3.8358606766
     -1.8961924096
     -1.0802304200
      4.2699562053
      4.2674883256
      1.1268722091
      2.4603151391
      4.5825805520
     -0.2330654385
      1.3651321610
     -3.9033035845
      0.4674975896
      4.3618271470
     15.4354507096
     11.2080885691
     19.5606016646
      4.9466503474
     -3.4420569944
     -4.0748912460
     -1.1638981425
     -0.3131110453
     -3.4760228204
     -0.5930000075
      3.9370125486
      6.7529170622
      1.0896428764
      7.2494252380
      5.3009927339
     -0.3228732903
      4.6522086240
     -0.2817754182
     -2.5649485912
     -7.6578712643
    -10.1346229431
     -5.0852414424
     -8.5334702401
     -4.1944452898
     -2.1894085615
     -3.1456662321
      5.6846490679
      0.8346773156
     -1.5740567267
     -0.6350951383
      0.7920093647
      4.5962667502
      2.0228798821
      2.8555260189
      0.1802746335
     -0.1598448929
      0.4412908133
     -0.9418122363
     -1.3269510655
     -1.1390434176
      4.7259218317
      2.8417877731
      5.8068673990
      0.5965350735
     -2.5895060869
     -6.0870703127
      1.0237526023
     -0.1242048138
     -0.3302019794
     -0.6518183510
     -4.2067423508
      2.2162630348
      1.0519899206
      3.4762506385
     -2.0626253724
     -0.0552973943
     -4.4536048181
      1.0193886236
     -2.2407658565
      0.6543149696
     -3.5710252614
      0.6464730232
     -4.0167083798
     -1.7186667235
     -2.2946711400
      3.8921106860
      3.9340344192
      3.7412522478
      1.5388489143
      1.3368874674
      2.4191128700
      0.0235131451
     -1.3956248730
      0.6542784631
      1.1003199093
      0.6752747757
      0.2399378883
     -0.4345832375
      0.2732917767
      0.5483464936
     -1.0639432038
      0.8404181773
      2.3096097490
      1.3054295853
     -2.1958438290
      0.3089724342
     -0.3873937081
      0.4893836394
      1.3334587545
     -2.3744221977
      6.3562284177
      2.0395632572
     -0.8990419052
      0.8911419805
      6.3053597793
     -0.2507400961
      2.2362676797
     -2.6220895262
      3.0366886325
     -4.7997068532
      4.1691659785
      4.4303903360
      2.6737640160
      0.3390220406
      0.3920446512
     -4.6673162017
      4.0651718750
     -0.6082528327
     -0.3677662649
      1.2034389888
     -2.1428633602
     -3.0002527045
     -0.2421824428
     -0.9772001285
     -0.3404879563
      0.0476630158
     -1.3164896080
     -0.4930304977
     -1.9430815482
      1.3438791976
      1.4369492241
      1.1418057613
      0.0424994476
     -1.2076343127
      1.3663290401
      4.3153229731
     -0.7178316699
     -2.2028470606
      1.8092692416
     -2.8634250357
      5.2395017196
      0.5932001456
     -0.7300944940
     -2.8936295210
      2.0003922193
     -0.0373697674
     -0.0613763667
     -7.0095924495
      0.0952175118
     -3.8157458787
     -2.8898788671
      5.8051437366
      1.5905975022
     -3.4203659584
     -0.5947395264
     -0.7837102107
      4.8500283787
     -0.7108044135
     -5.1330558014
     -4.0832666381
     -1.7917294680
     -1.4769189286
      4.0229841600
     -0.6951066455
     -4.5579374438
      0.1526635939
     -4.5643185718
      6.3878561194
      0.0198015413
      0.7872142102
     -6.0197614292
     -0.2762930978
      2.5565267164
      2.2718629790
      1.3412380340
     -2.2100266101
      5.8400392315
     -5.0094830798
     -0.5348025018
     -3.8590841496
      1.3425942677
      1.1068235526
     -1.4318158241
     -7.4087070730
      2.0192134919
      0.6137143789
      0.2590403008
     -0.6755752802
      2.1049552461
      0.8562231400
      2.2596323596
      3.4764911081
     -1.4472572907
      0.6925800154
     -3.2833985636
     -0.8592293454
      6.8298824692
      0.6019266971
      3.9094524705
      0.2688219286
     -1.5284634135
      0.7375313564
     -3.3451233717
     -0.8246811222
     -6.5313159104
      0.0054627866
     -7.7287193763
      4.1056789207
      0.3846329301
     -3.8332367621
      1.7428264991
     -0.4566880316
      9.9646625550
     -3.8524203274
     -0.1121991590
      3.8088862925
     -1.2817703620
      1.0380914136
     -4.0545959274
     -0.2215182364
     -2.1678887163
     -0.6039455803
      3.4590605351
      1.5643206186
      2.7980786173
     -0.2302170528
      5.0638649469
     -6.7290331593
     -0.0000726859
      1.2376975785
      7.3727923797
     -2.6010149051
     -3.3937951635
      5.7580040635
     -1.9777055781
     -2.3853758009
      2.2676183458
     -1.0642462766
     -0.8937527314
     -1.5052463660
      0.6273230660
      0.5424373451
      0.0245099362
     -0.2362170445
      4.5257582767
      0.3698871956
     -1.6702366169
     -0.4858195231
     -1.8877937611
      6.0206182640
     -4.1395210812
      6.9371151416
      5.9689539228
     -5.5826759864
     -7.4377956761
      5.8431393272
     -4.0824655547
     -7.4142416033
      3.7253459922
      0.8430752507
      2.9515589130
     -1.8223995802
     -2.5355178928
      0.6198810362
     -0.1509014743
      0.6213239899
      0.4663895673
      6.1207143714
     -0.8038145074
     -3.8901384246
    -15.2325279120
     -1.9186512158
    -13.3890181194
     -7.2001221148
      2.6499551745
      1.7722209446
     -1.9925317405
      0.5531882060
      0.2928726291
      0.9761328595
      1.3505892448
      1.2515877127
     -0.3647481671
     -0.8713617685
     -0.2764331465
     -0.2610922135
      0.8340781839
     -1.4141278250
     -0.1724841187
     -0.6015521468
     -0.7711447004
     -2.1965241175
     -0.7787520944
      0.1858112721
     -0.6155743138
      0.2810571256
     -1.4503343646
      1.5751010490
      6.5070346845
     -2.8470350145
      1.5014825251
      2.6709208568
     -1.4306911541
     -2.6861653677
      0.2276627197
      0.1160754255
     -0.7886659575
     -2.7017912683
      0.9752232667
     -0.3577269368
     -0.3941135705
      2.2295706199
     -0.4438867340
     -1.3307774348
      2.8112363733
     -0.2572249521
      1.3280751234
      0.5379380895
      0.7447887308
      2.0411186050
      0.2148639306
     -1.0026007066
     -0.4989659849
     -1.7882460862
     -0.3342801212
      0.4453030355
     -0.0412051225
     -1.1774316482
      0.1828447160
     -0.4795969592
     -1.8152948507
     -3.0252646183
     -2.7668806867
     -0.0891839103
      0.1748799150
      1.6561946199
     -1.7848554556
      1.5043820905
      2.2802424805
     -1.2780777880
      5.1249051666
     -0.2311939205
      0.5370271483
     -4.8360367219
      0.4559031213
     -0.1365417888
      1.2301428904
     -4.4335406464
      1.2240613598
      0.1129995015
     -1.3039549142
      2.5275565909
      2.4495891495
     -0.0093472216
     -0.8465780193
     -1.3430162351
     -0.0436964089
     -1.7029731024
      0.9781904813
     -0.2226814002
     -1.9065737057
     -0.3415641087
      0.4578776917
     -3.6094960816
     -1.7308128446
     -0.0902512959
     -1.7579638157
     -2.7180429988
      1.1277879081
      1.7288463681
     -3.3652913133
      0.8957312430
     -2.5597113160
     -1.2356009311
     -2.0614120368
      3.7883614617
      0.1051394756
      0.7854714679
     -0.9548339233
      0.0707442496
      2.8036049413
      2.0381802488
      0.7494686049
      1.6691039409
     -0.1802974177
      0.3862226140
     -0.0478801819
     -1.9125322988
     -2.2132355136
     -0.2925815573
     -3.0851562654
     -1.4272164346
      1.0778169250
      2.4478480734
      1.7193831778
     -4.4804895925
      0.3500292404
      1.8027007125
      3.3225618211
      1.2893112108
      0.9397414266
      0.2683597399
      0.4620682199
      2.5694719661
     -0.9508241159
     -0.0328110942
     -1.3983605900
     -5.0190418698
      2.0677725006
     -3.6296102032
     -3.7612065699
      1.8717253561
      0.0873419096
     -2.9296723872
      1.6483191470
      1.8257234449
     -0.8722129978
      0.3289834180
     -3.9112270377
     -0.3239867929
     -2.5066084717
     -1.3372819816
      1.2302627367
      3.2377072903
      0.7313397036
      1.2700229166
     -1.9962499582
      2.9870447661
     -2.7888134671
      0.4399562558
     -0.3366375266
      2.5439669160
      1.8594510427
      1.6118475154
      0.2056563109
      1.1759849294
      1.5224487090
     -3.2999597385
     -9.2352708262
      3.4003041766
     -0.4838094154
     -0.5649695954
      1.1299975710
      0.3167670356
      2.9076022803
      0.0165987819
      3.3156409261
     -3.2779092508
     -4.2446108928
     -0.0606246662
     -1.3164592535
      0.2676550831
     -7.1846378351
      2.6740759882
      8.0851194317
      2.2034625023
     -0.8554107996
     -0.3292891938
      2.6187901494
      0.4991800284
     -0.5686902723
     -4.7716713947
      0.8720378942
     -2.0438650975
     -6.2304133475
      0.0696882649
      2.4631864497
     -7.0740320871
      1.7818073298
      1.1102918306
      3.5262499031
     -3.8163255178
      7.7057141953
     -8.3456236517
     -7.3553504092
     -3.2997494708
      0.1975774280
     -3.8758401981
      4.5111458784
      1.0263983774
      0.4336130385
      0.4322227084
     -3.4807370085
     -2.3176860100
     -4.3007493617
      0.3855705553
     -0.1370570648
      0.5483033438
      0.5665413520
     -1.5259657433
      3.0457952969
     -3.7840413974
      1.0024671284
     -5.2131151740
     -4.7599384154
     -2.0619958341
      0.1840628771
      0.9787994265
     -0.2586309617
     -3.4990690283
      2.2569731596
      0.9989193136
      5.6392518863
      1.8603707843
      5.4402447156
     -0.0086430117
     -2.5804117893
      0.1696387848
     -2.9432254416
      2.5462568084
     -0.6724982809
      4.2039697308
      1.4997960570
      5.0704247292
      8.4847885445
     -5.5425642856
     -0.4070252003
      2.9083803492
     -0.1708804489
      0.1026516606
      0.2125137833
      0.1760228376
     -0.7975513223
     -0.6072820374
      1.7117120841
      0.4142051140
      2.7726276864
     -1.3172863195
      2.2482206750
      1.1534914537
      0.8176266985
     -1.6299705851
     -0.8164084340
      2.0578773307
      2.6251611631
     -0.1327697531
      0.0965521138
      1.2188833664
      0.6114454474
      0.4711719188
      0.7870266150
      1.5567826921
      3.0136407768
     -1.0479308443
      0.0160747657
      0.2568529272
     -0.4733953049
     -1.0942623678
      4.3192829439
     -0.6308543632
      0.4422261062
      3.4468720976
      0.0380670136
     -4.9426130235
     -6.9250075774
      1.9825761978
     -1.5937353333
     -1.2195324871
      1.2892384872
      0.2378960235
      2.3441877413
      0.7058031276
     -3.0795831250
     -1.2676710360
     -0.5420085357
      0.5219991088
      0.7854422409
      1.6826545031
     -0.6347716622
     -0.8064001255
     -2.7881391254
     -1.1776585905
     -1.9128953235
     -1.1904391007
     -0.1693868446
      0.4330408434
     -1.0110848918
      0.8304996804
      1.8184884818
     -1.6901916978
      1.1811194408
     -2.8274960166
      0.5570997954
     -0.8385349648
     -1.9102693443
      0.5331644587
      0.2083585769
     -0.6119370022
      3.6613856733
     -0.0111120409
     -0.8689816329
     -1.7776993388
     -3.7846963663
      2.1332720680
      3.6289263738
      0.3873182513
      1.4706826140
      3.7873166495
      0.1786378408
     -0.1175238637
     -0.5057125746
      1.4875273942
     -0.3365058811
     -1.1411810339
     -1.3880323417
      0.6922933893
     -0.0376302893
     -3.0009309177
      1.7975902623
      0.4414366422
      5.0387212230
     -0.7562207957
      4.8398040285
      2.0740778055
     -0.7154013998
     -0.4630699413
     -0.0977066635
      0.9224327621
      1.3054604758
     -0.5285447293
      0.3608878738
     -0.8275874197
      3.1936304839
     -1.0006991351
     -0.4108895334
     -0.0217887117
      0.2440691523
     -0.3981977022
     -2.4632079398
     -0.2749879903
     -2.0560560945
      2.4007591955
     -1.8813666248
     -0.6958673541
     -0.7132548269
      0.4015236344
     -0.3074948239
      0.3251507176
      0.5225050539
     -0.1079066115
      0.7168633190
      0.6530007208
      0.0585618475
     -0.5610569799
      0.1632746563
      0.9765864894
      1.0816933388
     -1.1758566521
     -0.5370980588
      0.1529422940
      1.4581579630
     -2.5208433268
     -0.1374320706
      0.4131745820
     -0.2114119598
     -1.8116834017
     -0.5676355097
      0.4825988599
      2.4677279887
      0.6972162323
     -0.2987564594
     -0.3762271488
      0.2256059336
     -1.6612018013
      2.3345637229
      0.2021763775
     -0.1416880534
     -1.9733199179
      0.2733275883
      2.1794288869
      0.6172716387
      2.2051337690
     -0.0087179874
      0.8831603551
     -0.1469679742
     -1.0778302203
      0.4146583577
      0.7311269753
      1.0936149878
     -0.2257435282
      0.3896707426
      0.9386596926
     -1.3753501706
     -0.5515834993
     -0.7944207992
     -0.0447514784
      0.5161174110
     -0.7687786635
      0.8476424470
     -1.3105330212
     -0.9196024735
     -2.0977001978
     -0.7870276629
     -0.2867078878
      0.2592728088
     -0.3718669577
     -0.8888309793
      1.1516580393
      1.1831683001
     -1.2730979176
      0.7450153265
     -0.2620772027
      2.8257125702
     -2.2484125917
      1.5587088350
      0.1582683204
     -0.6014904836
     -0.7178392070
      1.3791676484
     -0.1374705450
     -1.9099526622
      2.0045792419
     -1.6876700120
     -0.5638710232
     -2.0426026485
      1.5331438087
     -0.0037036276
      0.4176711979
      0.0161691041
      0.9350001263
      0.0534533069
      0.8163368688
      1.3136071587
     -0.3190045703
     -1.2046453596
      0.6951859843
     -0.7370299524
     -0.8468565355
     -0.6846966964
     -1.1780990978
     -0.9649019792
     -1.6154216747
     -0.4629850886
     -0.2995775863
      0.6267450834
     -1.0476024121
     -0.8082373538
      0.3485564775
     -1.9371175545
      1.9440650578
     -3.1544205174
     -3.6251723277
     -4.9811228831
    -19.0052606055
     11.8098890945
      0.1064467597
     -0.6467097377
     -1.7287005815
     -0.1823598381
     14.7643893119
     -1.0244266891
      4.7587834939
     -0.3832688332
     -1.2938652763
      1.0922886913
      1.6914671181
    -27.1970091392
     -2.5674462328
     -0.5387766053
      3.4187918078
     10.9838672669
      8.1094892497
     -6.2244215167
      6.3059416421
      9.5558340700
      0.4096686521
      9.3952494024
     -7.3548257089
      4.5136889935
     -5.6800341947
     -5.2520032375
     -7.8290743954
     -7.8356636826
     -4.1228090104
      4.2307832118
     -7.4666561645
    -13.1597854249
      1.6488143875
      0.0538938874
     -1.5214903432
     12.5883960665
     -1.1486261707
      4.5307511017
     -7.0440887228
      0.5921931006
     -0.1883463513
      4.1880009860
      4.0231695793
      1.9969314878
      9.4183412925
     -0.9412210742
      2.2920049039
     -3.8567964683
      2.0501264463
      4.3284758187
    -10.0581913162
      0.3539331122
     -8.2250760325
     -3.2016130728
     -7.0841109410
     -0.2819202886
    -13.1385247947
      7.0077665047
    -12.7456167176
     -1.4197221556
      0.4078278705
     -1.1828287285
      1.2790681660
      9.4933600064
      3.3301733524
     -3.8142579239
     19.6098646205
     -6.2225732348
     -3.2330593524
     11.6620208255
      3.7844994251
     16.7565449059
     -5.9786453381
     10.5785374245
      4.9829702465
     -6.2218295929
      7.3617934923
     -6.7798773217
     26.3038432841
    -15.9718804509
      0.5443035012
      3.4744534243
      5.3336502006
     -4.4696208036
      1.6389733681
      9.6046308681
    -24.9180769884
     -0.8363074076
     -3.6411654813
     -5.7353131011
      6.3856097839
    -11.4902031157
     20.9159979237
      5.3786876632
     -4.7370301025
    -13.8150839469
     -3.4428573871
      3.7064878933
      8.7224573242
    -17.9335731553
     -0.0348907355
    -29.8592239097
      9.9457742936
     -6.4229690503
     -0.3125477883
      6.7375172056
      7.4349378718
     14.1925562406
      3.0473138654
      3.1650299492
     -4.5957891891
     18.7344156633
     -0.6335120841
     -6.6117159035
      5.9190311132
    -14.2112161654
      0.9322599326
     -7.5407282991
    -39.1489266843
      8.5851891056
     -0.1050238025
      5.7057753760
      3.8224267017
     -1.0459807851
     -2.0042370504
      1.4054426858
      3.6733143106
     -2.9144393363
      2.4582890994
      1.5758435657
     -3.3963485883
      1.4546460813
    -23.5386477094
     10.3927063784
     -9.0117092923
      3.6934893500
     22.5444903276
      1.1123293069
     33.8126584566
     -4.6668226444
      0.0531999615
    -25.9511800546
      0.9825793152
     -1.7020872144
     15.5281393684
     10.0657582952
     -0.5389809161
     13.2767135806
     -3.1987909590
     -3.1760945730
      4.4175943501
    -16.2436961561
      4.1452119905
     -0.9678414404
      4.3402584921
     36.6962085784
     -2.1047186399
     -8.7270021709
     14.0444292791
     23.3617493756
      0.1016649494
     20.5211392149
    -22.8261936830
      0.5980048199
    -29.3151528879
     17.3400897900
      6.4148973430
     14.7032493871
     -0.3312329746
     -4.4643990973
     -7.0166732160
     -6.2699252557
     19.4397853604
      0.8993970776
      2.3818432333
     -1.7065049109
      0.9662253583
     -2.0479386515
      1.9099855474
      0.1229888526
      1.2519691372
     -1.8237635169
      2.6598076819
      6.8260335475
      2.6395373661
      1.5671593606
      0.0072162507
      3.6680964036
      0.5023828121
      1.5356732710
     -1.8724162466
     -0.3287724448
      1.0837197319
     -0.2792033178
     -0.2855081437
     -0.7477834375
      0.4374960570
      0.2610647537
      0.3702248878
      0.2760439631
     -0.2944135731
     -1.1085356261
      0.0309291799
      0.7520255570
      0.1741466749
      0.7283183926
      0.7572719980
     -0.0104289419
     -0.0752022860
      0.5748203973
      0.0562653682
     -5.9762600656
      0.9263956509
      1.5417535005
      0.6823319276
      1.4955151332
      0.2874822644
     -1.1019261717
      0.1829852077
      0.1604101482
     -0.2687476749
     -1.9513820936
     -0.4720543480
      1.7945189817
      0.7059908423
      1.4512763013
     -0.3065139582
     -0.3251509305
      0.1700091472
      0.5280731639
      1.4991698433
      2.8446650986
      0.2332845889
      1.6694955927
     -1.3119344861
     -1.5499873178
     -0.4714978237
      0.7889974522
      0.1466914460
     -0.8101462363
     -0.5678083559
      2.3544142864
      0.2388222368
     -2.3170609940
      0.5110793143
      2.3798197795
      0.0213121062
     -0.8052448076
      1.9336325926
     -0.1523355064
     -1.2935342141
     -3.7148244752
      1.6741577453
      1.0924607033
      0.5385301255
     -0.1886803878
     -0.4390310293
     -0.3429739403
      0.1311425497
     -0.1666111387
     -0.3396416575
      1.2961480283
     -0.2521929249
     -1.5023031479
      0.2883570697
     -1.7013259614
      2.1525371839
     -0.7356344535
     -0.5319543730
     -2.2911181491
     -0.3896068956
     -0.6472159073
     -2.4039167778
      3.8112387401
      0.6287192328
     -0.0267004792
      0.5308217394
      0.5583021400
      0.4084683335
      0.6622312545
     -0.5013451576
      0.1216482218
      0.0572863448
     -0.8451775897
     -0.2068781354
     -0.9587839901
     -0.4819469588
      0.1165120720
     -0.6760998983
     -0.2197604809
     -0.2991330688
     -2.7161034722
     -0.2480920920
     -0.0069053185
      0.2817399201
     -0.3672284811
     -0.2800835151
      0.8462606282
      0.1588439822
      0.3527990667
     -0.4998140153
     -1.4331923607
     -0.1693487136
     -1.3347653053
     -0.5508363987
     -0.0764124388
     -3.4985777164
      0.5488549837
     -0.4675964794
     -0.4505982822
      0.0608223204
      0.1422122021
     -1.6973987280
     -1.1820019244
      0.1214101704
     -1.7521388127
     -0.4643788722
     -0.4279485112
      0.0264185104
      0.0561899485
     -0.0930530431
     -0.5420673739
      1.0223289382
     -0.6601374397
     -0.1945808816
     -1.1382829723
     -0.5480340725
      1.1023670958
     -0.1952240837
     -0.2287799936
      0.9039216768
      6.4845023690
     -0.3252378146
     -1.9484687098
     -0.5816397712
     -1.5624337976
      0.4612528025
     -0.0236660565
      0.2290830258
      0.1944155696
     -0.9195837310
      2.2413348897
      1.1155943347
      0.3364658962
     -0.0319903565
     -0.4652804950
      0.7198373961
     -0.2941665416
     -0.5846840063
     -0.0209491139
      0.3981611348
     -2.8487320863
      0.6168667591
      1.3011646577
      0.5000336910
      0.8014540549
      0.3629066556
     -0.0136685886
     -0.5134048733
     -0.3170163930
      0.5232010472
      1.0671656118
      0.0578086932
     -1.3805583426
     -0.6112373652
     -2.3303939664
     -0.3862673981
     -0.5543026765
      0.4048563441
     -0.2963367064
     -0.2328961741
     -0.6253883902
      0.6913566524
      0.7287959506
     -1.9451627631
     -1.7231907504
     -2.6242541455
      1.7406333012
     -1.7765316028
     -0.1935178683
      1.5440622197
      1.6064105482
     -1.5265789210
     -1.5760397310
      0.3968785905
      3.8013728521
      1.6227327896
     -0.3494433066
      0.4241082623
     -1.0470866601
     -1.5876735387
      1.6022915296
      1.1410264939
     -1.1269370826
     -0.6213383333
     -1.4077085494
      0.2573366404
      0.4174166354
      2.0190741821
     -1.0487785583
     -0.6692030170
     -1.5552755557
      1.2185351360
      0.0126565101
      0.0079746521
      0.0017281628
      0.0028460706
     -0.0064374841
      0.0192183680
      0.0310199555
     -0.0050765557
     -0.0002379485
      0.0077052010
    -30.0116325814
