     -1.5397704993
     -0.3304460535
     -0.6319892061
      1.0333875952
      2.6467896266
     -2.9045689370
      2.0257207242
     -0.2706356885
      2.8868172757
      5.2060282226
     -1.2203204765
      0.0580951807
     -1.8314591471
     -0.6045828740
      1.7718102722
      4.7217980107
      0.8567980634
      3.2016014490
     -1.4555211075
     -0.1250446266
     -0.3234948589
     -0.3754169232
     -1.3208812173
     12.5462498590
      2.5537547746
     -6.4289842397
      1.9602448986
      0.0557033395
      3.1225567823
      0.8305073795
      0.8505727236
     -0.3611807626
      2.0474220416
     -3.4031915294
      5.8301248726
     -0.3198618839
      0.2083384790
     -4.2022025012
     -0.6690040125
     -2.0440907262
     -1.5715027428
      0.2082998491
      0.6641420703
     12.9860638714
     -2.6986905239
    -10.1785937472
      0.9257787768
     -0.0868146170
     13.8970905435
     -4.0418484470
      3.2120963923
      0.1621970185
    -10.0047875469
      0.5308049377
     -5.4317329943
     -0.1208865628
      4.7359515252
    -17.2081489875
     -1.0316446108
     -7.5076466046
     -1.5566650602
     -0.2689318640
      2.3483448649
     -5.3559380405
      1.1406991922
     -2.0888914431
     -0.3178492258
      0.0163462052
     -3.1696851049
     -0.2214844954
     -5.4396406552
     -0.2730011864
     -6.8950003975
     -2.7509452019
      0.2234747138
     -1.5186449829
      1.8935926867
      5.7164612331
      0.4249500931
     -2.1207818819
     -0.7767353869
      0.1882958813
     -1.2687828289
      4.8235280788
     -0.8646028074
      1.4634647964
      3.7243906290
      0.0664646132
      3.6322002327
     -3.8002113997
      0.1231495990
      0.0636668353
     -3.9717481270
      2.6732859375
     -2.8174172006
      0.5252707174
     12.1088298509
     -0.8422039874
     -1.4280094623
      8.0131394667
     -4.8568969621
     -0.1803779428
     -0.5115418258
      7.4203572344
     -2.2165409653
     -0.0416662481
      3.0025335733
      0.0090296126
     -2.5499770163
     -0.0250038498
     -0.4235106909
      0.4264353109
      4.2767315228
      1.6921560529
      2.0203332479
      0.3905335544
     -3.1691356670
     -1.9272437350
      0.8295071768
     -2.2698049702
      4.8405446208
     -0.3396139711
      2.9158912365
     -0.0410767453
     -3.3354313432
      0.6375603177
      0.0258034471
      0.3566808050
     -2.1276006761
     -9.4761819829
      5.0029384607
     -0.1161444688
     -2.4494737342
     -5.1007824229
     -8.7031930344
      2.2729287884
      5.7275623631
      3.9482079431
     -2.3969161459
      5.7735023437
     -2.5698229930
      0.5341917633
      0.9207558239
      0.4885522347
     -1.1477862154
     -1.2864492611
     -0.6466178752
     -0.3030589252
     -0.1517662997
     -1.0191606854
      1.0331475256
      1.6817715603
      2.2435853222
      3.0005209236
     -0.0274210309
     -1.5627095135
      1.2788504722
     -0.2809383381
      0.6471170103
     -2.4079668353
      0.5611259757
     -0.2678114034
     -0.7236772645
      5.7309209571
      2.5629542995
      3.2816752690
      9.2592730756
      0.0081036460
      6.2799993742
    -11.4365812439
     -0.4236368806
     -0.2503630353
     -0.9929794730
     -1.0824076538
     -7.9031643092
     -3.7818345643
      7.6134984400
     -3.8445391521
     -1.3295090431
      7.2146084887
      4.9045157651
      0.1850820090
     -0.2449216536
      0.8282981412
     -0.1337124668
     -0.8962508110
     -1.3424957693
     -0.4259030293
      1.9827089198
     -1.2898228202
     -2.8866131967
      1.5143932435
     -0.8422152437
     -3.3091951868
     -2.7146238667
      0.9798163236
      1.9003237122
      0.5829790713
      0.2304575400
     -1.1453402104
      0.6366185714
      0.0040283858
     -0.7400534413
      0.7936534502
      1.9523832920
      6.8923277574
      1.4698891192
     -0.3107880014
     -0.7114582360
     -2.2844421729
     -0.2756157289
     -0.0181771051
      0.8343923983
     -2.0947863074
     -4.3929123758
     -1.8393387975
      0.3293631280
     -0.4762097746
     -0.0287453052
      1.6765956034
     -3.2944949102
     -0.2977538975
      3.0501336504
     -6.8092631569
     -4.6698394471
     -4.2051016974
     -0.7647075170
     -0.1737710753
      9.4280546898
      3.7998865252
      0.8248119487
     -0.0234772525
     -6.1138604542
     -0.5790660485
      5.4313266338
     -1.6427559214
     -6.6284315382
      1.1026939161
     -0.1538357699
      9.2824682987
      4.5302217018
     -0.4380048387
     -0.2359098063
     13.1270621277
      9.2146389735
     -9.3342476037
      4.5504276607
      0.2872583937
     -1.5456905884
     -3.9580197798
      3.5854039824
     -0.0742843587
    -23.5432918393
     -1.8696460411
     -3.5500508370
     -0.4649647564
      7.5447615407
     -0.7110511448
      3.1756370195
     -5.9699102007
     -4.1209997645
     -0.4082396444
      0.0421042839
     -5.5984421140
    -11.8722618318
      6.0693184150
     -5.6542847139
     -0.0130306649
      6.4071993043
     -0.0361094930
      0.6846783644
     -0.5062803221
      7.5716500902
      2.5773928885
     -2.3821920571
     -0.2866666502
     -8.8907889401
    -11.3439469123
     -2.3572432048
     -0.2237474714
     -4.2043726838
     -0.0999959288
      2.1882395168
    -19.9741248755
     -3.3536035506
     -2.3106855500
     -1.9861116538
     -0.1777778256
      2.4403130969
     -4.4929094325
     -4.6277418011
     -0.1829391921
      0.5778650837
      5.3714659666
     -1.2239883742
     -2.0295133546
     -1.5702136110
     -0.3268104946
     -2.2812358201
     -2.5080955106
      0.2604041248
     -0.4031475646
      1.2227933207
      2.9376760615
      1.5156303130
     -0.6329767767
     -1.3612090261
     -0.4327913836
     -1.6293575940
     -1.2171014191
     -3.5545840026
     -0.1904113640
     -2.0932884288
     -2.0424237383
      0.4202281058
     -0.0934223869
     -0.9917972073
      4.3271139809
      1.2058677412
      0.7776646616
      2.0940142126
      0.3926366514
     -3.3454289275
      2.8288655873
     -1.7144142870
     -0.1659966378
     -1.3803497486
     -0.1213882753
     -2.0256027293
     -4.0346264372
      2.2300800584
     -0.2935529867
      0.2950122176
      0.4491733040
     -2.2778705147
      0.8422222850
      1.2261848892
      2.1248684329
     -1.8424459678
      2.2413800554
      1.8097125788
     -0.6610963882
     -0.7044481099
     -2.5557902470
      1.6893653401
     -0.9619302654
     -2.2439251876
     -0.1197843433
      0.0709926750
     -0.2758578426
     -2.7686510487
      0.9084442284
     -4.7651039097
     -2.8968961788
     -0.6407689916
      0.0979399538
      1.4585024085
      3.7260861006
     -0.5412412822
      0.7970766855
     -1.6126239037
      1.0270073558
     -1.3851681582
      1.1778077238
      0.5862231909
     -0.2821458738
      0.6187869555
     -0.6044736027
     -1.1016939279
      1.2129906821
     -1.9129398068
      2.8323107315
     -2.7735900821
     -0.7970655980
      1.3136975199
      1.6709521682
     -0.5230866047
      2.1498232487
     -0.0360035272
      0.7733874713
     -4.8252878352
      0.3825353287
      2.6425544481
      0.3123177326
     -0.3952586313
     -0.5780263957
     -1.8948584092
     -0.0173774736
     -0.9007225002
      0.9995166884
      1.6333377680
      1.5139371127
     -0.8957091452
      3.0020941348
      3.5279547038
     -0.7243697883
      0.2202749248
      0.9280212076
      0.6679101585
     -0.3437169656
     -2.5318748550
     -2.5656969958
      2.8970730689
      0.0404851657
      0.6189631215
     -0.3626463786
      0.9709480862
     -1.2526138729
     -0.4082584942
      2.4758785398
     -1.3564751891
      1.1163032363
      1.3048850882
      1.2271868917
      2.4138385050
      1.7510219961
     -1.5023813175
      1.3596140261
      1.2061191070
     -4.6530066795
     -4.4705934757
     -0.7089102275
      1.5131087101
     12.5347622727
      8.8537090034
      4.4033612380
     -0.6478067017
      0.1993733707
     13.6218475739
     -2.4691728297
     13.5106745462
     -1.8071345028
      3.2858810500
      7.0360964855
     -0.8563565737
      0.4467674046
      2.2117328329
      6.6698601913
      0.6636075483
     -3.5734493777
    -10.5479237245
     -0.0593038663
      3.2409763004
     19.7350339968
      0.3346746884
     -1.0523933446
      2.2433866660
     -0.4458640422
      4.8988889750
     -2.7802141013
     12.3492220372
      0.2679547790
      3.6566728796
     -2.0747292776
      1.6187008353
     -2.4121073388
      5.6347510355
     -4.9039518949
     -0.7522543306
      9.2518200783
      2.1599644304
     -1.2314387639
     -1.5622983833
     -5.3297989580
     -2.3742467955
     -0.2570259157
     -0.3060664186
      0.0209291906
      1.1289774341
      0.5536388744
     -0.3444065840
     -3.0189350295
      1.0018193322
     -3.3827761409
     -1.3259097047
      0.2447411298
     -3.4876867996
     -2.0345992210
     -1.5520040534
      3.6635304799
      4.3994510098
     -0.0944820047
    -11.7594705567
     -6.3631458056
      3.2950380636
      0.3884675335
     -3.0411625075
     -0.3378911211
     -4.0826299689
     -0.0741577212
     -2.2547690991
      2.2855499233
     -3.0676712357
     -3.2756360953
      0.1217676526
      0.7929483067
      3.6438606718
     -6.1361813751
     -0.4276091917
     -3.2865602586
     -2.3715224401
     -0.8997092167
     -1.9566030484
      3.6322716164
     -0.6332780561
     -0.6987363618
     -0.6322483747
     -0.8332579362
     -0.8265707891
     -1.4292098986
      3.2742985933
      2.1335026055
      0.5736587457
      2.3232671176
     -1.3795674807
     -0.7385770919
     -0.0825362634
      0.7951746334
     -0.0220103657
      0.7841488997
      1.2190553365
     -0.4792285582
      2.7820692130
      0.6627282286
     -0.1838418042
      0.5371589714
      2.1017085289
      0.0705524902
      1.3614118431
     -0.8841112417
      2.4253398534
     -1.1132819017
      2.6831517621
     -0.3437472769
     -0.2115414725
      0.0494542489
     -0.6106084600
     -1.8955050145
     -0.8026138233
      1.6599526950
      1.2140645667
     -0.4282818650
      1.7516030807
     -4.4399843766
     -0.1935780058
      0.1909439417
     -0.9350640850
     -1.0601741943
     -1.2699960115
     -0.9423943524
     -1.0762807328
      2.2681288923
      0.3631973875
     -0.8751162717
     -1.4344760481
     -0.3221529456
     -0.0570681766
      0.0466754163
     -0.2065194472
      1.5189538889
      1.3267846291
     -1.0286661832
     -4.3542080453
      0.9171009507
      0.6253313468
     -1.2139769376
      1.4870646610
     -0.7297822414
     -4.8850870879
     -0.1467581457
     -2.4507651428
     -1.2364538674
     -0.8481272246
     -2.0750494804
      1.2168847987
     -0.3439717531
      2.3349836525
      2.6066430964
     -0.3867677401
      1.6498109096
      0.7285685654
     -1.1817419752
     -0.0816724668
      9.2678089316
      1.1386607438
      1.4578658203
      0.4927873417
     -0.5996933997
      1.7512282301
      1.1682252131
      1.5906132699
      0.0514469862
     -1.1756972957
     -0.7562075989
      0.1479048615
     -0.5200465814
      1.7540388444
     -0.9373459083
     -0.0421960846
      1.8616924810
      4.0252199973
     -0.3962848376
     -0.2061218090
     -0.7190190955
      2.1785545960
     -1.2258389033
      3.0169179580
     -1.2355625225
     -0.0181291434
     -1.7839127501
      0.6239180393
     -1.5086881403
     -1.6031688820
     -1.1176044239
      0.1332355472
      0.1990834052
      1.5622477093
      2.3298777255
     -1.7168908367
     -0.2253784699
      1.9509418455
     -1.5551612088
      2.0669893999
     -0.0302256875
     -0.2850660051
      0.9606949596
     -1.5858032444
      0.5958134175
     -1.3780819441
     -0.0414378750
     -1.5915786958
     -2.7980383314
     -1.2064376217
      0.1931734419
     -0.4699206636
     -0.2898380346
      0.4134535736
     -1.3130749925
      0.5118638603
      0.6483663792
      0.9451819571
     -0.6548416259
     -2.3510043233
     -0.1817994018
     -1.3122318435
      0.6556333991
     -0.7728012088
     -0.5989964417
     -0.9722232089
     -1.2773972413
      0.3040997825
     -1.5074397890
      0.8276575901
      0.1657695250
     -0.4655883299
      0.3650467245
      0.2147695111
      1.5604486785
     -0.3288516327
      0.9251672377
      0.6286883451
     -0.8263108231
      0.5209998806
      0.0356718791
      0.1841716773
      0.2783123455
     -0.6403778142
     -0.7029461046
     -0.3568965882
     -0.4338978769
     -1.4314511010
     -1.2014163888
     -1.3458756489
      0.1304613802
     -0.4883072303
     -1.1326228433
      0.6895097988
      0.5042921699
      1.3909421038
      0.1687933074
      2.9913571836
     -0.3863089163
     -2.1272425450
      0.8377307076
     -0.5618501538
      0.1302731486
      0.0887264971
      0.7823020251
     -0.8272239648
     -2.0437255225
      0.4283427861
     -1.5378907158
     -0.2761223566
      0.0586761506
     -0.5292286435
      0.2355832727
      1.5891970648
      1.1778165079
     -1.2971939232
      1.2400901455
      3.6238047098
     -0.0232988870
      1.7551610779
      0.6131778365
     -0.9343557513
     -0.1458681666
     -2.0491733137
     -0.2621385787
     -2.7259066548
     -2.0540555540
      0.5053903108
      0.5993559287
      0.6555511503
     -0.7643090196
     -0.4922035644
     -0.3221657038
     -2.5932696732
      3.5007946223
     -0.3929923071
     -0.7695532194
     -0.8252908360
     -0.3000945067
     -0.5264138080
      1.2469317842
     -5.1584592114
     -8.3608551110
      2.7864285244
     -0.2132375394
     -4.5074164580
    -22.7887672902
     -6.0908949049
     -0.0190566270
     12.8665746847
     -1.4716500770
    -13.1103337485
     -2.1133325921
     13.2719472634
     15.3109791615
      1.6397475530
      0.5971037951
      1.5915876835
     -0.3383541333
     -0.6013134593
     -7.9848134652
      1.4142304972
      8.5443730139
     -8.4187770323
      0.1336712404
     -0.6500361017
     17.1677746176
      0.1780444033
      0.8483079424
     12.2754329968
      0.6105908473
      0.9852486916
      2.3608234354
    -12.7290322024
     -7.4294287569
     -2.0962631388
     -3.0827936906
      8.9492619208
     -0.2860947626
     -7.7586116290
      0.8537350598
    -17.2612497744
      3.0863220768
      2.0475204401
      0.3590223684
      4.6891159254
    -12.7640270527
     14.0051827882
      1.1189536303
      0.9275530422
     -5.2170437875
    -11.4341113368
     -1.5419835978
      6.8323048704
     -9.9679060678
     -0.7006731926
     19.6059694692
     -5.1091974804
     -0.0751999269
      1.1483898012
    -10.5490311462
      8.5714597978
    -23.5544824437
      3.4594174732
      0.5232260335
     -1.5374875295
      9.2355020069
    -13.9196027311
     -1.2121980265
      8.5858375999
      1.1007707491
     10.3238502103
      2.9970899564
      1.1107789825
     12.6475162590
     -2.6057226033
     -8.5326329720
      3.6060772288
      0.0721882930
     -2.7422480222
      4.0103554391
     -8.3092185637
    -32.0988226707
     -4.3942423544
     -0.1121009106
      1.2088332790
      2.6144072582
     -0.6530443071
     -0.3329192495
      6.2946332735
      3.9227915121
     -3.0438645273
     14.5538178349
     12.3109895591
     26.6164554798
     -4.2713305371
      0.2089989674
     -4.8477994480
      0.2954342565
      4.3244308975
     33.0966265186
      7.1653416868
      3.9958723334
      7.4704521891
     -0.1989463323
     -0.5248629437
    -16.2616344509
    -10.0029416115
     -0.7846942466
     -7.1530955845
     -5.8633976461
     -3.6652908802
    -15.4564141101
      3.5973619886
     -6.0466649501
      9.6724182641
    -22.3890000161
      2.8056057542
      0.2719862056
      0.3260681917
    -16.8154521810
      7.3123228315
     43.9807944253
      0.2619904161
     -0.2752715579
      4.6942609390
      9.6353894574
     11.1550096528
     -1.0151338932
    -24.6132431635
     -6.2112551327
     -5.6328377410
    -12.9777157394
    -17.5206344697
    -29.6209402114
      2.3546420513
      2.4079046380
      4.4953841713
      0.5465042722
     -8.5148612188
      1.2498014679
     -2.7627399043
      0.1792437944
     -1.2978319152
     -1.7498924175
     -0.5351949689
      0.4902122614
      3.3608057479
     -0.6973731032
      1.7626712132
     -2.7604220401
     -5.1276999666
     -0.8840996558
      2.3472557974
     -7.6680179112
      2.9150876139
     10.4847798808
     -0.2347337765
      0.4287921213
     -0.4455730161
     -1.2251662365
     -0.1977149176
      0.3577217937
     -0.1943443510
      0.1220557064
     -4.3858828625
      0.1724344021
     -1.1113282784
     -0.1253264518
      0.5198844937
      1.8873663956
     -1.8598478220
      3.6781427209
      0.3800932859
      0.6830168040
      0.1877541694
      0.0100543498
      0.8179652638
     -0.9201509872
     -0.2275975675
      0.7844900013
      0.0903478806
     -0.4737427239
     -0.2457298467
      0.6189918565
     -0.1244440967
     -0.1011091483
     -2.8050556888
     -2.8873412844
     -0.9082853243
     -0.0885425388
      0.0961512023
     -0.8581134649
      1.5629092788
     -0.9959735311
      2.1379535660
     -0.1789754246
     -1.8652380510
     -0.5457740272
     -3.5009310881
     -0.5359217665
      0.4162250806
     -0.2153738138
      1.0188299143
     -0.0326786517
     -1.3138796852
     -0.4457994373
      8.1397393232
      2.1866424011
      5.5075067948
      2.2972596321
     -1.0162751224
     -1.5641412694
     -2.7808228567
      1.6558466122
     -0.8801009121
     -1.8535971778
      0.1421111342
     -0.5334647870
      1.3626980416
      1.2746831394
     -0.1885026294
      1.0373991137
     -0.8117504006
     -0.7888847738
      0.2030276689
      0.0572388041
     -0.1376365088
      3.0918719248
      0.4576915260
      4.6696836122
      1.7080535446
      3.2647379381
     -0.7791863474
      0.3375812869
      2.1886986833
      0.7039491408
     -1.0323571935
      0.1991969465
     -0.3866253133
      0.6500057036
      0.2573090486
      0.8761153139
     -0.4271544137
      0.8217091560
     -0.0843244400
      0.5022501007
     -3.7122117580
      1.2610698971
     -3.8647513123
      0.1443567820
      1.7648181744
      0.7426089369
     -1.0493292890
     -1.3279528079
     -6.4628391528
      0.0079001673
      0.8817923926
      1.4982068215
      1.6777319375
      1.2129230318
     -0.2113946680
      0.1421570201
     -0.8114101859
     -0.6962938229
     -4.1112433182
      0.0888926014
      0.4966073034
      0.0812099112
      0.1091950060
     -0.6531763231
     -0.0879950626
     -0.0966646233
      0.1314319559
     -0.5990061012
     -0.1590081186
     -0.0320856353
      1.6033256014
     -2.3219541689
      0.1525610099
     -3.2139966559
     -0.0079851756
     -1.0018625725
      1.2484553043
      0.3382202179
     -0.9880633260
     -0.0596120154
     -0.8229671538
      0.2960211894
     -2.8248890664
     -2.2984128643
     -0.2670156923
     -0.7834010801
     -0.7049471919
      0.4436275753
     -1.3978386216
      0.7954846118
      3.5580485846
      0.3726070792
      4.9366587650
      0.3829815505
     -0.6396056279
     -4.4377070503
     -2.3341999776
     -1.3425427937
     -4.8081726110
      2.2323339159
      1.8896414465
     -2.0539451608
     -2.9846293871
      4.9469168458
     -0.2370540384
     -1.2983522887
     -0.4033255730
     -3.5190220642
      2.5700780261
      2.3321347239
     -0.8477418975
     -2.2573842240
     -1.3554934014
     -0.0143390037
     -0.3591471839
     -0.3480671759
      2.3200016535
      0.1007097484
      4.1890652382
      0.2522547136
      0.3577487624
     -2.1687795177
     -4.2259448928
     -0.6483857539
     -0.3058424984
     -0.1077841050
     -0.3062367985
     -0.2904109972
     -1.1480603664
      0.1018569987
      1.7561302806
      2.3253843771
      1.6896809366
      2.6499045751
      0.5159300653
      5.1478585862
     -1.1112724470
      5.8578258877
     -1.3160374300
      2.5320293340
      3.4633735475
      3.5683094877
      3.6905678231
      3.7445930108
     -0.6308092313
      2.3121204748
     -4.2367249214
      2.9346654475
     -0.0462422500
     -0.2656285247
      2.4116845538
     -1.4384923438
     -0.4527361989
     -3.4869701753
     -3.6799204170
     -3.5651283582
      0.7441274629
     -0.4030355322
     -2.0405847542
     -1.2840948201
      0.0039172249
      0.0266344072
     -0.0082715495
      0.0113193366
     -0.0712689539
      0.0115836433
      0.0138602599
      0.0108227824
      0.0003159229
     -0.0389373007
    -30.0268950414
